<?xml version="1.0"?>
<opencv_storage>
<my_nn type_id="opencv-ml-ann-mlp">
  <layer_sizes type_id="opencv-matrix">
    <rows>1</rows>
    <cols>5</cols>
    <dt>i</dt>
    <data>
      128 128 128 128 34</data></layer_sizes>
  <activation_function>SIGMOID_SYM</activation_function>
  <f_param1>1.</f_param1>
  <f_param2>1.</f_param2>
  <min_val>-9.4999999999999996e-01</min_val>
  <max_val>9.4999999999999996e-01</max_val>
  <min_val1>-9.7999999999999998e-01</min_val1>
  <max_val1>9.7999999999999998e-01</max_val1>
  <training_params>
    <train_method>BACKPROP</train_method>
    <dw_scale>1.0000000000000000e-03</dw_scale>
    <moment_scale>1.0000000000000001e-01</moment_scale>
    <term_criteria><epsilon>9.9999997473787516e-05</epsilon>
      <iterations>10000</iterations></term_criteria></training_params>
  <input_scale>
    9.1366730889232365e-03 -5.6738739882213296e-01
    7.9768845729275249e-03 -1.2025153493688243e+00
    7.8722228727220647e-03 -1.0899092567283697e+00
    7.9858933996997550e-03 -1.2098628500545130e+00
    8.0423148147674636e-03 -1.2521884166592940e+00
    7.9517362996057023e-03 -1.1808328404914468e+00
    7.8738479380999014e-03 -9.1533482280411349e-01
    1.7332922894578728e-02 -2.3919433594518646e-01
    8.7173232853345710e-03 -6.2633967805128887e-01
    9.4486731470179337e-03 -1.8765064869977617e+00
    8.6792313109817013e-03 -1.5804880217297677e+00
    8.1145525193295712e-03 -1.2999513135965972e+00
    8.2924640895669401e-03 -1.4005971847278562e+00
    1.0207435417555951e-02 -2.1343747458109492e+00
    8.0580497750787246e-03 -1.2630993022435901e+00
    1.4704884623478133e-02 -2.8895098285134529e-01
    9.7824086922827166e-03 -5.0183756591410333e-01
    8.9404069134814326e-03 -1.6870547845739463e+00
    8.0293550251495666e-03 -1.2429441578931530e+00
    8.4108937472325545e-03 -6.8506729571209157e-01
    7.9036721804335627e-03 -8.8323536616345066e-01
    8.7914032849773730e-03 -1.6272887480493117e+00
    8.4529774110362506e-03 -1.4796936958018958e+00
    1.5429949252299622e-02 -2.7311010176570333e-01
    9.9845160373554075e-03 -4.8524747941547280e-01
    8.5867314963220323e-03 -1.5404596304401728e+00
    7.8634123607307753e-03 -9.3063485289248726e-01
    9.0144512583591723e-03 -5.8278427385292053e-01
    8.4616337743687233e-03 -6.7396913012846882e-01
    8.0915504476835216e-03 -1.2853427886145274e+00
    8.1758059384954892e-03 -1.3367442709440125e+00
    1.4311985556888450e-02 -2.9840489886112420e-01
    1.0712922943626604e-02 -4.3548031765842143e-01
    8.1937931206795215e-03 -1.3470595890397135e+00
    7.8855108944259223e-03 -9.0131389523288286e-01
    8.3590771376746524e-03 -6.9714703328206606e-01
    8.2924640895669383e-03 -7.1398115811171337e-01
    7.8436800889168622e-03 -9.8830369120352468e-01
    7.8546477196605336e-03 -1.0556646535223757e+00
    1.3996092556478431e-02 -3.0651442698687764e-01
    1.2361565098462384e-02 -3.5786730960048602e-01
    8.2154965793558403e-03 -1.3592539090544238e+00
    7.8514059608745662e-03 -1.0469849848826234e+00
    8.1305408030160169e-03 -7.6345778140320408e-01
    8.1041854240787945e-03 -7.7313928945711707e-01
    7.8453092674761107e-03 -9.7674100380077578e-01
    7.8462655248422303e-03 -9.7215229852795237e-01
    1.4311985556888450e-02 -2.9840489886112420e-01
    1.5137018390253127e-02 -2.7927798930017017e-01
    8.2250387932556231e-03 -1.3645339358011079e+00
    7.9716306603261882e-03 -1.1981360882470262e+00
    7.8562019178671470e-03 -1.0594088286243848e+00
    7.8772330599178614e-03 -1.0976924268995540e+00
    8.0649987006239671e-03 -1.2678177957380876e+00
    7.8431589660986987e-03 -9.9764982048775452e-01
    1.5807910942901765e-02 -2.6557290384074966e-01
    1.7422481929093833e-02 -2.3781687833213083e-01
    8.0489766756229493e-03 -1.2568477078985236e+00
    7.9877332315941262e-03 -1.2113397445712493e+00
    8.2314815175577264e-03 -1.3680722282180939e+00
    8.7797158505696395e-03 -1.6224914891852695e+00
    8.2680983026940501e-03 -1.3878003001071963e+00
    7.8855108944259206e-03 -1.1094913828457269e+00
    1.5024964528506960e-02 -2.8171808490950551e-01
    2.0154788597695480e-02 -2.0255562540683958e-01
    7.9238338741441979e-03 -1.1541064037691025e+00
    7.8968823210901120e-03 -1.1241211984071775e+00
    7.8817184687408996e-03 -1.1042287574706000e+00
    8.0792710140228340e-03 -1.2773327473170100e+00
    8.1526889506816826e-03 -1.3231814166956373e+00
    7.8755179721613708e-03 -1.0950907740290388e+00
    1.3583847389804957e-02 -3.1786202892143600e-01
    2.2564411258041504e-02 -1.7938706950142996e-01
    7.9895858107295065e-03 -1.2128191260687391e+00
    7.8487012132404579e-03 -1.0383831705117126e+00
    8.3825948461590874e-03 -6.9156407480812476e-01
    8.0189219615284680e-03 -8.0951017201629882e-01
    7.8443587899615710e-03 -9.8250593844268674e-01
    7.8546477196605336e-03 -1.0556646535223757e+00
    1.1751905715930171e-02 -3.8252453105352702e-01
    2.1084065010853449e-02 -1.9291919484930906e-01
    8.0009704165417452e-03 -1.2217481826059244e+00
    7.8640852545347473e-03 -1.0758068628203534e+00
    8.7452924053480086e-03 -6.2179029002024333e-01
    8.2029990023347217e-03 -7.3950036006047526e-01
    7.9048444253154975e-03 -8.8218063786520950e-01
    7.9048444253154975e-03 -1.1335546905902425e+00
    1.0397190177207284e-02 -4.5539692976167900e-01
    2.0449993962459705e-02 -1.9938744113398213e-01
    8.3176809290490209e-03 -1.4135898738918811e+00
    7.9251943057576484e-03 -1.1554933297794652e+00
    8.7118062248219448e-03 -6.2725004818718000e-01
    8.2347274083903084e-03 -7.3000858475380093e-01
    7.9265666439705743e-03 -8.6439209252499105e-01
    7.9877332315941262e-03 -1.2113397445712493e+00
    9.6181372406672645e-03 -5.1649396982383211e-01
    2.0919723856614284e-02 -1.9455343186651286e-01
    9.0493883760153181e-03 -1.7293381186565273e+00
    8.4791911777335402e-03 -1.4919136877222163e+00
    8.6116617742185743e-03 -6.4458288380026019e-01
    8.5385639793606038e-03 -6.5832328280870245e-01
    7.8527294211024629e-03 -9.5175080583761851e-01
    8.0744577814249510e-03 -1.2741494379088574e+00
    9.6181372406672645e-03 -5.1649396982383211e-01
    3.0811411110272319e-02 -1.2940792666314374e-01
    8.8091376373045545e-03 -1.6345354886018602e+00
    8.9870850090338524e-03 -1.7052993804641734e+00
    7.8483585574932787e-03 -9.6417084878804926e-01
    7.9971241115063801e-03 -8.2050493384055456e-01
    8.1612430911683371e-03 -1.3282423130876468e+00
    8.2092157606623237e-03 -1.3557519828733828e+00
    1.0878226327435864e-02 -4.2588256071911407e-01
    3.0284577349855537e-02 -1.3173791147187158e-01
    7.8439189715928375e-03 -1.0142187230269539e+00
    8.9870850090338524e-03 -1.7052993804641734e+00
    8.1332570844055829e-03 -1.3114877048604003e+00
    8.2250387932556231e-03 -1.3645339358011079e+00
    8.3786283554854839e-03 -1.4440565970679231e+00
    8.2282519964309436e-03 -1.3663012440073583e+00
    9.9963282732270925e-03 -4.8432210483785265e-01
    3.4697758685657450e-02 -1.1450260366266958e-01
    8.3287537777871866e-03 -7.0461256960079599e-01
    7.8722228727220664e-03 -9.1750757581575682e-01
    7.8668881006558316e-03 -1.0809104250301114e+00
    7.9733694055122029e-03 -1.1995934270593109e+00
    7.8522772997616491e-03 -9.5287385032607608e-01
    8.0673426338271279e-03 -7.8777600819321913e-01
    1.1638447093336139e-02 -3.8756028820809341e-01</input_scale>
  <output_scale>
    5.2631578947368418e-01 4.9999999999999994e-01 5.2631578947368418e-01
    4.9999999999999994e-01 5.2631578947368418e-01 4.9999999999999994e-01
    5.2631578947368418e-01 4.9999999999999994e-01 5.2631578947368418e-01
    4.9999999999999994e-01 5.2631578947368418e-01 4.9999999999999994e-01
    5.2631578947368418e-01 4.9999999999999994e-01 5.2631578947368418e-01
    4.9999999999999994e-01 5.2631578947368418e-01 4.9999999999999994e-01
    5.2631578947368418e-01 4.9999999999999994e-01 5.2631578947368418e-01
    4.9999999999999994e-01 5.2631578947368418e-01 4.9999999999999994e-01
    5.2631578947368418e-01 4.9999999999999994e-01 5.2631578947368418e-01
    4.9999999999999994e-01 5.2631578947368418e-01 4.9999999999999994e-01
    5.2631578947368418e-01 4.9999999999999994e-01 5.2631578947368418e-01
    4.9999999999999994e-01 5.2631578947368418e-01 4.9999999999999994e-01
    1. 0. 5.2631578947368418e-01 4.9999999999999994e-01
    5.2631578947368418e-01 4.9999999999999994e-01 5.2631578947368418e-01
    4.9999999999999994e-01 5.2631578947368418e-01 4.9999999999999994e-01
    5.2631578947368418e-01 4.9999999999999994e-01 1. 0.
    5.2631578947368418e-01 4.9999999999999994e-01 5.2631578947368418e-01
    4.9999999999999994e-01 5.2631578947368418e-01 4.9999999999999994e-01
    5.2631578947368418e-01 4.9999999999999994e-01 5.2631578947368418e-01
    4.9999999999999994e-01 5.2631578947368418e-01 4.9999999999999994e-01
    5.2631578947368418e-01 4.9999999999999994e-01 5.2631578947368418e-01
    4.9999999999999994e-01 5.2631578947368418e-01 4.9999999999999994e-01</output_scale>
  <inv_output_scale>
    1.8999999999999999e+00 -9.4999999999999996e-01
    1.8999999999999999e+00 -9.4999999999999996e-01
    1.8999999999999999e+00 -9.4999999999999996e-01
    1.8999999999999999e+00 -9.4999999999999996e-01
    1.8999999999999999e+00 -9.4999999999999996e-01
    1.8999999999999999e+00 -9.4999999999999996e-01
    1.8999999999999999e+00 -9.4999999999999996e-01
    1.8999999999999999e+00 -9.4999999999999996e-01
    1.8999999999999999e+00 -9.4999999999999996e-01
    1.8999999999999999e+00 -9.4999999999999996e-01
    1.8999999999999999e+00 -9.4999999999999996e-01
    1.8999999999999999e+00 -9.4999999999999996e-01
    1.8999999999999999e+00 -9.4999999999999996e-01
    1.8999999999999999e+00 -9.4999999999999996e-01
    1.8999999999999999e+00 -9.4999999999999996e-01
    1.8999999999999999e+00 -9.4999999999999996e-01
    1.8999999999999999e+00 -9.4999999999999996e-01
    1.8999999999999999e+00 -9.4999999999999996e-01 1. 0.
    1.8999999999999999e+00 -9.4999999999999996e-01
    1.8999999999999999e+00 -9.4999999999999996e-01
    1.8999999999999999e+00 -9.4999999999999996e-01
    1.8999999999999999e+00 -9.4999999999999996e-01
    1.8999999999999999e+00 -9.4999999999999996e-01 1. 0.
    1.8999999999999999e+00 -9.4999999999999996e-01
    1.8999999999999999e+00 -9.4999999999999996e-01
    1.8999999999999999e+00 -9.4999999999999996e-01
    1.8999999999999999e+00 -9.4999999999999996e-01
    1.8999999999999999e+00 -9.4999999999999996e-01
    1.8999999999999999e+00 -9.4999999999999996e-01
    1.8999999999999999e+00 -9.4999999999999996e-01
    1.8999999999999999e+00 -9.4999999999999996e-01
    1.8999999999999999e+00 -9.4999999999999996e-01</inv_output_scale>
  <weights>
    <_>
      -1.9757093241484902e-01 -9.1064326136316188e-03
      6.0254719942767945e-02 2.9478130851886639e-02
      5.3135003153994415e-02 7.7183316511610653e-03
      3.6362248312240310e-02 -5.4513378287111931e-03
      2.0174884211573887e-02 -5.3235051025788370e-02
      3.6805800670895734e-02 -4.8123759236858007e-02
      -5.8041061599734725e-02 2.9686908341950004e-02
      -1.0235891391593506e-02 -2.5064377095626113e-02
      -2.5750989781879830e-02 9.1023270229960099e-03
      9.9754511818431021e-02 -4.7093062595127487e-02
      1.4073318526261633e-02 -2.6975302690624151e-02
      8.6688621189352656e-03 3.6243357502204372e-02
      -1.9062919219211549e-02 -4.5960287070012845e-02
      -2.8680167686919097e-03 6.2791192269915627e-02
      1.6817998841477333e-02 -3.2591847941419859e-02
      3.0016429429649223e-02 -5.2496988460259984e-02
      2.8063390844198875e-02 -2.1834416295182270e-03
      1.3210209844494248e-02 7.7766962677321277e-03
      2.0637723376567808e-02 -5.5273439608832881e-02
      4.7443252534485503e-02 5.6374485943137135e-03
      8.8916765844009107e-02 1.7097795927124768e-02
      1.0526255711166119e-01 2.6938173271323394e-02
      3.0229092481543120e-02 1.2115648251280180e-01
      3.0251716531732063e-02 -1.4308868031210453e-02
      2.9647545711568784e-02 -2.4431297191998356e-02
      -1.0968890207302016e-02 -4.0574429602091983e-02
      6.2289296122595969e-02 3.8460632769581768e-02
      -1.5007710373378893e-02 -2.5691918632293323e-02
      -8.0338057364505652e-02 3.7131108243868852e-02
      -4.5694945754807231e-02 4.9594355635960069e-02
      5.0230079844922559e-02 7.4581953926537672e-02
      5.7810071631782471e-02 -4.8464684109008428e-02
      1.0933846963375196e-02 -5.0602153824653204e-02
      2.3924344814884538e-02 3.6316104558380226e-02
      -7.5111902817580206e-02 5.2981231802356164e-02
      2.1231859247612297e-02 2.5718445460811628e-02
      -4.1592405570923259e-02 -2.7009723074256305e-02
      1.0687642100485607e-02 -1.4437880518107080e-01
      5.9039828039660978e-02 -5.2437765454081062e-02
      1.9177759106316732e-02 -2.6153772575317698e-02
      4.5035284411822377e-02 -2.6000513516455780e-02
      5.1798724552074973e-02 3.3320933346461759e-02
      -1.3357843510082329e-01 3.0012844261921801e-02
      -3.0674252943874967e-02 -4.9274325449698252e-02
      -1.9396708310495909e-02 -4.9213505390010355e-02
      -2.2855991445551518e-02 2.2202368414109830e-02
      6.3500474766892316e-03 -3.3322358428551947e-02
      -2.3529469566031896e-02 -2.6083825918692589e-02
      9.7243221435802982e-02 1.8276014272162605e-02
      1.4095919935955976e-02 4.0092777174708709e-02
      5.2599787094870148e-02 -3.2564453078434835e-02
      1.3466680664281359e-02 -3.0498771539937727e-02
      6.5270011718306254e-03 3.0546886866172750e-03
      1.0162154283426594e-02 3.6830443031390632e-03
      8.3120336948375506e-02 2.9913663913031217e-02
      9.6638862109867090e-03 -8.2500847599272700e-03
      6.0159555857976985e-03 5.7110517711674528e-03
      3.9591417884277676e-02 7.4031449000917543e-02
      -6.6071648534138105e-02 -1.8278155704819742e-02
      -2.4829975391455008e-02 2.9871503583090792e-02
      -2.6121712224281674e-03 8.2548561447490135e-02
      4.9417675239856395e-04 -1.1314498107396775e-02
      4.7713706434004168e-03 1.8933658251021356e-02
      6.2353430399419620e-03 -9.2286286528603975e-02
      -2.3240693369917995e-01 2.6140759100795122e-02
      1.4919994543958279e-01 3.2853434821245642e-02
      3.1090882684338031e-02 -3.2271015307985658e-02
      1.6439353671869418e-02 1.0311049476078778e-01
      1.4376354850318093e-01 -1.1755420703063313e-01
      8.1587909963309946e-02 5.9545966741999835e-03
      -9.7286484290275158e-02 5.7881773440700189e-02
      1.4468967590223175e-01 -9.8364983886197119e-02
      3.3639052192879361e-02 -1.8436789675690568e-02
      1.1644267822116483e-01 -1.1216334005989886e-01
      -3.9946231434025488e-02 -5.3659897335620120e-02
      -6.3729506620479742e-02 2.1632571704600992e-01
      6.2588591430704041e-02 2.2152896134772806e-02
      4.9511020770173518e-02 9.9830631640863463e-02
      1.1805398708866544e-01 3.9952524929688440e-02
      8.8567291588888625e-02 1.3169808498900099e-01
      9.9505379065926765e-03 5.7230824230137665e-02
      4.4194321913555358e-02 -9.7641955697620863e-03
      5.4493048401137500e-02 2.1239216760981228e-02
      1.8413992030287932e-01 9.3656794264988213e-02
      6.2951748249307618e-02 3.9406269156498606e-02
      1.8294912707425931e-01 3.0973048018386176e-03
      1.3523271743171508e-01 2.0973984786666697e-01
      -3.3160656692498451e-02 -7.4047001737497231e-02
      1.1681496558076279e-01 -3.3989913819216511e-02
      4.4328343739594579e-02 -1.7431316652358150e-01
      1.5588932618771983e-01 7.8618664810714542e-02
      -5.5505020222788595e-02 -3.0398688470524137e-02
      -7.5901171045595697e-02 1.3096350767628176e-01
      -2.1349369712186239e-01 4.4889324586687561e-02
      7.0398582515783834e-02 1.9825204964793904e-02
      1.3018752231100786e-01 -1.6324889755150709e-01
      1.0703929341985448e-01 -4.8902076288400487e-02
      3.2716685668190471e-02 2.0405806027038557e-03
      -1.0885814538919780e-01 1.6547708545364107e-01
      3.2329272783063918e-02 -5.5652872770853998e-02
      4.1383302640857551e-02 -2.4943690082656084e-02
      4.1168058935811248e-02 -1.8993625110350071e-01
      1.3443768411920931e-01 -8.6323466403208940e-02
      7.5738711459621272e-02 -7.6793890133586229e-02
      1.3286183093513123e-02 -8.2201227132208347e-03
      6.1172949452730739e-02 -3.6790432395099014e-02
      -2.4915208314803283e-01 -2.6629578171346823e-02
      -1.4383697894853867e-01 -1.5897153153986607e-01
      -9.3755651992989866e-02 -8.9412751330690973e-02
      -1.2335083626161947e-01 1.3850500438141053e-01
      -8.4777923493269847e-02 -1.1463270193511328e-02
      -2.1014880449881927e-02 4.2357396989981038e-03
      2.8461452542158650e-01 4.6515340313639216e-03
      5.5485124117745484e-02 1.1548765999068231e-01
      8.5164155953397186e-02 -1.0350332127123300e-02
      -3.4012904180682126e-02 1.1055299509409530e-02
      9.3151580223068811e-02 9.9504418469466976e-04
      -9.8430721567401375e-02 9.1666515216262567e-02
      2.4172705067558117e-01 -3.2839730587575763e-02
      -8.5617903268818907e-02 2.9331176705140283e-02
      -1.1518214160759699e-01 7.1353492445453956e-02
      7.4327195281388508e-02 1.4462198874414300e-01
      -2.3243548356970251e-01 8.8450845216429416e-02
      -4.6690230661504059e-02 2.2230813372652595e-02
      -6.4758194123688941e-03 5.8875815644074493e-02
      -8.0713084943614802e-02 6.7245850799165910e-02
      7.6121991560423471e-02 -1.0431643040302921e-01
      3.1554767483285603e-02 -1.9648840463645806e-01
      -2.6364122856782420e-02 1.0673910446369665e-01
      -6.6202782435979329e-03 -6.5019712954190748e-02
      -4.8208304170290544e-03 5.3398331222804719e-02
      -1.1993683219587974e-02 2.5150134196146187e-02
      -1.6219435222034731e-01 2.2226574157455430e-02
      -1.5671632442940156e-01 3.0280426259735663e-02
      -3.1645905070417951e-02 -9.7848934589531075e-03
      2.0120311430879359e-01 -2.7207356688323896e-02
      6.0960690166954712e-02 -7.9050129883982953e-02
      3.9095473873598525e-02 5.5890446831121036e-02
      -7.4247881052491452e-03 -4.1587701584469464e-02
      1.3241021326438485e-01 3.5511915436561375e-02
      8.9478269346074404e-02 -4.2699640024753349e-02
      -7.1726085944831791e-02 1.3590924186473185e-02
      -7.5691330711126058e-03 -2.7500947451019428e-02
      6.8236100316113732e-03 1.8986062482545807e-02
      -1.0591125564515744e-01 8.9774593179540563e-02
      4.6637401784354465e-03 -2.2652781677690026e-02
      5.7716753230162218e-02 2.2266865811947065e-02
      -1.3357597528293233e-01 -2.1670773011506127e-02
      -1.3530155566306992e-01 4.0641430671567794e-03
      -5.2959622960359136e-04 -5.8241607657476123e-02
      -8.3911326303453923e-02 -1.1114950526906356e-01
      -8.2121596247643258e-02 -9.6003464495224740e-03
      -2.6703386980855805e-02 1.9554668805544361e-02
      3.2383308376083907e-02 1.0291891121154927e-02
      -4.5425394724577420e-02 6.4757842030882376e-02
      7.9557622878609815e-03 -9.1943515513046156e-04
      6.9459511430880666e-02 2.9470244807633415e-02
      3.1228919196771576e-02 -1.0751289794529535e-02
      7.0257785908724793e-03 -5.0320760528902310e-02
      -1.0634751969352643e-01 3.9029219852675615e-02
      -1.3856230127200522e-01 3.9147278510236964e-02
      4.8491120520777781e-02 -8.1164002391483345e-02
      3.4473051163720916e-02 -6.7402372365035421e-03
      7.5932535049681615e-02 -3.1547109096057173e-02
      -6.2806522502826576e-02 -1.3277339625135356e-01
      1.4259646082250822e-02 1.6601146929617489e-01
      3.2457823658292979e-02 -9.9065044635612172e-03
      3.6566191516642782e-02 -3.3988429840252188e-02
      -2.4676564785020170e-03 -1.3523409045829585e-02
      -5.8855434255135224e-02 5.4836021007082288e-03
      5.2418876526398296e-02 5.6448573455292729e-02
      -1.0769355673527319e-01 3.6583068676562400e-02
      3.5898374510684297e-02 2.6181754035572467e-02
      1.0302979341856931e-01 -3.7942685099061652e-02
      7.6725620699201719e-02 -4.6922247263210599e-02
      -2.7635626745455645e-02 7.9115602276533678e-02
      6.7408807936135207e-03 9.1035282649865198e-02
      3.6219927424728189e-02 1.0453444528756324e-02
      2.4380074185853615e-02 -5.6145081592742535e-02
      -1.5070614488296082e-02 -5.6078088296391572e-04
      -6.2750180444425346e-02 2.4616635750787302e-02
      9.2565019100787821e-02 -2.7213199584856622e-02
      -1.0051607354635041e-02 4.1430769103183537e-02
      4.3575958621866202e-02 1.3734590758796396e-03
      -4.6834967577162934e-02 1.6968890950163223e-02
      2.0265387294232324e-03 8.0510697980194293e-02
      3.7331915934788171e-02 -1.3118383410806228e-01
      2.6791348315983603e-02 -1.6996313555745397e-03
      7.7384643737353209e-02 -4.4134463775407362e-02
      -1.0267334877725047e-02 -1.2630752751248017e-01
      4.8269634631622774e-02 1.1233757658096793e-01
      7.4172439809458340e-02 2.4611556420544582e-02
      1.0101907483514751e-02 4.7542007274847885e-02
      5.4814844270669794e-02 -9.7364890176968588e-02
      4.9453193948914051e-02 5.9097897896758268e-02
      -5.9167235212148436e-02 -4.8753373156573014e-02
      -2.6073972957175839e-01 4.6007062798971869e-02
      -1.5514504194537576e-01 -2.7597450820240545e-02
      -1.0365085318167451e-01 8.7173303868631785e-02
      4.5085300661055344e-02 -5.0095424048949969e-02
      1.2465424123936034e-02 6.7853758503097243e-03
      8.1612449378562824e-02 8.3629569479994240e-02
      6.6750109854515446e-02 -5.3224741823085356e-02
      2.6972136927615620e-01 -1.0283692842536904e-01
      1.2169433814598052e-01 -3.4224999871352822e-02
      -5.2554453697033363e-02 -8.8455553076894362e-03
      -8.0435360797213432e-02 -2.9130946194283986e-02
      2.7287091622105596e-02 1.3112389343658259e-01
      -1.0723245593034599e-01 8.3502808708470724e-02
      -4.3950673038646762e-02 2.3953650541655880e-02
      -3.7636151299250076e-02 1.9163608847610258e-01
      -1.6099577644274124e-01 2.2680433372064168e-02
      -9.3506648744514906e-02 -1.5681764902195090e-02
      -7.9118490175244929e-02 5.3394322231918021e-02
      -1.1339057295404388e-01 -2.4771450707810738e-01
      -4.7166626543937197e-03 8.7144903039969815e-02
      -3.5909250476551274e-02 4.5862189439242466e-02
      -3.7068808944903241e-02 -2.6472957372879750e-02
      -7.7009977939636459e-02 4.6797646137544065e-02
      -2.2272184356158655e-02 -6.5710090204516014e-02
      4.2445892256972907e-02 -3.0850052593234013e-02
      6.3220272444583808e-02 -1.1471894917026411e-02
      4.2953749149583588e-02 -9.2419453238914553e-02
      -1.9231123929751640e-01 1.9910780138075890e-02
      -1.4716402625774211e-01 1.1328760073973131e-01
      7.7806212955564502e-02 -7.9985180857115742e-02
      3.9675854945411971e-03 -1.9944574882801688e-01
      9.2422750408963306e-02 1.0081450913342742e-01
      -7.9625064428582790e-02 -1.0320458269421336e-01
      -7.4807461308590104e-02 2.6232333744174979e-01
      2.3257550464711320e-02 1.5103319095164847e-01
      -1.6143864926399080e-03 2.4502516329387547e-02
      -2.1458249192497687e-02 3.8801101557051396e-02
      -4.5571372161359897e-02 2.6966748248292292e-02
      3.1555480119951007e-01 4.6962429725695268e-02
      -9.4719282766839982e-02 7.0936275060152099e-02
      9.5931620003136597e-02 2.1956931674906512e-02
      1.4740012503782465e-01 -1.0911120720724925e-01
      1.2560980651590239e-01 2.2583974232805414e-02
      -2.3218321313269494e-02 2.4665915375099495e-03
      -7.6244558941971824e-02 1.0542524482617173e-01
      2.4978292727844503e-02 -3.7675611934781368e-02
      1.2030182034864621e-01 -9.8220939382351533e-02
      1.0764961069731276e-01 5.8117720631110897e-02
      -8.3344912167658561e-02 1.0294694329637677e-01
      1.6182727438885028e-01 -7.2304960497553958e-02
      -7.9232082282627736e-02 3.8650402155307462e-02
      5.5085498977084556e-02 -9.1060775130705388e-02
      -2.8748249056294087e-02 4.2693757330407263e-02
      -4.8970596624079002e-02 2.7950840131508399e-02
      1.7760020818893890e-01 -1.5648572559141641e-01
      -4.9157376475343809e-02 4.4472620362580706e-02
      -4.3307601790331607e-02 -3.1974856883711364e-02
      2.2522921557771206e-02 -1.7446201423708274e-01
      9.2140639265225976e-02 1.0631687696053188e-01
      1.2726195770211857e-01 1.4130192779232856e-01
      1.5979073122851559e-01 7.5268090424736950e-02
      -3.3942166247066105e-03 -2.1194047683416165e-02
      -3.3808057728482846e-02 7.7970170401085392e-02
      -8.4587605158981088e-02 -2.6140226225696336e-02
      -1.6721271712448221e-01 -2.1691872693595619e-02
      -9.7102073582187157e-02 -2.2334695730313259e-02
      -6.3586230458126027e-03 -2.2199561711560161e-02
      -1.3612318336726784e-02 -7.1470942266055451e-02
      2.9661190860397670e-02 -6.0209688236525519e-02
      -2.7519612802036575e-02 3.4556649799185858e-02
      6.8630612442580740e-03 -2.8327170636618989e-02
      1.2955017035802271e-01 6.5853079655584642e-03
      2.3185555737887744e-02 -8.1361098469313137e-02
      -2.6645702704022570e-02 4.8025356074707815e-02
      -1.6519469098379223e-02 -3.7103648970573229e-02
      -2.2498955194182508e-02 -1.2855792767013569e-02
      -3.4453686682403506e-02 -5.8260013868222981e-03
      9.4820409868631387e-03 -8.1423547822244050e-02
      5.0538826447235827e-02 8.3146138738121010e-03
      -1.1414444006079634e-01 -3.9025274165587362e-02
      -1.1284451089813832e-01 -3.2467773985059699e-02
      -2.4036389777683416e-02 2.3886781983755247e-02
      -5.7202980828036952e-02 -7.0757601839948989e-02
      -6.5313385149605649e-03 4.2006710946599142e-02
      -3.6557686064427400e-02 -1.0814945254134994e-02
      2.4943664955615216e-02 -5.9026254077101754e-03
      5.0223518765092640e-03 5.5926569118964181e-02
      -3.6430064853005685e-02 3.8164631899155796e-02
      2.1118330123395736e-02 2.2722325044471775e-03
      4.2894662678032207e-02 6.3557442515247385e-04
      1.6231618880867608e-02 -6.8614475034001046e-02
      -9.3922608955223766e-02 3.6859906152871359e-02
      -7.7748162300176421e-02 3.5808397575938601e-02
      -1.0855594036150937e-03 2.8665623032361798e-02
      7.8747872727344667e-02 -8.2629883467004714e-02
      1.0594886801834824e-01 5.8739790751582054e-02
      -4.7653190224355532e-02 -6.8519816235312267e-02
      2.5362380544490842e-02 1.2958729055536541e-01
      7.9695976886455439e-02 -3.4609378236893076e-03
      4.2525153220204184e-02 1.9972054705719579e-02
      8.2965136867692579e-02 -7.5195162589721823e-02
      -1.3548283265552288e-02 -1.6564723037500475e-02
      9.4571865753676515e-02 3.7762139956542734e-02
      -1.2608044469330770e-01 5.4395399298604222e-02
      1.3180964047146936e-02 2.9018194170897352e-02
      7.1708259377593828e-02 -9.5441089069289151e-02
      1.0076580040099434e-01 -1.6698804615010564e-02
      -4.8089123093692079e-02 9.6835299345978065e-02
      -6.3115541344479290e-02 1.1366703397503082e-01
      1.9056289461893330e-02 -2.3861840771045303e-02
      6.0388440971898244e-02 -7.8202761866609474e-02
      6.0926851598135379e-02 -5.3080025989878585e-02
      -4.5991828122068708e-02 4.7631422385636973e-02
      1.0269859113792208e-01 -3.3518101879678588e-02
      1.3837671608162341e-02 6.7897922160030155e-02
      6.4500503931365527e-02 -5.8042073234002931e-03
      -5.7680599954562563e-04 3.7025170334850255e-02
      5.5200752630145650e-02 -2.9571243846790558e-02
      5.8878501043861234e-02 -1.1700419555379298e-01
      3.4233176791191831e-03 1.7625146471464997e-02
      3.6423511955362732e-02 8.9836189385847851e-02
      4.4387335291042267e-02 -1.3958335503974523e-01
      2.7430741944898782e-02 8.1612191490743377e-02
      8.0969132673836750e-03 6.9952676740810460e-02
      -1.3252729472001809e-01 -2.5750724522177339e-02
      2.0644108118496964e-02 -3.1658310237412730e-02
      -1.8113292020591459e-02 5.1727078443093794e-02
      4.2909033509456448e-02 -5.0366999056811338e-03
      -8.1562752043843958e-02 -1.0477627203492077e-02
      -6.9192535565247237e-02 9.2989262200871038e-03
      9.2377060994512060e-03 -7.8867133344467898e-03
      -3.9956141077827474e-02 -2.2702246096462556e-02
      3.6831624803333289e-03 -3.3890931433644682e-02
      1.4976661653585077e-01 8.1097300252280458e-02
      7.0128882086197622e-03 3.9134262580135679e-02
      1.6130052712559240e-02 -6.9089591562389474e-02
      4.5793268003431267e-02 -7.2387076856396768e-02
      -1.1303623405256709e-02 4.4099107686597763e-02
      -9.6350190101722705e-04 -4.0417693963042428e-02
      -2.1876513339476225e-02 -7.8783064855210569e-02
      -5.4128504620192509e-02 1.2463858657088083e-02
      -1.1752769975367304e-02 -2.4760149491780861e-02
      4.1095121157871874e-02 -4.3700638688817101e-02
      -1.0883602969955919e-01 -6.2951510476529707e-02
      4.4097561872831238e-02 5.7909960461958114e-02
      -3.4183244405813600e-02 -8.0486926093316577e-02
      -4.3693883734156648e-02 4.8442891907348115e-02
      -1.3754836658792695e-02 8.5110525941994711e-02
      -4.9819836912737087e-02 -3.2006684673401058e-02
      4.0465006800823072e-02 1.8829320696429654e-02
      -6.1876073412788475e-03 4.8397821558454235e-02
      -4.5200387559492322e-02 1.5303435114080801e-02
      2.8529101700789986e-02 -1.8150351376287635e-02
      5.0810076823917479e-02 -3.2945989454795390e-03
      -2.9027011420161650e-02 4.1395057144482687e-03
      -4.3571145383087305e-03 3.5163468653748121e-02
      -5.3001937510997681e-02 -8.8804102583984208e-03
      1.6173844396220771e-02 -1.2304790805947482e-02
      -1.6687321959060832e-02 -2.8105569146177456e-02
      3.2670839939087572e-02 -1.3140431000256633e-02
      -3.5602711410386803e-02 -8.7167927545896223e-02
      4.4150574781206757e-02 5.2827483078562672e-02
      -2.1667328425923289e-02 -1.9467317412558006e-02
      3.1740242225259410e-02 -5.6360856233698998e-03
      6.6333566780341274e-02 -1.6044562251153249e-02
      -9.7675325887257095e-03 -6.3693844535884156e-03
      -1.9822968991087372e-02 1.1427881732817816e-02
      -5.0115735794526890e-02 -3.2588815756735744e-02
      -2.6778051868407444e-02 -3.2836639957949047e-02
      3.2230312139543929e-02 -3.0161355266345679e-02
      2.6708705647061494e-02 -4.1899325812276879e-02
      7.5736357455311078e-03 3.9891670499061879e-02
      -4.9350279362201065e-02 -5.0681134418868873e-02
      -3.5344872327476105e-03 4.6675853570118143e-02
      6.9988480087177351e-03 -3.7562779846949820e-02
      8.3588185859593642e-02 -4.2710463036693860e-02
      -6.0614806030359285e-02 -1.6973017397701358e-02
      4.2665353553393313e-02 8.8550367167900771e-03
      -3.2964994839345008e-02 7.1923884415102821e-02
      4.5794628476178059e-02 -9.2157813718385037e-03
      4.3529869349413861e-03 3.2266578318999777e-03
      2.5847162797714082e-02 -3.0846577131237018e-02
      3.6576004107856438e-03 -1.0659248906050420e-02
      2.4178613971179940e-02 2.9453825022387570e-02
      5.0418298880672528e-02 2.4649797115147209e-02
      1.9983168473202924e-02 -6.5180989519260879e-02
      -2.1116515837134326e-02 1.3794915004204830e-01
      4.5391145899822689e-02 -3.8363278896296708e-03
      -5.3396840169728932e-01 -7.5828351878714229e-02
      1.6211121197128291e-02 -1.0112979385433072e-02
      1.5549964226081717e-02 -1.2761445904723273e-02
      1.7784198107324026e-01 1.3652281410669689e-03
      4.9793396414630861e-02 -3.3080430735949552e-02
      -1.6580407097370353e-02 -3.9470096106038792e-02
      3.6542221663509178e-02 4.1029816343964749e-02
      -3.6615935147732695e-03 -3.9885536440273138e-03
      -3.9028727000684563e-02 -2.5335270475238685e-02
      1.4431997718082845e-01 8.1595805109041075e-02
      -5.0753753248244021e-02 3.6703172318901293e-02
      -1.0381669324666259e-01 -4.0285271161913036e-02
      -5.3509669632172770e-04 -8.2983957214140314e-02
      -2.6953675507830954e-02 5.9697378874724177e-02
      1.0581543536669393e-02 -6.7688183330460810e-02
      -6.3695979463870539e-02 -8.0336865543182992e-02
      -4.7644225677822026e-02 -1.9525319170764110e-02
      -2.2305322418356307e-02 -1.4887779867687757e-02
      -9.1209243960713293e-03 -1.0562311948658391e-01
      -4.9452077038078995e-02 -7.2132349928793277e-02
      1.0132729941058780e-01 1.1451343491484384e-01
      1.9194889887284283e-01 -8.6054299573388282e-02
      -6.1338320414741276e-03 1.8219535767628603e-01
      7.1707052475458083e-02 5.1964054123982599e-03
      -1.8212231003413158e-02 -5.5968667705123334e-02
      7.2733811448590160e-02 2.4093592434316639e-02
      -2.6427279739706664e-03 7.4551024646174149e-02
      3.1999208913353637e-02 -5.8193971879371932e-03
      -5.6578310733215592e-02 -3.1299595084302863e-02
      1.0900777248560407e-02 1.2424584745826970e-02
      -5.8015440707248865e-02 1.2479205942987547e-01
      1.0968511158874703e-01 1.1593269651870396e-01
      -5.4572378278705765e-02 -1.5345383047175989e-01
      -3.2055968828325278e-03 -4.2498140105369071e-02
      -6.0049204026821776e-02 7.0637581608366556e-02
      -2.6921615933976264e-02 -2.5361459455459687e-02
      -6.3075739467605252e-02 -9.7829788242419252e-02
      2.9338922231747330e-02 -1.4121651313389369e-01
      4.9462333044366291e-03 -4.4159271496118591e-02
      -3.6417005319480895e-02 -2.6848998599287827e-02
      3.2802680315616305e-02 7.2606252722151279e-02
      -4.7388583746658601e-02 3.0418470845964790e-03
      -1.3732219515518590e-01 7.5350382371104030e-02
      -7.1817532926459232e-02 -7.8279042819239003e-02
      -2.4264905043593361e-02 -1.2342228086565513e-01
      -2.2189788742779756e-02 2.6176817949077119e-03
      -3.0483473028350430e-02 -5.4662127761886337e-02
      4.3018838941031638e-02 2.4814787813740532e-03
      7.7124541086109416e-02 -4.3644768680518406e-02
      -6.0221682618041891e-03 1.2085117608816857e-01
      1.7269893208028991e-02 -1.6972399015064848e-02
      -1.1673303697563940e-01 -1.6727231884082833e-02
      -8.6256030050626487e-02 -3.2563362426449777e-02
      -6.2878291036384454e-02 6.6711150413724690e-02
      1.7707005373403757e-02 2.6128482891405295e-02
      6.9353082104162619e-02 -4.9616932022802776e-02
      3.3670349065727800e-02 -7.4205992176044358e-02
      2.3097044041752890e-02 -5.7279989366175559e-02
      1.5313066797840265e-02 8.2880117560419159e-02
      3.9628919701200811e-02 3.5154920872994988e-02
      6.8699481252970970e-02 1.5026553198847614e-01
      -2.8531087372264553e-02 2.2271847589759561e-02
      -1.1319198230094958e-01 6.6463656632448589e-02
      -1.6559563011614986e-02 -1.3646259105428951e-01
      9.5508355149210265e-03 9.7065906980696264e-04
      -2.7483719264976635e-02 2.3267951052487072e-02
      8.3172473748213977e-03 6.2974744862958319e-04
      3.2205236568715927e-02 3.3865521787972558e-02
      7.5363332180308409e-03 8.7593809041866966e-03
      2.1973183176114191e-03 -1.2632040038321423e-02
      1.0287231090518471e-01 -1.0874747288911815e-01
      8.0291416032590185e-02 3.6017796819148358e-02
      -2.3432316491460083e-02 -1.7123281672881269e-02
      -8.0175814310616086e-02 -4.9758942891795901e-02
      -2.7212544979036676e-02 2.7672897738069486e-02
      -7.3623032737635083e-02 1.1280524162571098e-01
      -3.0561558158499234e-02 -2.2490278000272132e-02
      -8.2631269828684611e-03 6.9002379135622068e-03
      -1.1008238441034095e-03 -9.6340439608362024e-03
      -7.2002428063355176e-02 -5.9197507543084740e-02
      -2.3766709015072697e-02 -8.0816361092174646e-03
      -3.0189681487785675e-03 -3.6424695970043643e-02
      6.5880298670506821e-02 -1.7786470140133615e-02
      -1.8180270477132797e-02 -2.8539784720806274e-02
      -4.3387035973588665e-02 -2.0885035066076196e-04
      8.3228848241501757e-02 -5.3962453517031217e-02
      1.2105886149681206e-02 4.3473657861034243e-02
      3.6503024689116495e-02 -8.6227426992939837e-02
      -2.4874935857859520e-02 -1.3596148550674972e-03
      5.1404240577986891e-02 5.5989468996133586e-02
      1.6099562917249226e-02 -2.6100917719306702e-02
      3.5671686593775251e-03 7.0007216913738651e-02
      -1.5100895305025430e-02 -9.8557257693494080e-03
      2.9180246659739062e-02 -1.8938170185657494e-02
      -3.4514822893263991e-02 2.4256332306939854e-02
      1.7996775504908039e-02 5.5733431483445145e-02
      8.8138534352932944e-03 -2.5639168835904339e-02
      -3.4642170491483638e-02 5.8698833560175488e-02
      1.3712993346137731e-02 1.2366686304326620e-01
      -3.0629727790205310e-02 -9.7904834609635089e-02
      -1.3976817869874850e-02 -1.7348216761817317e-02
      -6.5258366659977857e-03 2.5432688756298196e-02
      -2.9924430339477521e-02 -6.1399010962438376e-02
      -3.0309506486686479e-02 -6.3740373598041952e-02
      5.3086839690671829e-02 1.2569463823278360e-02
      -1.9523597926095787e-02 -2.6196399700871668e-02
      -1.7020011036532581e-01 3.8929853914243230e-02
      -1.6593664360161631e-03 -2.9389152378877224e-03
      -2.4206769969295643e-02 -1.3569841269230037e-02
      1.9417782932746194e-02 -6.2490205666648089e-03
      1.7257450306170007e-02 -5.0332839035550504e-02
      9.3309090294584878e-03 6.9534725227140617e-02
      -2.5736482483330346e-02 3.3208696379059807e-02
      5.7731854083449370e-03 6.1397259122447437e-03
      -5.9931269106041081e-02 5.3156852207764123e-02
      -9.0256214508639035e-02 -3.3466108999905084e-02
      1.9683668584542888e-02 -3.1099876708395896e-02
      1.0924272813588454e-02 -1.8141176656526158e-02
      1.8690747726965561e-02 -2.3740301907202943e-02
      -1.3592360585670032e-03 3.1390773339597937e-02
      -2.3166695529439226e-02 -5.3403879408530856e-02
      -5.7228639272416805e-04 -1.4346703518868202e-02
      3.4947887798675013e-03 -4.9277629227949364e-02
      -8.8582699686629094e-04 2.1740008223250671e-03
      1.0868379947956418e-01 5.3497610592619836e-02
      3.7843281216917123e-02 2.5251046230774237e-03
      -5.8756461038690075e-02 -3.6677022259182686e-02
      -2.0828329912554483e-02 -3.5613013326899909e-02
      -2.0564599574518500e-01 -7.8217136874778690e-03
      3.2754507857747188e-02 4.6459210103117618e-03
      4.9586977540643846e-02 -8.4791534025318912e-03
      4.9811684845356370e-02 2.6832618128312516e-02
      6.7407217086507360e-03 -6.4762891248487151e-02
      3.0494401712382324e-03 -3.2395869003580449e-02
      -6.4256535161598655e-02 2.3336526356602636e-02
      3.1232808607302053e-02 -3.7084305335487240e-02
      7.9756755029020236e-03 -2.9329792944544186e-02
      8.4771421695125665e-02 -6.6677680886184712e-02
      2.7180446053876868e-03 -2.8591416568044509e-02
      1.4415165047422417e-02 4.6067663138529003e-02
      2.5710170734443604e-02 -1.2975900380308936e-02
      -1.8193157412384663e-02 9.4512797759262426e-02
      7.7699188937703251e-02 -2.2646335890253798e-02
      2.0653591094979117e-03 -9.3849673155635069e-02
      -2.0759967617823179e-02 1.6249960981048452e-02
      3.7535166220345338e-03 -7.8466035952306761e-03
      3.3084881426730425e-02 -2.7216707103393557e-02
      3.4520779398196401e-02 1.1555956822160117e-02
      9.7417677129756713e-02 1.5184879296369148e-02
      9.5636463798284013e-02 -8.0039488274893118e-03
      2.7753796356279777e-02 1.1580975297540377e-01
      2.8636119600626255e-02 -3.6347979910737675e-02
      4.9087165012393401e-02 -1.4674138203578354e-02
      1.6543177856012749e-02 -8.9157860901245251e-02
      4.1856126261661443e-02 3.8772153869928300e-02
      -5.1776944266479476e-02 -4.4119147222998825e-02
      -6.5922822530155634e-02 5.2958620319831222e-02
      -6.8877940504353211e-02 6.7743880433585923e-02
      5.6244383881393967e-02 5.5916554946799521e-02
      3.5709769960768786e-02 -9.3933060369962105e-03
      1.1642351914601855e-02 -4.4566639812334649e-02
      4.3524852312469359e-02 -1.5222046504709701e-02
      -9.0019061650221374e-02 8.1074712274978450e-02
      -2.2047752225349260e-02 2.9390116723780474e-02
      -1.6297383727108546e-02 -4.6986655459789653e-02
      7.6650893324336205e-03 -1.1620089235191843e-01
      9.0490843182047878e-02 -4.4249417198460698e-02
      3.8701483052413846e-02 -3.3789552950623157e-02
      -1.2382161167301098e-03 -6.8490832939089918e-02
      7.8861462188558093e-02 -9.5510382972445029e-03
      -8.6701418349514697e-02 3.5858618466178579e-03
      -3.1508346739191943e-02 -7.4563564832281923e-02
      -2.0335888227029832e-02 -2.9988557839154151e-02
      -4.8654059071650477e-02 1.0016422531946007e-02
      1.5465684236752259e-02 -3.0020953722163686e-02
      -6.3012450577927065e-02 9.4011523506652029e-03
      9.8695475958743201e-02 1.0396318619633547e-02
      2.1900890227018913e-02 3.1142208789448535e-02
      5.3707703896745528e-02 -2.6292108856606046e-03
      -1.1524223888662406e-02 -3.0603958638460091e-02
      -2.7358892998076124e-03 2.1717063181373050e-02
      1.1012753122721873e-02 3.9487168854749420e-02
      1.0567138352597306e-01 -1.1486890213893521e-02
      1.4341789729460017e-02 1.0097997284849513e-02
      -3.0260585262036389e-02 -1.4994436884933916e-02
      3.3140400457612448e-02 6.0998257409770336e-02
      -6.0107386335692112e-02 -1.4834627755147080e-02
      -2.5254221965112796e-02 2.4297021186525658e-02
      3.2107939970095339e-02 6.1219341148489287e-02
      -1.7623718169377120e-02 -2.2013560410688093e-02
      -1.2777341857827374e-02 -3.7775142703986214e-02
      2.9066997337183639e-02 -9.9545693408601504e-02
      -3.4378385058262012e-01 5.0659039373395338e-02
      1.4023773563306990e-01 -1.2512498647923939e-02
      6.4262634484065955e-03 4.2420924353769818e-02
      4.7372535067789913e-02 1.4352551252194787e-01
      8.1348204580175290e-02 -9.0693624139311674e-02
      -3.2844266976786281e-02 2.0295340702443525e-02
      -8.0857528801015682e-02 4.2818400261534689e-02
      1.6332676349713107e-01 -7.8855562709534366e-02
      2.0685974144659447e-02 -3.6613978362951008e-02
      1.6815720956672806e-01 6.8055851439134785e-02
      -7.1589381326463489e-02 -5.3687394482227840e-02
      -5.4204851801085030e-02 9.8152536182847500e-02
      5.6090643626940842e-02 8.7046239034458371e-03
      -9.6473456893640588e-03 6.5700898699633664e-02
      4.5639017344996070e-02 -1.9817993081874475e-02
      3.9865334809705132e-02 4.4290236960330694e-02
      -3.2376609615776923e-02 3.1990870152876286e-02
      3.6496064034541799e-03 2.8699585161625933e-03
      7.9399852814662164e-02 -8.1790298442752235e-03
      8.1664451329543142e-02 5.1247964703049834e-02
      -7.2734629695315328e-03 9.5049195463416461e-02
      1.5863556072962742e-01 -4.7042977127421566e-02
      5.4772590259192068e-03 1.4732770812274809e-01
      -4.7552136074809070e-02 -1.1997467012831464e-03
      5.6727756456247037e-02 -8.1009860627276775e-02
      4.5393775431047542e-02 -1.4538101959433730e-01
      1.0608436884348890e-01 1.1845325082026391e-01
      -5.1458106624202631e-02 -6.8276679991946115e-02
      -6.5355294807059233e-02 8.4398215599136073e-02
      -1.6383654317733051e-01 2.0011908155044052e-02
      3.8587559850765590e-02 4.5557563097704125e-02
      1.2801533518944602e-01 -1.0082882865049590e-01
      -2.2101237827422848e-02 -7.1910118477565177e-02
      2.2871498350902016e-02 2.9126902501943264e-02
      -8.8164305943510046e-02 2.3108674357828495e-02
      5.2002290997341168e-02 -1.0574390204227057e-02
      -5.8034801270126267e-03 -7.1468497337472028e-02
      5.8722095893903939e-02 -1.5355772924408190e-01
      1.6309999298434819e-01 -8.7124034169807074e-02
      7.0676897232684374e-02 -6.2992717822172598e-02
      2.0049076512896630e-02 -2.4224324183284771e-02
      6.6719476394442364e-03 -2.3180033057678077e-02
      -2.2532262910180431e-01 -2.0140790727710991e-02
      -1.3848842114317136e-01 -8.7476551471230582e-02
      -1.1142984771917280e-01 -8.2984279664459676e-02
      -4.2050663926255859e-02 1.4553594781399298e-01
      -3.5977561246533056e-02 -6.9848379011493517e-02
      -3.9324903693278256e-02 3.0280524037693123e-02
      2.3910597008395745e-01 1.7391191393583644e-03
      3.1486025319236548e-02 1.5349616788103368e-01
      5.5676212091155600e-02 -4.5733279665018729e-02
      -4.7691116615360372e-02 -7.0722668768644975e-03
      -1.6813322203572040e-02 4.4856274342789756e-02
      -7.4786772344400704e-02 8.2338883174054536e-02
      1.5142501853972376e-01 -3.3638532196918836e-03
      -5.7784363893137271e-02 1.6160557993493856e-02
      -1.1835656591442839e-01 3.9542723553390564e-02
      7.6035126657002225e-02 1.1090299055576712e-01
      -1.6124232850320394e-01 7.1099170748159066e-02
      -3.0623469289029707e-04 4.6995713024705156e-02
      5.1393591708540722e-02 4.2234220616967931e-02
      -8.7616353905146382e-02 1.9250573570279057e-02
      3.0504104505441911e-02 3.7347856343148009e-02
      4.3888829554005707e-02 -1.7371984584552613e-01
      -1.2028177514673097e-01 1.1569639314395837e-01
      1.7909646278472340e-02 -5.5796768517766347e-02
      -8.4849354948971903e-02 4.5754564712073051e-02
      6.9159218744007864e-04 3.2862791500338731e-02
      -1.3853780660537934e-01 -1.5451586079098042e-02
      -4.5260592799896505e-02 2.7012728642604553e-02
      1.1047984872398126e-02 -7.1275379014816079e-03
      2.3287641062185599e-01 -8.4541170110141131e-02
      7.4995289199402779e-02 -1.0725044489938289e-01
      1.9672922572635271e-02 4.6957581234227268e-02
      -5.7804329860118443e-02 -8.5873375982962574e-02
      1.8996202365823614e-03 3.6622060020541351e-02
      3.9323184646441363e-02 -4.5644333114880427e-02
      -4.9393396621604788e-02 7.7877238052327616e-02
      8.8276776084331987e-03 -5.9844432091247540e-02
      1.8610162560606294e-02 9.7825784296977775e-02
      -5.2842576693803829e-02 5.1748942898316094e-02
      4.4524625708087365e-02 -5.6548523298895925e-02
      5.0139006933947565e-02 -9.7566298823323294e-02
      -9.6195208489379791e-02 7.6200290250610352e-03
      -1.2052533727125676e-01 7.1310768027186847e-02
      1.1785316522177704e-01 -1.0246963280671915e-01
      -5.1207333016909454e-02 1.9007580252036037e-02
      -1.3362617885302303e-01 -5.3435978517731998e-02
      3.7985494846341707e-02 -1.1947877833099758e-02
      2.0696117598284932e-02 3.4254035630217367e-02
      -4.8230798556275503e-02 1.1221244971816222e-01
      1.2888949334092967e-01 -1.6408286080118923e-02
      5.3213101011071011e-02 5.2859039709593610e-02
      3.6369338036674026e-02 2.0792090049272561e-02
      -2.2403814771227763e-02 -7.5843183575429879e-02
      4.6012353264191133e-02 -7.0711238937193072e-04
      -2.7851569097068991e-02 -3.1027134182180956e-02
      3.7584466102220833e-02 -2.3395413485228621e-02
      2.9534824131642396e-02 6.1286854764921878e-02
      1.1738936001105077e-01 -3.1922697687421953e-02
      -6.2939010589171340e-02 -1.7711592660005554e-01
      3.4235981936397986e-02 1.2203790728861358e-01
      4.1314486645643585e-02 -4.2338225295206797e-02
      8.2421273117843502e-02 -8.0819892164136958e-02
      2.5810925847459367e-03 5.5958711839990308e-02
      -1.2701662220984863e-01 9.2603537909145744e-02
      -1.2705866906302435e-01 5.5484858970841398e-02
      -2.1056472729572409e-01 -2.1548849900856416e-02
      9.4933864092494966e-03 -4.2871425363967430e-02
      8.3901710851454932e-03 2.1679495304151006e-02
      2.6772453170374132e-03 -3.8391192752298887e-02
      6.7132633667238437e-03 4.9699899165239668e-02
      8.8333252255918870e-02 6.5719769343576970e-02
      7.4564205187224508e-02 7.3530570008314103e-02
      7.9400077274251371e-02 -1.0634580213577573e-01
      -5.7162781814886127e-02 3.2847427488979244e-02
      -5.0091291088215396e-02 5.0383836795825837e-02
      -5.3256803394610723e-03 1.5924092851025314e-02
      -2.5360732175331024e-02 4.4658903843361630e-02
      7.4809926108621763e-02 2.5259369980322461e-03
      -4.4327953565207703e-02 -6.9616205542606030e-02
      3.2792743190437089e-02 5.5870725812369570e-02
      4.6116282631746448e-02 3.7186847787863187e-04
      9.8014685802280524e-02 -2.0311889469847268e-02
      8.1678700536002125e-02 5.1855559032249234e-02
      -5.3665359014311138e-02 -1.3044252443691745e-01
      3.4325258882076347e-02 5.0381021985801674e-02
      1.0345428093385043e-02 -5.4836670526758870e-02
      -7.8814728075744522e-03 7.5736851379770528e-02
      1.0154405179679582e-01 -7.0501666803019253e-02
      5.1708378106317968e-02 6.0633138129896243e-02
      -5.2889816773427002e-02 -1.2166113641851089e-02
      -2.1727536844268733e-01 -3.6842150004024678e-03
      -1.3551562276033915e-01 -1.2777905065072197e-02
      -1.4761000149656897e-01 1.4007054461493293e-01
      7.5949401365090860e-02 -1.0289900551641222e-01
      3.2384919352783169e-02 -5.2490230160712036e-03
      9.1255626219574615e-02 2.5618811839680063e-02
      7.1788416056352403e-02 -5.8808812334289716e-02
      2.5934394375501862e-01 -1.1122707053714190e-01
      1.1623183513720572e-01 -8.4786413494894589e-02
      -6.8744731640871970e-02 4.3825005218139319e-02
      -9.0462693024877888e-02 -2.8060669217943663e-02
      1.0619708398204450e-01 1.2731516479903870e-01
      -4.2030514049707257e-02 2.7127673852857172e-02
      1.4135785970350362e-02 1.7458455794019175e-02
      -5.8192330467274039e-02 1.3333369634259201e-01
      -1.2225422001620735e-01 7.9347606154881622e-02
      -3.8979733494703066e-02 -2.2760450622280638e-02
      -1.3073922255628775e-02 7.4351430178077257e-02
      -9.3334540679991113e-02 -1.5955333436668628e-01
      1.5295443399276205e-02 7.6671475708852049e-02
      1.6702119234085475e-02 2.8116016270452644e-02
      -3.8486663173473851e-02 -7.9726363987213375e-02
      -3.3774740080291347e-02 1.0279830529964917e-01
      2.8424711258901506e-02 -1.1542948459896728e-01
      3.7983498470796469e-02 4.7961580429564492e-03
      -1.9292620024473784e-02 -4.8530389455863250e-03
      8.2232166320716601e-02 -6.0888147248941711e-02
      -9.0372242668517261e-02 -8.4727670139061479e-03
      -9.2438423953889889e-02 9.8989900220500901e-02
      1.0081424328601171e-01 -5.7863763457589562e-02
      -2.2216223137702606e-02 -1.8885202010626576e-01
      1.2877260389899747e-01 1.6749668738490017e-01
      -1.0438258857383446e-01 -8.6486939917420416e-02
      -1.6796470418542667e-02 1.5553759243483609e-01
      1.2365228322504364e-01 1.0628467607914784e-01
      4.0330462249901257e-02 4.9520746581671674e-02
      2.2331963658496261e-02 8.6110092672869194e-03
      -4.3054048985578790e-02 6.0257399801187113e-02
      2.6935355782544584e-01 9.4309968387680868e-02
      -1.4504994883968844e-01 3.3219182607448772e-02
      7.2149439816271921e-02 2.6684705298159251e-03
      1.1590874457709810e-01 -9.6214860137568484e-02
      1.2502858824487664e-01 3.3222232848277612e-02
      -7.8455866071182018e-02 -1.9741786130857155e-04
      1.0224209227764904e-02 8.6495890826719851e-02
      2.9075019510404008e-02 -1.6485831533553753e-02
      2.0439135427050883e-01 -1.4152083755040795e-01
      1.4946506895954649e-02 1.9315809598160354e-02
      -7.0129222083214177e-02 1.4064570547043165e-01
      9.7907284155663354e-02 -3.6669179626245996e-02
      -3.4988887427112817e-03 7.8685806120795870e-02
      9.7787744748797686e-02 -1.0048308239512362e-01
      -2.1994445953246533e-03 8.8202062766251449e-02
      4.2311689980148150e-02 6.0309228795629388e-02
      1.1480353717181405e-01 -1.2117120852018666e-01
      -3.8952870620732896e-02 3.4053405149909378e-02
      -6.1293636941824770e-02 5.0981077963516176e-02
      1.1891217007151449e-02 -1.6709287587575514e-01
      1.1485337142834437e-01 9.0107737317268580e-02
      7.2799873819653235e-02 7.4977501731266785e-02
      1.9187507181665162e-02 2.2585134063685255e-02
      6.1817863455688890e-02 -6.4952151741427752e-02
      -1.9996321193180882e-02 6.1343189554533772e-02
      -6.9322867890185005e-02 -5.4673314068996406e-02
      -2.5135337768572102e-01 -2.3352582655144375e-03
      -1.1874092457599568e-01 -4.5974993882371216e-02
      -5.6984369553436900e-02 9.6953324180226744e-02
      -1.5107063972947707e-02 -1.0749308769771218e-01
      -2.3213845393537280e-04 4.7393404472467785e-03
      9.1772508701117791e-02 5.0743401074075684e-02
      1.6459471823096063e-02 -5.9884610839458861e-02
      1.9052919293609641e-01 -7.1210076704882566e-02
      1.0082632162205388e-01 -1.0227779994836038e-01
      3.3401652275744820e-02 8.3955517272087971e-02
      -5.3921765950818511e-02 2.2811500964193727e-02
      -6.7417246940382908e-04 3.9628943667179888e-02
      -9.9843490847892055e-02 3.4768535961004828e-02
      -1.4155547959003935e-02 -9.2556708081938568e-02
      -7.4217835585782916e-03 1.5566367075011459e-01
      -1.4173143034814756e-01 9.2173216317760227e-03
      -7.9853843386761020e-02 -9.8095891037106443e-04
      -7.6176391169152355e-02 -1.8028191690939398e-02
      -8.1159668554942749e-02 -1.5543789470142946e-01
      1.6787962839046227e-03 1.0092162782788804e-01
      -4.3308638171687681e-02 4.3516735823514473e-02
      -3.4111669555125249e-02 -8.5263424045183708e-02
      -8.9057181846719083e-02 8.0847126094758470e-02
      -1.2785802205998673e-01 -4.5422872194572301e-03
      6.4593039199521678e-03 2.0039999806879913e-02
      4.5223296029666550e-02 2.7030425028690765e-02
      5.3857547467444207e-02 -1.0935735542431700e-01
      -1.3387400954124834e-01 -6.4946170775231921e-03
      -1.2081693216346424e-01 1.1111753947743024e-01
      6.7097734923949839e-02 -8.8952819389142096e-02
      7.5405751880892755e-02 -1.8042773926413769e-01
      1.1991753804327290e-01 1.2538853098902331e-01
      -1.8347363814543709e-02 -1.0101812178494569e-01
      -3.4256120644485355e-02 1.6439357981205674e-01
      7.5570101587195626e-02 8.0734674474916557e-02
      3.8819047886694387e-02 -1.8324339707100939e-02
      4.4451673422351894e-02 -5.3257266998040002e-02
      -5.9709592029360659e-02 1.2071754726775569e-02
      2.5174749239016569e-01 -3.1770598286875243e-02
      -6.0935556244361318e-02 1.0114829602462221e-01
      3.7786559267268018e-02 7.5353623659326473e-03
      8.6957498286194090e-02 -1.3567096041901855e-01
      1.0328281156502317e-01 5.0105483685333088e-02
      -6.5689259848873263e-02 2.6095549296956393e-02
      -6.9545500944932545e-02 1.0556099757760341e-01
      3.9564088540090546e-02 -3.4721360941197217e-02
      1.1284436915859600e-01 -7.6818563532372194e-02
      1.9335439924279593e-01 1.0329295359251854e-02
      -8.1739349588575344e-02 1.2519581780046485e-01
      1.4607951634656022e-01 -2.3343126144012218e-02
      1.2686102963682055e-02 1.1766001758050654e-01
      1.0932545068476718e-01 -4.8482703482443885e-02
      -1.6631577292462566e-02 9.6191706402336860e-02
      6.9472794577684705e-03 -2.4540177175401162e-02
      1.2296471703127478e-01 -1.2489087594556580e-01
      -2.4024011932834058e-02 -2.1803989378309685e-02
      -3.7331645082089977e-02 1.2622965802533562e-02
      6.3758761423605148e-02 -1.8368937225500739e-01
      8.6930251640816150e-02 7.5929268685912807e-02
      9.7464815766955801e-02 8.7231767438182048e-02
      -3.1790161701500713e-01 -3.6656506040119816e-02
      -2.4879895379472997e-02 -7.7841699681128432e-02
      -5.3951383305745601e-02 4.6433375644112256e-02
      3.6782736756998981e-02 -5.4533829076541134e-04
      -1.5841620702798317e-01 -6.2309877683052774e-02
      -6.6008042920649379e-02 -2.7701450717487943e-02
      4.1058679034531878e-02 1.1490379245238182e-02
      6.0043064922783128e-02 -6.5261852179337665e-02
      3.0619294187153655e-02 -7.4372409684569277e-02
      8.3380085082038355e-02 1.4910497911714590e-01
      -4.6144584172624570e-02 -1.0669789702536384e-02
      -1.8536081978846979e-02 -5.5768172106212273e-02
      2.8400645796359913e-03 -8.2432560837766067e-02
      -3.9713117315568801e-03 1.8556440240624134e-01
      4.0558601607160974e-02 -2.6363234188898427e-02
      -7.8678420027158580e-02 -2.1344570412467290e-02
      -7.4615833449708152e-02 4.7636141942193249e-03
      1.9408230363191233e-02 -1.3261974348450151e-01
      6.7227043832659858e-02 -1.3324266587236011e-01
      -1.1631004068631609e-01 -6.4820862677607574e-02
      -5.1926696846827936e-02 6.9349002267774573e-02
      1.3608829854891377e-01 -1.6070548388874653e-01
      -1.0388842212357344e-01 3.1537913885687684e-02
      -6.6317478840028823e-02 2.9318445410626080e-02
      -7.1752676458684592e-02 -9.0228150963256124e-03
      5.4923101292056055e-02 1.4552751108455069e-02
      -7.3720427249629558e-02 1.3847481929203367e-01
      -6.5840550182734242e-02 1.0638588012695260e-01
      4.0372390627722360e-03 2.8912932678578623e-02
      1.1842982828186022e-01 8.7664187813130331e-02
      -2.2205061206764288e-02 -5.3786774824787970e-02
      -9.0144822123977286e-03 5.4696458061330680e-02
      -1.2848879184635986e-01 -5.9341112628430268e-02
      2.4497530637227559e-02 -5.5464049156121471e-02
      1.0373586648378934e-01 -4.2463226673688924e-02
      6.9078759977854814e-02 -6.5864488997462362e-02
      -4.2311780590380273e-02 -1.4510940380587153e-01
      5.6848556246894257e-02 4.1684301119118056e-02
      6.2219137823953719e-02 -9.0132988934236311e-02
      2.3204778403675824e-02 -3.9075461583462166e-02
      4.9167830185445759e-02 8.6936725555209686e-04
      -6.9210888393375858e-02 2.3330989706929293e-02
      -5.9608059846309382e-02 -3.2861516892417821e-02
      -1.1594401680193782e-01 2.0619889362488559e-02
      -5.2188010869257895e-02 -4.0981077172234079e-02
      2.3084194780130983e-02 -8.0222489697077667e-02
      6.4817479670575953e-02 3.5581823893749844e-02
      -3.9632135214790205e-02 7.0031256329298699e-02
      -3.2162894240061184e-02 4.2931587725615269e-02
      4.9292191472644568e-02 6.3416015499578079e-02
      3.1545350950505618e-02 -6.1963297005101614e-02
      6.4618815433551427e-02 -5.7247273075691003e-02
      -1.1490361200486288e-01 7.5871813215527117e-03
      7.0997751642881968e-02 5.0569335858723294e-02
      1.7433573750158637e-02 9.5848377574238350e-02
      7.9924413694442697e-02 2.3915306284751536e-02
      -9.4714108490065729e-03 -3.4058303440876476e-03
      5.2485333547511698e-02 -7.6872185815227423e-02
      4.0239775793321220e-02 -6.0337744489837968e-02
      5.3686721990973005e-02 -7.3839234142479018e-02
      7.4209194461541311e-02 5.7930950845690610e-02
      4.6634233046153030e-02 -1.5906330609233196e-01
      -9.1758956922912398e-03 1.1213153054340678e-01
      1.1329744942837354e-02 -1.0177069815087623e-01
      -3.2639493387242458e-01 -7.7500866421234701e-02
      4.9346929280916441e-02 4.9297686084668153e-03
      5.2459114453254716e-03 4.7863650761792359e-02
      1.0360815855670824e-01 7.1267080273673998e-03
      -7.7989997208651569e-04 -8.4050071519033959e-02
      -5.1083414243584410e-02 -3.7166488704722632e-02
      3.1777813343759606e-02 1.6306040612222794e-04
      -4.2158218735447658e-03 -1.1047042062361227e-02
      -3.8950155117191756e-02 1.4922554813569406e-02
      1.4268390854008436e-01 1.4751730828042628e-01
      -5.2228204353037974e-02 -8.0196819338205997e-03
      8.8583899481892124e-03 -1.2473544739791827e-01
      1.7442092437412065e-03 -4.2352754129980894e-02
      1.8806763126737520e-02 6.2407284442351420e-02
      4.2034378175803466e-02 -3.7693173652599200e-02
      -6.2181461427891167e-02 -2.0736329225429444e-02
      -5.9890464950911375e-02 1.6719143535458281e-02
      -2.5902094725268401e-02 2.1818518279136910e-02
      3.3268864250070647e-02 -1.3461714418436604e-01
      -2.5051201266428992e-02 -5.8452148550601699e-02
      1.9773999753195572e-02 7.4309194256981792e-02
      1.0799080971249733e-01 -7.1938019696194108e-02
      -2.2684342545634555e-02 6.4325400167151506e-02
      -1.0216936250958859e-02 3.5317066641198429e-02
      -1.7951075850990893e-02 -2.6630533262920784e-02
      5.6824228563307787e-02 -3.4316582366511875e-02
      4.2405401154039998e-02 5.3165505201428986e-02
      -1.4558640108113568e-02 5.6064862427165057e-03
      -4.6395894396474867e-02 -6.2615220616010742e-02
      -2.5443968750412584e-02 -1.4479704444586223e-03
      -5.0733033176141680e-03 5.4818038693781282e-02
      6.0392164563946138e-02 1.3240817459408329e-02
      -6.0340025100173902e-02 -9.4213214247315380e-02
      -3.8218245352295614e-02 6.7988909181473274e-03
      -2.9491520981043580e-03 4.9193721572010789e-02
      2.9076600965567172e-02 -1.0508759401793578e-01
      -4.6981365455781486e-02 -1.2148507507423952e-01
      -2.6954616070022481e-03 -9.6943278729625521e-02
      2.3672847233523801e-02 -4.3657723530338560e-02
      -2.3666264168856237e-02 -7.7404996692260877e-02
      -1.6639146247940187e-03 5.0171038252904337e-02
      1.6428743059657202e-02 -9.7710981019342429e-03
      -4.2554698451434551e-02 3.9693578890800850e-02
      -6.3025171528915153e-02 -6.4344480991147826e-02
      -4.5009573357202709e-02 -6.3321871413934305e-02
      4.4622905877887399e-02 3.1032406637513436e-02
      6.3136135437387667e-03 -5.0182470525647616e-02
      5.1643616714129009e-02 4.3116152115286903e-02
      8.9855248404874424e-02 -3.9292310521244142e-02
      3.1296688110086408e-02 8.1250275782468420e-02
      -5.4787576361232486e-03 -4.7992893327779167e-02
      -3.3184263923645201e-02 -4.7650760120166245e-02
      -6.2185015456150773e-02 3.2697820839266145e-02
      -2.6681054947793627e-02 3.2472096067753163e-02
      -2.0573528238101942e-02 5.1402401347672051e-02
      -1.2494337387151180e-03 2.4095456263002000e-02
      -4.0112289573681750e-02 -1.0538552234138979e-03
      4.0710550814478198e-02 -6.4294384645913014e-02
      -2.4204165556932052e-02 1.8848108119615358e-02
      1.6547581811633263e-02 5.5350131356370617e-02
      6.7714064395872381e-02 5.5320075874734725e-02
      -2.6494963619515016e-03 -2.2098714485600243e-02
      -4.0665613952310303e-02 8.4789149854453683e-02
      4.3704860853382127e-02 -9.5620063173512015e-02
      -3.0470262472363974e-01 -1.5681105507539903e-02
      9.0517287350690659e-02 -3.5145183875647329e-02
      3.1538145869579308e-02 -1.3273165882616515e-02
      2.4581881734306598e-02 2.5716769557443894e-02
      2.4258879736352202e-02 -2.9610125304897296e-02
      3.5476547084222515e-02 1.1212102308016059e-02
      -7.6754386066726042e-03 5.1978789845967717e-02
      1.4238657490951612e-01 -1.7096607193077297e-02
      -3.7915838322100139e-02 -5.2676924403455231e-03
      1.0017619532585775e-01 -2.2296131610529214e-02
      -2.0217081299826922e-02 1.0569243552309789e-02
      -3.0691839598357841e-02 -5.0223235126971306e-02
      3.1163849242064386e-02 -2.8376534214376594e-03
      2.5038106701992534e-02 4.6977271891950709e-02
      4.6169756664835332e-02 3.2579462866091466e-02
      2.9182452593595611e-02 -2.1677183647048903e-02
      -1.1635772883439359e-02 -1.9188893618455143e-03
      3.6860506253991676e-02 -4.7677199942307576e-02
      -2.1722445682016353e-02 3.5513138485385842e-02
      4.8792467771261637e-02 4.3572161181757579e-02
      3.0125871728789642e-02 1.4008015076993369e-02
      8.2103560463368599e-02 5.2166556905071815e-03
      6.1545679306635896e-02 -3.5688883444105569e-02
      4.1622351245382709e-02 -1.1460185399423631e-02
      -7.6695484251355561e-03 8.1474332494642747e-03
      1.0373565467968230e-03 -5.7085455451161504e-02
      2.7622447064971578e-02 5.4415738814644878e-02
      -9.2381328976020617e-03 2.0525094977206216e-02
      -3.3501006759705701e-02 2.2302983035670551e-03
      -7.0445557971062986e-02 8.0702442915516689e-03
      3.5349911973172575e-02 2.9743500252925596e-02
      5.5965034919793497e-04 -9.2522424544458623e-02
      2.7268298648884571e-02 1.0415262840562559e-02
      4.3338086886380529e-02 -4.2210483413485329e-02
      -5.4904879183728841e-02 8.0065013089149137e-02
      -4.4961256611792304e-03 -4.7214930918518763e-02
      4.0634331775222535e-02 3.4716122127363179e-03
      -1.2272310305080426e-02 -4.4882183854188913e-02
      3.6420169700841103e-02 -2.1727961469146649e-02
      -1.1787579438684786e-02 -2.4399493007461128e-03
      3.8087203187591130e-02 -1.6491341370935012e-02
      2.8416015504011214e-02 -5.2661757335274298e-02
      -1.0148444078728276e-01 -4.9584947151901586e-02
      -2.8228718469820443e-02 -4.0362976424090757e-02
      -2.8389423040811504e-02 -5.7045846227725745e-02
      7.1525775259717464e-03 2.1664846415502773e-02
      -6.1790388315174265e-03 -9.8099007301819582e-03
      -2.1789690233777199e-02 -2.8162550067619817e-02
      8.4427584131125694e-02 -3.6809233522575771e-02
      1.2392957877430005e-02 2.9519354036792490e-02
      -8.5264334811429171e-03 1.7611342779320114e-02
      -8.0946820909185788e-03 2.5401418745191584e-02
      2.3198426449653652e-02 -2.1809718337750757e-02
      9.8951815722790968e-03 2.3042237153569761e-02
      1.6039051311402167e-02 2.9624695293142031e-02
      -2.5454131965386567e-02 -2.2275337035355038e-02
      -2.7665634640059372e-02 5.0046942870507621e-03
      -9.2988779997695212e-03 4.0569674544610100e-02
      -4.0780764815636701e-02 -1.9500374247382025e-02
      -3.3617638273432594e-02 -2.1523604171117774e-02
      4.3626581644010303e-03 1.9803479958404320e-02
      5.8168037290240154e-03 4.3832496139623624e-03
      8.3019200943195339e-03 -7.5195647797114906e-02
      -9.8501979940277297e-03 -9.5544059052341604e-02
      8.4847636882797048e-02 4.3199550857765258e-02
      6.1800319427338891e-03 -1.5184300980224446e-02
      -4.5323171261370540e-03 2.1606596410032292e-02
      2.1774881153625133e-02 4.5605523512328973e-02
      3.0806669554696284e-02 -1.7058665165920098e-02
      -1.5583547168698168e-02 7.6275928855197572e-03
      -4.6867027868427558e-02 -9.8329941806328293e-03
      -6.2750825279874189e-02 -1.5146427859745145e-03
      3.7000075927451352e-02 -3.1361556391778046e-02
      -9.0361691652666252e-03 -6.7477575229043921e-02
      -9.7165020439688810e-04 1.6255117776201221e-02
      7.1845325393535942e-05 6.5075025549308538e-02
      6.6332188353965649e-02 2.6373184901056747e-02
      -6.0276230560063017e-02 -3.8691233872300675e-02
      2.3575167349770863e-02 -1.3421458592006181e-02
      1.4636402172252799e-03 -1.4858020585922482e-01
      -4.1241315601126816e-02 7.3442277833017933e-03
      -1.2023973085093729e-02 -9.6707983768921733e-03
      6.7925781280582187e-02 1.3780483434530434e-02
      -1.8860663386053082e-02 -2.7615868171836876e-02
      4.0403482766205026e-03 1.6008610661977767e-02
      1.4286283532226047e-02 -2.3246593401449880e-02
      4.4791296909695044e-04 2.0503900333855389e-04
      1.8872394867184884e-02 -1.1654315910902524e-02
      4.2633909400018134e-02 -2.5599996023567623e-02
      9.9623826754647194e-03 -5.2734038830439783e-02
      -3.5094693016561303e-04 -1.1591136875350704e-02
      -6.3334027231520859e-02 -9.8312853819073953e-02
      4.4538598829115617e-03 2.8580849427466175e-02
      -3.2432485121882265e-02 -5.1205026507581887e-02
      -4.7018048665946818e-03 9.1620359634500461e-03
      -1.3464555604823025e-02 4.0981512223547338e-02
      3.1493206042377681e-02 -1.8024836518281920e-02
      4.2294800289282536e-02 -4.1454497763785802e-03
      -2.9738773308901487e-02 -1.5526441093306141e-02
      -4.4473478062403198e-02 1.5589883075433927e-01
      -2.1488469230479409e-02 -2.8246062061493694e-02
      2.8849259933829356e-02 1.2735523846843672e-02
      4.3745011273432846e-02 -1.4888944398301733e-02
      9.0996493089832292e-03 1.0710256971186778e-02
      3.8980481820438226e-03 -4.8780810014870349e-02
      1.1642711095555380e-02 -1.6490701212585713e-02
      -6.2039770119770438e-02 7.0589028144811038e-03
      5.1072863882843404e-03 1.3881315420699127e-02
      -1.4035144574359502e-02 2.3614374977028323e-02
      -4.4760214598338614e-02 3.0117897489539983e-02
      -3.5210226852049622e-03 -3.7237844112963256e-02
      -1.0534020985698273e-02 2.2030351345561319e-02
      6.9528793575999665e-03 7.1654402793278581e-03
      -1.0467648265417084e-02 4.3730945287756590e-02
      3.1467411023828593e-02 4.6986544277779234e-03
      -2.9680906663570976e-03 -1.2473303703772821e-03
      2.1394989815386976e-02 -1.0643895457056183e-02
      -1.6431628184128674e-02 1.0904848293684445e-02
      6.9639807290711481e-02 -4.9501851622396946e-02
      -1.6131663174537795e-02 -5.1261815408034260e-03
      -7.7651043884363863e-02 1.3045971305288993e-03
      -2.4249909259317854e-03 3.0766876626945095e-02
      3.7502956139397123e-05 1.6852288588993618e-02
      -1.3313690775741923e-02 2.7601775021374540e-02
      2.2731183958222018e-02 2.8824060793341487e-03
      -3.9665350311051256e-02 -8.9404676592696689e-03
      -3.8399766901119688e-02 3.9129816828706893e-02
      1.3633529617632928e-02 -1.1289658436885743e-03
      5.7791516586874411e-02 2.6390594110938949e-02
      4.2886414098439333e-03 3.3994305354830140e-02
      -4.9549063457693297e-02 1.3548527255625350e-02
      5.6843791233814535e-02 1.0649344703210938e-01
      1.2920687751233856e-01 -1.4282205937705227e-02
      3.6657864501613402e-02 4.0401693744919233e-02
      4.7755077830765241e-02 -8.4599704114835930e-02
      -6.5555578638726325e-02 -1.6790766138334377e-02
      3.9275651106674241e-02 -4.2136741611345292e-02
      -5.6133216383592414e-02 -1.3205915818649543e-03
      -9.6417023636508059e-02 -6.6719391823371679e-02
      -1.8170277418675204e-01 1.1689231347025868e-01
      -2.3595915983278190e-02 8.5051671335894044e-02
      -8.6072322609239242e-03 -5.0202960467842381e-02
      2.2606198980850145e-02 7.6626126617883698e-03
      -4.6351509471412089e-02 -8.8491568047950900e-02
      4.0537303153678240e-03 2.6131978647966670e-02
      -2.0646487698650195e-02 1.4120312448488903e-02
      7.3144328777879686e-02 -1.1240393723586817e-01
      3.6935155155372247e-02 -4.7977544060248567e-02
      -4.8753772826180042e-02 6.7530555148872032e-02
      3.8364118991592797e-02 -8.6019766390512675e-02
      1.9204881665471844e-02 2.3277330166466959e-01
      -1.0863782789431214e-01 -5.2287247028747111e-02
      4.7624543795622303e-02 -6.8570785475254678e-02
      5.0393812063822985e-02 -2.1420228893254376e-02
      4.4059838210160851e-02 3.9000315986715581e-03
      -7.3266010463265002e-02 -7.2387525507872114e-02
      2.9948801942243395e-02 7.1349671836686335e-02
      -9.5244214063145149e-02 -7.4438999878951889e-02
      -5.3879404034513620e-02 7.2629333826017255e-03
      1.8769211398020599e-01 2.0801544440795777e-02
      7.5284196296734454e-02 -1.1426029830232629e-01
      -4.3944095155561011e-02 6.2608940440588887e-02
      -1.4241322935674022e-02 8.5510362983546861e-02
      -1.5315573665095587e-02 -8.0077714481962006e-02
      4.1343982267716205e-02 -5.7967008095026050e-02
      5.0257209593541734e-02 -6.2767237391098699e-02
      4.4150037386978369e-02 -6.9638969384983915e-02
      4.7827086324014785e-02 -1.2119609457196683e-01
      -3.8185443105713382e-02 2.3620929642843416e-02
      -1.0747482196973188e-01 3.8766678956587260e-02
      -2.1348179704090495e-01 -7.9616833547507589e-03
      -3.5152393674221266e-02 -2.4297676404363637e-02
      -3.8048475013667822e-02 -4.6046211963446361e-02
      -1.1449809180544189e-01 1.4624478576787589e-01
      -1.2861264020880570e-01 -1.4322185680795185e-01
      7.1926529685443844e-02 8.6503410669483541e-02
      7.2891221885620652e-02 9.8281326123885113e-03
      1.5211957568093225e-02 9.0461238543905448e-02
      -1.7825970504487403e-02 8.5167872252534804e-03
      -6.0520001891009895e-02 4.4345959785192894e-03
      7.1730803587274055e-03 6.3349388733572346e-03
      -1.3870533587984279e-01 7.2295224304470190e-02
      6.8491588483920007e-02 -9.2564555857857111e-02
      -5.9726355562343639e-02 4.6580688951547898e-02
      -1.0116376778783887e-01 -5.0305826749871822e-02
      1.9052898861521100e-02 -1.9241508994239081e-02
      -9.6259508990540629e-02 1.7687669188873847e-01
      5.8649645480686734e-02 6.2775148275664938e-02
      1.1092694114003482e-01 2.8725280293371704e-02
      -8.8267277225162116e-02 8.4570180291670044e-02
      -4.2235674966929468e-02 5.6267010577263805e-02
      1.2753381156947458e-02 -5.6545272021062909e-02
      -1.0365408254631404e-01 8.9119939411654928e-02
      -3.8084393253332599e-02 -8.3553686458072485e-02
      1.4874047731142344e-03 4.3857811447525860e-02
      -1.7871719522325139e-02 6.7208522472235091e-02
      -8.2290788089269096e-02 5.2348622378859302e-02
      -5.8055900405571959e-02 5.1196166980409588e-02
      3.2022337100617443e-02 -5.7911322675462909e-02
      1.4217057779163711e-01 1.0037465130835291e-02
      4.1015009823373950e-02 -7.0095330350302507e-02
      -5.2859852210368451e-02 7.9935954382174074e-02
      -3.4637591488721163e-02 -2.3265629598525255e-03
      -1.2975298475746822e-02 -4.5267370766132055e-02
      4.8602782319771241e-02 2.9247055308272499e-02
      -1.1416275336913879e-01 1.7513953304266586e-02
      -1.6419225436789375e-02 -1.1091490171429613e-02
      1.5562834765799199e-02 2.7782616164167905e-02
      -1.0003675212576293e-01 2.7158848011224618e-02
      1.4069352901683567e-02 -9.7046438255014942e-04
      7.5870627616650865e-02 -9.3564209071288346e-03
      -9.3656271974295838e-02 7.1005895860818610e-03
      -3.6692965598711227e-02 7.1606591010337376e-03
      1.3613476962405495e-03 -8.7077030844324499e-02
      -4.1135893650509799e-02 -1.0238152462379224e-01
      -5.7896008404204197e-02 -6.6984343830176124e-02
      1.4576160171570726e-02 -9.0865199789958058e-03
      4.0978013785298091e-02 7.0197800856011211e-02
      -1.0904118488862460e-01 2.2103126635389461e-02
      9.4783465129032296e-02 -7.0549866369676417e-02
      8.0791657659945337e-02 -2.5161814446634716e-02
      8.2095999598481087e-02 -3.7385244951821273e-02
      -2.7311177507983422e-02 -5.8476811632245565e-02
      -7.8975219510045089e-02 3.3445903530469445e-02
      -3.5325185523493209e-02 1.3597410954809855e-02
      4.8013041942426157e-02 -5.6548946725075121e-02
      -1.5743307169124504e-02 2.2509640119572981e-02
      -5.1765536100342466e-03 -6.1842204926789553e-02
      -1.7282068885583365e-02 -1.0417411810071799e-01
      -1.4258704280238859e-02 2.0499297352847506e-01
      2.0502941326218604e-02 -5.1368851974281145e-03
      -1.2805312039351436e-02 -3.6758156563618971e-02
      -3.8380557989585437e-02 5.8858366059639927e-03
      -7.7291255316089574e-02 -1.2970887554840620e-02
      -4.3958803762068371e-02 6.2036116864342260e-02
      -8.7103136191172992e-02 -3.1865816690361239e-02
      2.6880343504321599e-02 1.7424503853112718e-03
      3.2027849475639261e-02 3.4373208401231911e-02
      1.2219550255524557e-02 -7.6387170469248301e-03
      -3.1585291065426929e-02 3.3404632956906426e-02
      -1.1119432770733351e-02 -1.9267085508912776e-02
      -8.0276693037524497e-03 4.2926672798749753e-02
      -2.4365252022639929e-02 2.8365566586180460e-02
      -8.0272304032258379e-02 2.9157742292665073e-02
      -5.6373832376850862e-02 1.6234121193588785e-04
      9.9301802325103185e-03 -4.4902682646133143e-03
      -1.2462401865936414e-01 -3.7524196286871106e-02
      1.2792682408168412e-02 -5.3684393219871705e-03
      -6.4513932949973110e-02 -2.5024748680857984e-02
      -2.3177804796333103e-02 2.0669335377194453e-02
      7.6163985404610432e-02 -4.2134671953213187e-02
      1.7654502831753050e-03 8.4443525364151489e-03
      5.9220816006760643e-02 -3.4888441776682842e-02
      -5.1002654763320499e-02 -5.9683044710203484e-02
      9.2256999672955843e-03 7.6094920299042260e-02
      1.1603405972540240e-02 1.7066357808278032e-02
      -2.2816193491941089e-01 -1.8340474682743985e-02
      -1.7452722644945660e-02 -2.1141927458100635e-02
      1.2651980959002952e-02 -3.3944517065236164e-02
      4.6747912098424493e-02 -2.6943401518765231e-02
      -1.2575534366986793e-01 -1.6904722545754924e-02
      3.6225146784326132e-02 -2.8626907880445189e-02
      -2.6376212935235632e-02 6.0421741894513846e-02
      6.3831245674212875e-02 6.2971668403512711e-03
      -2.2692051443770803e-02 -4.5092774290841414e-03
      -1.7225320356533735e-02 -2.2592745119233855e-03
      3.1054068582259103e-03 -2.5461288612010729e-02
      1.1034910383596476e-01 -1.1051419417354467e-01
      3.0465241333935959e-02 -1.1338635828679751e-01
      7.5614627158073009e-04 5.0307537503570567e-02
      -7.6310715963729733e-03 -4.9067022393613810e-02
      5.7651219903697586e-04 1.7682231183116594e-02
      -3.3609060831444132e-02 -1.1796334004731648e-02
      -1.6019764824359597e-02 -3.4838461370264771e-02
      -4.1926710916344867e-02 -1.3543544756165263e-02
      -1.1564368603593685e-01 9.5087046412525439e-03
      1.2352858133397803e-02 1.5547833116055770e-02
      5.7192290211869556e-02 8.2047145348945992e-03
      -2.8521002961679354e-02 -7.1555918231143475e-02
      2.8167371689953570e-02 -3.0028620279895082e-02
      -1.8933630252879127e-02 5.0907118958060590e-02
      -4.0046715493069228e-02 6.2010503166006224e-02
      -9.3111853018431640e-02 6.1234358468532195e-02
      6.6669414658384787e-02 -2.5430239813282771e-02
      -9.1025857123736096e-03 -5.1895076261976800e-02
      8.4536727650725604e-02 5.4207004592659105e-02
      7.2906215261268658e-03 -2.6620213597488344e-02
      -4.2958327355695380e-02 9.4921049030998697e-02
      -1.3798878480253931e-02 2.5304768661671136e-02
      5.8126260904157068e-02 -9.6769105615691395e-02
      1.3922389439763200e-02 2.0750282285941373e-02
      3.6731575341328836e-02 -3.0695630462566361e-03
      -7.6651175850611014e-02 -3.6317349769560185e-02
      -4.7893635192380116e-02 7.1523452957056088e-02
      6.3714395886653147e-02 2.2467379993276682e-02
      -2.8369364851980935e-02 2.9673208198862728e-02
      4.8384925406468549e-02 1.3206900409907091e-02
      2.1599785925797258e-02 5.3210423003784840e-02
      1.3179768066579289e-01 1.0904126708135609e-01
      -1.1613360746636575e-01 8.6665599424347439e-03
      7.3150800685129289e-02 -5.6020192717025422e-03
      4.1583021946633873e-02 -9.7913357700498194e-02
      7.6151090429275065e-02 3.4011442552753866e-02
      -5.1773448974692646e-02 -5.6085824064125635e-02
      4.5414499549258615e-02 4.4923148865199866e-02
      2.7536624372089185e-02 2.0161393117894579e-02
      4.8352668859298294e-02 -5.4755737465788525e-02
      -7.7881953480496272e-02 3.2327216251712954e-03
      -3.8256221933223082e-02 4.7812323470772305e-03
      4.7234251737828331e-02 -2.6807857361693194e-02
      -6.4241457553563724e-02 7.4717698547123873e-02
      1.1784456623484563e-01 -5.0681729352220921e-02
      2.1111909460012245e-02 -1.5352857334564858e-02
      -6.9328944286832575e-03 -2.4118846079656763e-02
      1.2284779399331563e-01 -5.3223412368697341e-02
      7.1075103739134970e-04 -3.0761634635583020e-02
      7.2727144435690734e-03 1.3726265353980596e-01
      4.0630392860974349e-02 -1.1036067950523078e-01
      -3.2773539620155334e-02 -2.3764162918387829e-03
      -1.4548789403726688e-03 5.2339014485971232e-02
      -1.7555336019274094e-02 3.4257319131713302e-03
      -5.0025226929095230e-02 -3.9794987520976911e-04
      -3.1218233570101304e-02 -1.5511957048129972e-02
      -3.6642958242223737e-02 -2.1157127336311022e-02
      -8.2599203776335145e-02 -3.4799114231591669e-02
      3.5312248515148685e-02 -3.9448209821927274e-02
      -6.9384066613336955e-03 4.7582458927102014e-02
      7.4334928905221448e-02 -3.0286306517128388e-02
      2.0460267680582251e-02 -2.6107817217594420e-02
      -3.2617389964546890e-02 -6.9914187485254275e-03
      -6.1346981530835459e-03 -2.8235434449925455e-02
      2.1551639488181833e-02 1.4540765641073584e-02
      -2.2238418734073701e-02 -8.1380224857881642e-02
      5.6595423909659444e-02 1.1532519064604208e-01
      2.8783926512944702e-02 4.2336435632334517e-03
      -1.4233629374793326e-02 -2.3944340853840019e-03
      1.1376524283749884e-02 -9.5637590988072868e-03
      2.1604307807463530e-02 -8.5978030350150836e-02
      1.4822771915722502e-03 2.5713846152831486e-02
      -1.8513242638409842e-02 1.7379788692053935e-02
      -3.6479726118163615e-02 -3.4307020513099154e-02
      9.3565988585414830e-02 -2.6642382812871574e-03
      -4.1970888058566755e-03 -7.5869534645252978e-02
      -1.0379653293905148e-02 -2.9069628023189856e-02
      -3.2565351617646100e-02 3.7120865486196322e-02
      -2.4348614149107238e-02 3.7283028741899017e-02
      -7.0788979109425498e-02 6.3066850409965129e-03
      1.8937184694583494e-02 8.8858905226424603e-02
      -3.2585939156490454e-02 6.6606851033801399e-03
      5.5558231909898399e-02 1.0904501851157843e-01
      2.9299952087649933e-02 -5.5986305987088293e-02
      -3.8480362395330231e-02 2.2468399593256319e-02
      -2.4691434332431587e-02 3.7900343594826337e-02
      9.8962001480414909e-04 -8.5720606624596851e-02
      4.9803291962385574e-02 3.0562021091354252e-02
      7.5593736308822046e-02 -7.4735424599398234e-02
      -4.5077616453187322e-02 -1.3423724105124386e-02
      -1.9523870337000308e-02 2.0060521431642078e-03
      3.3981853000417138e-02 -2.8432807142501982e-03
      1.7377548959664924e-02 2.2262932479853231e-03
      6.7247800207253058e-02 -2.3885672581671017e-02
      5.0409535106449264e-02 2.6853005902542682e-02
      6.6360585622934426e-02 3.7277041358310455e-02
      -8.3540708132332220e-02 4.6629192976810369e-02
      3.0145853810103092e-02 2.8408455719040021e-02
      1.6980030280075931e-02 -6.0790072739802969e-02
      6.4151052017047600e-02 9.8170252122197155e-02
      -8.5565418513995739e-02 -1.4122978671506784e-02
      1.2028506228594735e-02 5.7347545275053154e-02
      3.1743003361392789e-02 -2.2558364887361466e-02
      3.0145946889051468e-02 -2.2976395372583492e-02
      -1.4109075771966116e-02 -1.8799056420539313e-02
      -7.8953418200290986e-03 1.9364972387091887e-02
      4.8737545425680907e-02 -4.7042158497386286e-02
      2.5222738118352250e-02 6.2297813585273892e-02
      6.2553399776155025e-02 3.8674678197803151e-03
      6.3929599790650507e-02 1.6755643158166290e-02
      2.2889546099400044e-02 -9.3812999153504561e-03
      4.4130597534387334e-02 -5.9313284714141844e-02
      1.9015768927825080e-02 -7.8667956504775260e-02
      -3.4368337403165736e-02 1.0698138970518806e-01
      3.3477249599560714e-02 -9.0746115139335878e-02
      2.4971527877864715e-02 -6.9827617175613629e-02
      -3.2861004217413246e-02 -2.0049362774039254e-02
      -1.5379030798449816e-01 -8.4423090348525145e-02
      9.3993717351740863e-02 -2.1438446681416371e-02
      -2.7068759821792403e-02 -5.9290252274303802e-03
      2.5409805344547055e-02 -8.9543992886604584e-03
      -4.8869671120606389e-02 -1.9362327705445458e-02
      -1.7685573074339253e-02 -1.0424659889877638e-02
      6.4613049134866929e-02 -2.0594153055631455e-02
      -8.1873382670899802e-02 -1.3141751027309233e-02
      -4.2444225265443350e-02 2.8235642058876478e-02
      1.7312287376246563e-01 1.7291348492126069e-01
      -3.5664543745691148e-02 -2.5835783876925658e-02
      4.8037515605270781e-03 -1.4162955168496408e-01
      -9.8713340855505535e-03 4.1673827437973144e-03
      6.3683498285004927e-02 2.9500815936445129e-02
      -7.0051739933984378e-02 6.8408876748792466e-03
      -7.8073436232985086e-02 1.3698693276659266e-01
      2.0088681501860689e-02 -3.2091572598194514e-02
      -2.3154027407930114e-02 2.2052263126181838e-02
      5.3748286912039265e-03 -4.6594771788666684e-03
      1.0246156332502034e-02 1.8755588115166304e-02
      -7.6710489013795014e-02 4.7687721517605836e-02
      2.1085860077854804e-02 -4.8368517752246966e-02
      -7.1213682572551243e-02 -9.0964811690034397e-03
      -1.0379541103248109e-02 1.2306784069657743e-01
      -3.3902447473103739e-02 -5.5640386835984186e-03
      2.3548015300593425e-03 -1.2830564351642443e-02
      -7.9253580030774293e-03 6.3300543264021403e-02
      -9.2941500819946912e-02 9.3406429257135867e-02
      -3.1709246806817387e-02 1.5825547947947056e-02
      2.8985616707475282e-02 6.1508773471501792e-02
      -4.9722612151605776e-02 1.6045140855681629e-02
      3.4323414613116152e-02 -8.4217074607457726e-02
      -1.0486280181226491e-01 -3.4386789303901336e-02
      -5.7176540291104506e-02 -7.0918368458597839e-03
      7.7670304835626642e-03 -2.4315528213711274e-01
      6.0021609027347239e-02 4.1187682774851261e-03
      1.3362490584339547e-02 -7.4949512661296319e-02
      5.4699521317126791e-02 -2.3856817778779293e-02
      3.3369558039272752e-02 -4.4819455851077767e-03
      -1.4322240091848659e-02 -5.2352513798420507e-02
      -4.0580489243876514e-02 9.0866022852265901e-02
      -1.5889268363035541e-01 7.1023614519772099e-02
      7.4945800905462018e-02 -1.0280680952145824e-01
      -4.9178618999404747e-02 5.0780544757427576e-02
      -4.0982560823219258e-02 -8.2230328004863490e-02
      4.4455140639946813e-03 -3.8720221693634492e-03
      -5.6268074584490931e-03 3.9915640504319734e-02
      2.1061221834306473e-02 1.4107384072272574e-02
      3.8992782715101426e-02 6.5882015952108436e-02
      2.4129727095461323e-02 1.3806685945999561e-02
      -1.7961094738368762e-02 -1.6482318703839347e-02
      1.9416908599878124e-01 8.7610158823629833e-04
      -1.1186963923870832e-01 2.0070123577754818e-02
      6.0581068381095456e-02 6.0112147857700804e-02
      -1.0743884454348808e-01 4.0011926606825218e-02
      2.4183175138313549e-02 -9.2391982289730477e-03
      2.8207708101386560e-02 3.1375728806366360e-03
      4.3033558897194985e-02 -1.2880198997081682e-01
      -8.9109478764325643e-04 1.8025071119297565e-02
      3.5951882525874369e-02 -1.8175883422999746e-03
      1.1918537426721779e-02 -1.3694559861536441e-02
      4.7048332728135828e-02 -4.1370093029353544e-02
      2.1031712933432156e-04 6.1832159605086742e-02
      2.3272338451774160e-02 -1.4615824426947614e-02
      -8.1459101768446299e-02 -1.2749885279129078e-01
      7.6638091331982253e-02 3.3325188796722950e-02
      -7.1608985455572979e-03 3.2075369610655396e-03
      2.8602269390116831e-03 -7.4708311118525019e-04
      -1.6184846086226865e-02 -1.0193469807458166e-01
      2.5705137396052243e-02 -6.0855964746292623e-02
      4.3373877144596264e-02 -3.7673689539867578e-02
      -8.5355239657336587e-02 2.4794675447859477e-02
      -8.3005574580857611e-02 8.9320427851955680e-02
      1.3927144183383358e-01 1.1584390039478644e-01
      -2.0666966609219867e-02 -2.9815040253188315e-02
      -2.2826798334241167e-03 -8.6715720352294648e-02
      -4.6870568305597438e-02 -5.6933364048647940e-02
      5.0432499166693394e-02 1.3997293121636655e-02
      -1.9136203594251163e-02 -3.0799739749824376e-02
      -2.0691330326638686e-02 8.4795927776837171e-02
      4.4316479601370418e-02 -3.2257313685240943e-02
      3.3717616255144155e-03 5.9698018597285130e-02
      1.6304196061153103e-02 -1.7156807994942300e-01
      6.4373743424407506e-02 -1.2105113727231125e-02
      -3.4387798443154115e-02 7.5020236924322973e-03
      1.5031693521655198e-01 4.8798344816359751e-02
      -3.1612953385754407e-02 1.2022022956686330e-01
      2.8757721220656847e-02 7.0581222166107252e-02
      -2.3491388120552947e-03 -6.7212276843964403e-03
      -8.4308969473244344e-03 -9.0840777582414222e-03
      1.2161502917921228e-01 1.7459647008452861e-03
      -4.3839313875743337e-02 6.4075689933284108e-02
      -1.0742762760195926e-01 -1.1094449850770282e-02
      -4.7229067149633194e-02 5.2170452991076366e-02
      -1.2309815356294175e-02 4.8543437938816873e-02
      1.0055555878210029e-01 -1.9306694060711324e-02
      2.0889283447196667e-02 -9.7733204853968567e-02
      -4.6334086159330830e-02 8.4826671203163853e-02
      2.7576688915962183e-02 -1.8410253518972133e-01
      5.5142662743070614e-02 -3.8827326002609332e-02
      -4.6255143119624413e-02 -4.5974724309070535e-02
      3.4504627460018950e-02 -1.4854916373261348e-01
      4.1491971700688052e-02 -8.9639479794955488e-03
      -3.6308962178769142e-03 -4.7142932430223689e-02
      2.2457443461514071e-02 1.0289876666084605e-01
      -3.8794768937421190e-02 3.5853108179140815e-02
      2.9290208897990943e-03 -1.1021364020036919e-02
      -2.2333058579398320e-02 6.8290036333488258e-03
      -5.7492913572535879e-02 -8.8953362882648337e-02
      1.2259722981036733e-02 3.1408627559982576e-02
      1.5846816636802465e-02 1.2787843809922535e-02
      6.0714576666733765e-02 3.9035430942666600e-02
      7.2132452031092351e-02 4.0323469214303451e-02
      4.2449131155528147e-02 1.6300567027589356e-02
      3.4307540104002790e-02 -4.7987250833602377e-02
      -3.3517629778854366e-03 -5.1091407375516831e-02
      -8.5588150373700739e-02 5.1248971537662301e-02
      -8.5199159298813892e-04 1.3434926632947455e-02
      8.7370044169260749e-03 1.1474602167520675e-02
      -2.0385681697059059e-02 2.0147697432430119e-03
      -2.9873368994902609e-02 1.7384623818465415e-02
      4.9399442512958004e-02 -7.8288327646725664e-02
      -6.4012156609997345e-02 3.1682745107435989e-02
      2.0539699626520084e-02 6.1848057729784946e-02
      -1.4122675461536326e-02 9.9457835643658524e-02
      3.4295735850019991e-03 -2.8984166686694839e-02
      7.0819569138778748e-03 4.5293020352681783e-02
      1.2027249750580862e-02 -5.9908690705572192e-02
      -8.1253367351910286e-02 -6.9145617530431122e-02
      3.0824066523288434e-02 -7.1042525454727452e-04
      -6.1252759345674420e-03 -1.2907536518968386e-02
      -1.2912923910605049e-02 -3.5874001013222259e-02
      -3.9490525085860713e-02 -3.6728296715096337e-02
      3.5745475412534013e-02 -1.9574310203450868e-02
      3.8836776428934287e-02 1.7395736797680538e-03
      -4.3371256284269667e-02 -1.4471222793436891e-02
      -4.2960283147836668e-02 1.7502925757973114e-02
      -9.8272733152921336e-03 6.4093256655596717e-02
      -1.7269901854636890e-02 -4.9964131739119171e-02
      6.6220783710390502e-02 -1.5886884467325640e-01
      -1.8149246123431946e-02 -3.1060725132415378e-02
      2.5345119555580432e-02 2.6940325935405410e-02
      -1.0072615482917987e-02 -7.5105627914529077e-03
      6.6247912379536669e-03 4.6250509277816557e-02
      9.1652320705102076e-03 -2.4459533408565312e-02
      1.4955898928176229e-03 1.0847549700593716e-02
      -3.5784880387466786e-02 -1.2785533565017266e-02
      -2.3667592269945815e-03 -1.1963171702386741e-02
      -5.4678487569974420e-02 3.0932768779510247e-02
      -5.1822649900914097e-03 1.2485029729925037e-02
      7.1003558952571965e-03 -6.1818314341347588e-02
      -6.2094131573056835e-02 5.1973613256315852e-02
      -2.5032048620350765e-02 1.0361317750532121e-02
      -2.7395051167182063e-02 4.6201915702741216e-02
      1.7284855039897871e-02 7.6835987232733612e-03
      1.5428497470027360e-02 8.8400981118364211e-02
      -2.3110270021197286e-02 -6.4273871449686784e-02
      2.4638743659826871e-02 -6.2602461174595253e-03
      -1.3516022843474206e-02 -3.1142088898142298e-02
      -1.6833985066856030e-02 4.7558717144991549e-04
      -2.7168794799496604e-02 -2.2634507023756396e-03
      -3.6460642159517671e-02 -1.9332035426519220e-03
      3.7210396912763760e-02 -1.8127211752743011e-02
      4.7931210279568814e-02 -1.3039062324031109e-01
      -1.2915795682790858e-02 -1.7563678766519455e-02
      1.0210411796654840e-02 2.3112223166815448e-02
      8.9792133681887987e-03 1.3545412113518951e-02
      -1.3620250412568086e-02 -3.1846879905183373e-03
      -1.1998789812941495e-02 6.5773995428012474e-02
      2.5595005743316395e-02 2.6640912922733458e-02
      5.9260247259155144e-02 -1.7845310050257929e-02
      -3.6641651559768743e-02 1.5257233053877151e-02
      3.6327454520833316e-02 -2.8261348787778025e-02
      5.4932344929061953e-02 -2.4843526717808874e-03
      8.4740243497274954e-03 -8.7739215078053105e-03
      4.0527541264786963e-02 -2.2071886407262133e-02
      -1.6276470260949871e-02 1.7567566219955311e-02
      5.9382728515656067e-03 -8.3895902098694991e-03
      2.8216549251490065e-02 -6.0163667077351504e-02
      5.3445110661364828e-02 1.1107935542228237e-02
      -6.5723714874468798e-04 2.3458627823583135e-02
      7.2432611544224659e-02 -2.0335264789875185e-02
      -6.4241199524070924e-02 5.9952863320307033e-02
      1.6704415360846644e-02 -9.8196220157569132e-03
      7.7198698774030789e-03 -1.8658465363318732e-02
      6.2308982505304786e-03 -7.6119215581416808e-02
      1.6581698875014705e-02 7.4513348973794750e-04
      1.1155266192577576e-02 -2.4879121153366227e-02
      5.3274724571775794e-03 9.6961121245436686e-03
      3.7569727996642932e-02 -2.9194034394440002e-02
      1.8771772071574547e-02 -2.9596074784426357e-02
      1.3174799571267513e-02 1.5711826478972131e-03
      3.5915316110078664e-02 -2.0701045764906046e-02
      -5.7184642248870550e-02 -1.3818096301717143e-02
      -8.9110912073688178e-03 1.7629822803331030e-02
      4.7251096482192050e-02 5.5325985734944868e-03
      -1.7784144328521812e-02 1.7436253232479108e-02
      -2.2975215614417746e-02 -3.3904330887981581e-03
      7.4106303170140561e-03 2.0828343026983016e-02
      -6.8981461539054212e-02 1.0930723471227387e-02
      3.0541002314421351e-02 -2.0694814823448981e-02
      7.7358559800329687e-03 -2.1178971196928972e-03
      -2.5557819885557904e-02 -1.3631101460666036e-02
      4.5793349134058726e-03 3.8224736824791911e-02
      6.6666687946257561e-02 1.0277485741846943e-02
      -2.0653575617104993e-02 1.2015801915650897e-02
      1.8739002437549799e-03 7.7741518163391464e-03
      -3.6616060188001148e-02 -1.1655096423207005e-01
      -5.3028270174581865e-02 3.1524841889927060e-02
      -3.2770113570354718e-02 -1.5315917450638400e-02
      3.6077960120594034e-02 -1.4649360785714863e-02
      -7.7437938307977086e-02 -6.1547887070700767e-02
      -1.9526291607638271e-02 2.9614793564043656e-02
      1.7176546491056880e-02 -4.1885010224216986e-02
      -1.7138347584851648e-02 1.9998584970077067e-02
      -4.3383518132902754e-02 -1.8914125002285679e-02
      -4.7071433283636518e-03 1.3753866859439327e-02
      2.7735936428595627e-02 1.6920555384097969e-02
      -6.6072997132064271e-02 -5.2045712479970307e-03
      -1.0157220653509370e-01 -2.4507303382701507e-02
      2.0790821497543455e-03 -9.1940910970011915e-03
      3.8866845658248703e-02 -7.5825103932923403e-04
      -3.4125620301510041e-02 -3.0632091810605628e-02
      -1.6619259204996802e-02 5.9535553588051675e-02
      -1.5111427489579657e-02 -5.5221544583173221e-03
      3.3306893451058431e-02 -2.2953643341615686e-02
      1.7917812704477901e-02 5.1228719748818950e-03
      -3.8633502347357345e-03 9.2005837711217481e-02
      5.1290525842364321e-03 -5.2343673222858156e-02
      1.1645716526992506e-02 5.9283392578537791e-02
      -3.0505955832510569e-02 -1.1031620580040334e-02
      -3.2020833176372439e-03 -4.6584261296606491e-02
      -2.4418833001534301e-02 9.2692569729859050e-04
      6.6392883867715941e-03 2.3911036011990034e-02
      -1.6729507153167289e-02 -1.9156650827376619e-02
      2.4273014342285123e-02 5.0640133122977049e-02
      2.9389797870919322e-02 1.0091092717362872e-02
      -2.5328677626664974e-02 -1.1882393943244154e-02
      2.9757531622431597e-03 -3.9363767529292737e-03
      1.2310512168383225e-02 2.3294395412974322e-03
      -5.0805029764714134e-02 4.8882158262909509e-02
      2.2284882930106407e-03 -5.2501516057220136e-04
      -9.1633685755924225e-03 1.5924466353714875e-02
      -3.0840254369898117e-03 -1.4870995795279101e-02
      -2.0089944204445889e-02 7.3407569031232970e-04
      2.7906659853026632e-02 1.9401636776654317e-02
      5.4169829421294023e-02 -4.6890336835994355e-02
      4.7772288994292651e-02 -2.8239649281228994e-02
      -5.3209423442009289e-02 -2.0289049854468864e-02
      -1.9779172079389260e-02 -5.7469255515821889e-02
      4.9049702983253632e-02 -1.1223753954052250e-02
      3.5725299535406922e-02 4.1478723474295593e-05
      2.9415185583876031e-02 -2.1808481873230513e-02
      1.4753582622435328e-02 -1.7066081149230441e-02
      -3.4294585294114423e-02 6.3177340199968679e-02
      5.4848790799825055e-02 1.3298184168783179e-02
      5.0244629988921696e-01 5.7458385141030868e-02
      2.8000015671880339e-02 9.0619496164333888e-02
      -3.4072777802528952e-02 8.1165959266236626e-02
      -1.7698230479948548e-03 9.4233116466614406e-02
      7.5028459694018571e-02 1.9508950195323674e-02
      -1.6973436448617832e-02 2.1589253293278442e-02
      3.9264446788676070e-02 -1.0654789779035827e-01
      -1.0225754525687761e-01 -8.6590092105113439e-02
      3.8414220850557033e-02 -5.3998953967828556e-02
      -1.0020186668700465e-01 -1.3259676014130359e-03
      -1.2400266158506462e-01 -1.1365241033942171e-01
      -1.0670251894161352e-01 7.6274741974650201e-02
      6.6808278347003274e-03 1.1323882303968677e-01
      1.0831811032744450e-02 -9.0742404810710484e-02
      -1.5198812735310992e-02 2.1469161243081243e-02
      -6.4629476158567178e-02 -1.0528763906620811e-01
      -3.4663950743677560e-03 1.6916985339871442e-02
      -4.5164904907060398e-02 2.4864339306032303e-02
      9.4440793045245275e-02 -5.2683657532556508e-02
      -4.9067584571994331e-02 -6.8279407742895440e-02
      -1.4360608494691290e-01 3.4637251478204206e-02
      -9.6637367363118676e-02 -7.4626006306805048e-02
      -1.9459648769693124e-03 2.3731167516463314e-01
      -7.1088040282382733e-02 -2.1280695610026656e-02
      5.2620074664966585e-02 -5.5362581624618379e-02
      -5.2295881460037537e-03 -7.5538197575008459e-02
      2.5538732274002295e-02 4.5860874083678969e-02
      -9.5510111020331953e-02 -9.7923583957543178e-02
      4.1261008052510637e-02 2.8088362309145652e-02
      -1.2772980749705168e-01 -9.2943044363261146e-02
      -5.0941822820385271e-02 -5.5034480179398472e-02
      1.8416920171073273e-01 -8.5978057499108574e-03
      5.3390347366755221e-02 -5.4438604065166603e-02
      -1.0586947607408038e-01 5.5604740606589924e-02
      1.3314496501676851e-02 6.7979461488607187e-02
      2.2545286108297518e-03 -1.6499585060080903e-02
      4.5937999332742861e-02 -8.9408706368124299e-02
      1.1116782875650127e-01 1.1276186828129625e-06
      8.7954218297365550e-02 -4.7958891313407338e-02
      9.2746833707772244e-02 -1.2415990112782220e-01
      -8.6192653162745728e-02 7.9626672263450292e-03
      -6.7171595593165212e-02 8.8786219012424422e-02
      -1.6357354445993619e-01 -6.2639186591645038e-02
      -4.8727843152375050e-02 3.4503367914290400e-02
      -1.6849777926093202e-02 -5.3556710613069476e-03
      -8.9282356847373512e-02 1.2915763417217749e-01
      -8.8282368310025630e-02 -1.8655228585970116e-01
      4.6156318443799492e-02 1.3886555249037391e-01
      2.3069357881997987e-02 1.2046707495553989e-01
      7.3345477614050010e-03 4.2421930643901658e-02
