<?xml version="1.0"?>
<opencv_storage>
<my_svm type_id="opencv-ml-svm">
  <svm_type>C_SVC</svm_type>
  <kernel><type>LINEAR</type></kernel>
  <C>1.0000000000000000e-02</C>
  <term_criteria><epsilon>1.0000000116860974e-07</epsilon>
    <iterations>2147483647</iterations></term_criteria>
  <var_all>18144</var_all>
  <var_count>18144</var_count>
  <class_count>2</class_count>
  <class_labels type_id="opencv-matrix">
    <rows>1</rows>
    <cols>2</cols>
    <dt>i</dt>
    <data>
      -1 1</data></class_labels>
  <sv_total>1</sv_total>
  <support_vectors>
    <_>
      -1.11957798e-02 -1.28106214e-02 -2.14639353e-03 1.73450785e-03
      2.78971711e-04 1.31174899e-03 2.53690174e-03 -1.80763716e-03
      -6.35699602e-03 -1.47538222e-02 8.88741668e-03 1.51798595e-02
      1.19250100e-02 1.61717478e-02 2.26889015e-03 -3.56531772e-03
      -1.39666172e-02 -2.84544099e-02 -5.87262399e-03 7.44782621e-03
      8.48744763e-04 -1.38539285e-03 9.88153275e-03 7.36132171e-03
      2.52168532e-03 3.33484422e-05 -4.36222646e-03 -1.38594070e-02
      -1.91125888e-02 -1.18729994e-02 4.01713373e-03 3.30279558e-03
      8.33010394e-03 1.37569057e-02 4.10689740e-03 -5.94885147e-04
      -1.58406738e-02 -2.11713407e-02 3.58509249e-03 1.36334551e-02
      1.78804453e-02 8.09466001e-03 5.68823749e-03 -6.30968763e-03
      -1.83046460e-02 -1.74688268e-02 -6.74246252e-03 1.36255566e-03
      -1.42778724e-03 7.75481761e-03 3.74214561e-03 -1.27839390e-03
      -9.85676330e-03 -1.57251768e-02 -4.30011563e-03 -1.22378366e-02
      -5.77261951e-03 3.39230802e-03 -2.78769853e-03 9.59827378e-03
      1.08776996e-02 9.13949031e-03 5.01538347e-03 -3.65940575e-03
      -2.00879276e-02 -8.49844422e-03 3.87949659e-03 1.07696131e-02
      3.54689476e-03 5.86913782e-04 3.43631218e-05 3.02760163e-04
      2.21571434e-04 -6.23008236e-03 -2.09258380e-03 -1.82222249e-03
      3.78082413e-03 -2.97546131e-03 -6.95822202e-03 -1.09180184e-02
      1.57378521e-03 -5.75004378e-03 4.88620624e-03 5.01648383e-03
      3.51495622e-03 7.68174976e-03 2.87800259e-03 -1.52588857e-03
      -5.08326385e-03 -7.86261261e-03 -7.35428231e-03 1.08734546e-02
      -3.08720465e-03 -7.01937592e-03 5.47080534e-03 5.42946812e-03
      2.04803329e-03 2.94784806e-03 -6.96416246e-03 -3.94616043e-03
      1.49531430e-02 5.30756684e-03 2.64892413e-04 4.65367595e-03
      3.74300685e-03 1.75159203e-03 3.01415357e-03 -6.28160080e-03
      -1.55243911e-02 -1.51806176e-02 -7.77349749e-04 8.59237276e-03
      6.47144904e-03 6.86611515e-03 3.08420090e-03 -7.22495606e-03
      -1.58663336e-02 -7.82560650e-03 -2.02838727e-03 1.29128015e-03
      -7.88024627e-03 -6.84201252e-04 -5.44748409e-03 -4.46043722e-03
      -7.87461083e-03 -1.96134895e-02 4.96367575e-04 1.32080680e-02
      1.32312998e-02 -6.70884363e-03 1.64707645e-03 -5.91669232e-03
      -6.56584371e-03 6.73723698e-04 -1.99870337e-02 -4.18271738e-05
      -1.12341102e-02 -9.43612866e-03 3.51776974e-03 1.32841701e-02
      1.73094566e-03 -6.76605152e-04 1.15977845e-03 -3.12016625e-03
      -1.35386072e-04 -7.20511843e-03 -2.00056867e-03 -8.90915934e-03
      7.10486551e-04 -1.23029668e-02 -1.63364131e-02 -1.99371111e-02
      -3.33413761e-03 5.46947308e-03 4.58784867e-03 3.57794901e-03
      -7.69182853e-03 -3.74338590e-04 -1.22218579e-02 -2.07753573e-02
      -1.62710305e-02 -8.88149999e-03 2.49141292e-03 7.44996965e-03
      -2.49546883e-03 -5.14561823e-03 -3.29349143e-03 -7.16249633e-04
      9.66037187e-05 2.71503371e-03 -6.36754150e-04 -3.34843970e-03
      2.46076733e-02 9.84476600e-03 -7.14056951e-04 4.84958338e-03
      6.59244950e-04 1.61269016e-03 8.30225553e-03 -4.57741646e-03
      1.73931534e-03 2.09799688e-02 1.43868588e-02 4.19433787e-03
      5.19887637e-03 1.04795559e-03 8.93314718e-04 1.06053557e-02
      1.05342362e-03 -1.43865691e-02 8.00721813e-03 5.04808268e-03
      -1.09122647e-02 -7.33760744e-03 -2.32162629e-03 -5.37290610e-03
      -3.37079237e-03 -1.93953887e-02 1.58772990e-03 5.91737125e-03
      8.54751747e-03 -1.23413764e-02 -2.74080224e-03 -7.02136243e-03
      -7.82392640e-03 -4.21068538e-03 -1.55639211e-02 -9.96912364e-03
      8.46065767e-03 1.13513153e-02 -2.61268485e-03 8.55888799e-03
      4.12448868e-03 2.85190134e-03 3.12177837e-03 -1.87673159e-02
      4.26342897e-03 6.36676839e-03 3.33241397e-03 -5.74560836e-03
      9.70890414e-06 -6.11252198e-03 -1.13892630e-02 -7.30929850e-03
      -2.28591356e-03 -6.96426118e-03 -7.85296317e-03 -4.20874637e-03
      -1.33987302e-02 1.81796513e-05 -1.83401182e-02 -2.76144985e-02
      -2.58933175e-02 -1.83568187e-02 -1.58729646e-02 -8.39243550e-03
      -2.70884344e-03 -6.81136502e-03 2.38566706e-03 -6.61814306e-03
      -1.12500889e-02 -5.16854692e-03 -1.23901954e-02 4.54325788e-03
      1.61631275e-02 4.98797325e-03 -1.95647706e-03 -8.40767112e-04
      -1.31583039e-03 1.19134656e-03 7.03501841e-03 1.47240062e-03
      -1.70559285e-03 2.82686502e-02 1.71684716e-02 3.37165711e-03
      3.48035758e-03 -3.05186096e-03 2.94682034e-03 1.85662620e-02
      -6.06994261e-04 -7.66258873e-03 1.04525667e-02 1.12410663e-02
      1.04833078e-02 7.93792307e-03 2.47827917e-03 7.60301342e-03
      2.05136277e-02 2.84535158e-03 -5.86264906e-03 1.56446286e-02
      4.91305813e-03 -1.10097900e-02 -6.80933357e-04 -5.83136920e-03
      -3.93003132e-03 2.85855611e-03 -8.41590296e-03 -9.60531458e-03
      -3.31810210e-03 8.04767013e-03 -8.17385595e-03 3.02359648e-03
      6.00280939e-03 2.45484873e-03 6.06631336e-04 -1.45084336e-02
      -3.27923372e-02 -5.27158007e-03 1.13137066e-02 5.67528326e-03
      2.21272418e-03 2.08599167e-03 1.00061577e-02 1.77121144e-02
      -2.28215326e-02 -3.03969107e-04 -3.76115902e-03 -4.44817031e-03
      -6.30064029e-03 1.24791893e-03 -9.58228204e-03 -1.11197680e-02
      -4.25640168e-03 -5.89159969e-03 -2.04176046e-02 -1.54386321e-02
      -1.23863164e-02 -1.27109420e-02 -4.92241932e-03 -1.05305957e-02
      -2.00763792e-02 -1.44869955e-02 -2.24999730e-02 -2.87769977e-02
      -9.17573925e-03 -5.43750869e-03 -4.05651284e-03 4.49175248e-03
      -4.91631357e-03 -2.53786449e-03 -6.61455747e-03 -1.70478802e-02
      4.85676294e-03 1.53279090e-02 9.57120489e-03 4.61652596e-03
      2.38614134e-03 -1.13570516e-03 2.58311559e-03 1.24803111e-02
      3.87300411e-03 -1.66774094e-02 8.86150822e-03 1.29623357e-02
      1.31281111e-02 1.19877495e-02 6.15679752e-03 1.31834699e-02
      3.08974851e-02 -1.39034830e-03 -4.36645700e-03 1.04965910e-03
      2.04595947e-03 6.46636309e-03 6.94420480e-04 7.12948153e-03
      1.40586402e-02 2.17871219e-02 1.47905387e-02 -2.55291518e-02
      2.36642919e-03 5.12833940e-03 -3.63903027e-03 -8.33426137e-04
      2.23932974e-03 4.33901837e-03 9.17843916e-03 -1.10139027e-02
      -3.15084606e-02 -1.49235073e-02 8.76825117e-03 1.03072627e-02
      6.42176671e-03 5.11770369e-03 1.94311421e-02 2.47748606e-02
      -1.62763316e-02 -3.92091013e-02 -2.07071863e-02 -1.78146956e-03
      1.03825023e-02 8.43293499e-03 1.07501177e-02 2.55502630e-02
      3.13715450e-02 -1.30157312e-02 -1.25727812e-02 -6.02275226e-03
      -7.72361876e-03 -3.93860647e-03 1.93963619e-03 -3.11147771e-03
      -8.36761110e-03 -5.52009000e-03 -8.49254709e-03 -4.62238453e-02
      -2.35642586e-02 -1.14725856e-02 -4.99460567e-03 6.50839694e-03
      -2.67617684e-03 -2.82324827e-03 -1.21844867e-02 -2.96499338e-02
      -3.28660049e-02 -1.50101418e-02 -4.65164706e-03 1.34385691e-03
      3.57391383e-03 3.81585746e-03 6.75257575e-03 9.39181482e-04
      -9.09007341e-03 -6.69475645e-03 7.98598863e-04 4.62237978e-03
      6.14556065e-03 6.58005523e-03 5.06497920e-03 7.02173170e-03
      1.36150308e-02 4.58547752e-03 -1.19371796e-02 5.14726504e-04
      -1.34077505e-04 4.98616602e-03 -4.84797265e-03 5.46014216e-03
      2.21491288e-02 3.07462122e-02 8.58321507e-03 1.04081882e-04
      6.60654390e-04 5.84593276e-03 6.97527360e-03 4.01020469e-03
      5.79167157e-03 1.08926985e-02 1.57760866e-02 2.35674027e-02
      -5.27348071e-02 -1.72443409e-02 2.51298794e-03 8.38985108e-03
      2.28895713e-03 1.07769365e-03 1.12118060e-02 2.02164426e-02
      -1.91657897e-02 -2.81226896e-02 -2.21793260e-02 -6.46373583e-03
      3.13419127e-03 3.96612147e-03 1.11330682e-02 2.50662416e-02
      3.42547707e-02 -1.29925190e-02 -2.51536965e-02 3.44790285e-03
      1.32422308e-02 7.88977835e-03 -9.50674003e-04 1.06702438e-02
      1.70037542e-02 2.05092095e-02 -6.98591070e-03 -3.65505777e-02
      -1.56258252e-02 -7.80723430e-03 -1.35409785e-03 7.29799923e-03
      1.46949163e-03 3.13436589e-03 -2.03342712e-03 -1.41947288e-02
      -3.80411372e-02 -2.65364461e-02 -1.39509682e-02 -7.18575995e-03
      -5.55972429e-03 5.61475893e-03 9.79569741e-03 4.14709514e-03
      -1.50579801e-02 -2.32457388e-02 -5.43761300e-03 -1.33897073e-03
      -2.31720693e-03 -5.84138045e-03 9.64528602e-03 1.77029669e-02
      1.29674878e-02 -4.23312047e-03 -6.84238854e-04 -5.73410944e-04
      -1.01344494e-05 1.07032992e-03 -1.13757374e-02 -3.16031015e-04
      1.22185871e-02 1.32509023e-02 1.06965108e-02 -1.64269283e-02
      -7.24475179e-03 6.03168923e-03 1.26581267e-02 6.49399636e-03
      7.49366917e-03 1.11020356e-02 1.75582822e-02 1.49673596e-02
      -7.52645684e-03 -2.59326748e-03 5.99185331e-03 1.14293927e-02
      1.71214417e-02 6.09840034e-03 6.34797942e-03 1.47774294e-02
      7.88630918e-03 -4.00759540e-02 -1.58227403e-02 -7.52928341e-03
      -7.15555390e-03 -1.46447988e-02 2.65872688e-03 1.37369614e-02
      1.48186954e-02 -1.70147903e-02 -2.25050505e-02 -2.18860176e-03
      9.59307700e-03 3.96857690e-03 4.65324993e-04 3.47674242e-04
      4.78053419e-03 1.61374714e-02 -3.59824463e-03 -1.38937496e-02
      -1.30985640e-02 1.17976004e-02 1.41710062e-02 7.30059482e-03
      6.41675433e-03 1.16213402e-02 7.00140744e-03 -9.09567717e-03
      -2.72043273e-02 -1.87457222e-02 -1.32064372e-02 -1.08608902e-02
      -1.45680634e-02 1.96712464e-03 4.36019385e-03 4.45179921e-03
      -8.89374223e-03 -3.43016386e-02 -1.74610224e-02 -5.13796834e-03
      -1.87769048e-02 -1.57736167e-02 6.05977664e-04 1.60463788e-02
      1.04851089e-02 -1.39044700e-02 -1.58912148e-02 -1.32197011e-02
      7.61490874e-03 1.32354244e-03 -6.41193148e-03 4.11537616e-03
      1.24341287e-02 2.95060035e-03 -1.78717244e-02 -9.95559036e-04
      -7.69766467e-03 -5.26704686e-03 1.65540760e-03 -5.96673787e-03
      6.64444268e-03 5.90783497e-03 7.57304020e-03 4.19341447e-03
      -7.77172670e-03 -1.62206665e-02 -3.68195213e-03 1.01114549e-02
      7.49592809e-03 6.60483399e-03 4.72822692e-03 -1.33296207e-03
      -7.53941108e-03 -4.27439995e-03 -7.64872821e-04 5.44039859e-03
      2.22954829e-03 6.16107893e-04 6.14981633e-04 -4.53184498e-03
      -7.94472266e-03 -2.87370407e-03 -2.10252893e-03 -1.03490120e-02
      -1.29484769e-03 3.30943242e-03 -1.91296835e-03 3.45934834e-03
      3.80754145e-03 3.66605469e-03 5.10893390e-03 -3.34546959e-04
      -1.94798894e-02 -1.11039924e-02 -5.74026396e-03 4.89540910e-03
      3.32174683e-03 -5.46882581e-03 -4.14800178e-03 4.82161902e-03
      8.25718231e-03 -8.74704868e-03 -7.88403768e-03 -1.03678051e-02
      -1.60439580e-03 -9.01852455e-03 -1.18923970e-02 -1.03009306e-02
      8.77032988e-03 -9.26798093e-04 -1.16037007e-03 5.61553519e-03
      4.49915323e-03 -5.57318982e-03 -2.12154048e-03 -3.95168504e-03
      -5.66695305e-03 -4.37326700e-04 -2.42573358e-02 -1.98909435e-02
      -1.43310213e-02 -4.82625188e-03 1.94318371e-03 -3.28050484e-03
      -7.57157477e-03 -6.51268335e-03 -1.32021112e-02 -8.72388366e-04
      1.84627087e-03 2.79497076e-03 -1.45194004e-03 3.88839189e-03
      -1.01481378e-02 -1.56864449e-02 -8.13805405e-03 -1.09078130e-02
      -4.00791876e-03 -7.32570328e-03 -3.06367734e-03 6.36682659e-03
      6.79182308e-03 1.51174725e-03 3.40167055e-04 -2.87628756e-03
      -3.73077393e-03 -4.02714033e-03 5.34173427e-03 6.89740898e-03
      -3.58399982e-03 -3.87184940e-07 -2.74232286e-03 -1.26139708e-02
      -1.32049173e-02 -3.68795055e-03 1.03544246e-03 1.07191056e-02
      7.24973297e-03 -4.03334992e-03 3.94023163e-03 -2.80151912e-03
      -5.56229753e-03 -2.60096393e-03 -4.92232665e-03 2.35006795e-03
      -1.52512584e-02 -1.52825722e-02 1.95544981e-03 1.31138917e-02
      3.80706013e-04 -4.97043319e-03 -1.67287933e-03 3.51895462e-03
      4.50663082e-03 -5.17694093e-03 -7.69050140e-03 -2.02973876e-02
      -5.41841425e-03 -1.63161494e-02 -2.28114780e-02 -2.29634363e-02
      -8.49626435e-04 1.02617461e-02 1.12494768e-03 1.68637242e-04
      -1.09829362e-02 -1.60649628e-03 -2.35996339e-02 -3.35105099e-02
      -2.39757113e-02 -7.73305353e-03 -1.36659192e-02 -9.65253450e-03
      -1.77101349e-03 7.66062469e-04 7.29197450e-03 1.54216541e-03
      -3.23325116e-03 -3.92637774e-03 -9.11413599e-03 2.95918738e-03
      2.11129477e-03 -1.44705584e-03 -5.49524603e-03 2.82804272e-03
      -1.78135540e-02 -2.21854392e-02 -1.10114682e-02 -9.52650513e-03
      -6.65882183e-03 -2.68388144e-03 1.97752449e-03 1.86306972e-03
      -1.39553973e-03 -9.09311604e-03 -1.21190166e-02 -1.03816064e-03
      -7.72603508e-03 -1.34044653e-03 8.36155191e-03 7.08582345e-03
      -3.91089544e-03 -2.73454725e-03 -2.36769510e-03 -6.75537065e-03
      -6.77954406e-03 -2.31578387e-03 2.07234290e-03 1.23402486e-02
      7.58277765e-03 -7.17470795e-03 3.58413951e-03 -6.08409103e-03
      -9.14773624e-03 -6.13049045e-03 -8.67921300e-03 -9.68093611e-03
      6.43785857e-03 5.10133756e-03 -1.54729374e-03 8.07690714e-03
      3.29853850e-03 -2.55784398e-04 1.97739387e-03 -1.62809831e-03
      1.65041462e-02 6.91539841e-03 -5.17485023e-05 -7.39550358e-03
      1.95558905e-03 -1.07141370e-02 -1.61244422e-02 -1.03904437e-02
      8.10526311e-04 -1.28086354e-03 -1.15607213e-02 -8.44319444e-03
      -1.89916864e-02 -4.85231215e-03 -2.72113793e-02 -3.50944474e-02
      -2.53631063e-02 -1.01322206e-02 -1.17440941e-02 -7.36364862e-03
      -6.30591484e-03 -8.12826212e-03 2.57836794e-03 -1.00505389e-02
      -1.53813874e-02 -1.09153921e-02 -1.38957202e-02 4.96507203e-03
      3.29678948e-03 1.09095138e-03 -4.14582260e-04 3.41626653e-03
      -5.34240948e-03 -8.86813737e-03 -7.58081267e-04 -1.91006856e-03
      -8.36595427e-03 -6.61207829e-03 -2.65672989e-03 -4.98287193e-03
      -5.33623621e-03 -1.60616226e-02 -1.98979881e-02 -1.39466731e-03
      -8.56922846e-03 -2.48413440e-02 -5.50951227e-04 -3.69019632e-04
      3.54556163e-04 4.17723320e-03 -1.22916251e-02 -1.20303873e-02
      -2.35000299e-03 -1.68106873e-02 3.64312029e-04 1.16315549e-02
      5.37345046e-03 -2.40875618e-03 1.12973596e-03 -1.88942254e-03
      -1.94506219e-03 1.70218421e-03 -7.87392142e-04 -1.02744512e-02
      2.20941124e-03 6.11222535e-03 -5.60229644e-03 5.61397104e-03
      1.74418010e-03 -2.28924653e-03 5.41646406e-03 -3.70889250e-03
      -2.64579281e-02 -2.26755114e-03 5.17136184e-03 5.14503848e-03
      1.16790738e-03 1.01862627e-03 5.02813375e-03 1.31877903e-02
      -3.69369355e-03 5.80839580e-03 -2.80129677e-03 -4.32965579e-03
      -7.91325327e-03 1.69996361e-04 -1.35769723e-02 -1.68176740e-02
      -5.32822916e-03 -1.64923992e-03 -5.52201178e-03 -1.06362617e-02
      -1.22630643e-02 -1.26319639e-02 -1.77304470e-03 -7.82785099e-03
      -1.97190940e-02 -1.31022530e-02 -1.06867170e-02 -2.17271354e-02
      -1.02361813e-02 -8.69394280e-03 -5.12308348e-03 8.17514583e-03
      -2.97392812e-03 -7.87908619e-04 -6.53949520e-03 -1.16802249e-02
      -8.15130118e-03 2.80121388e-03 1.87309590e-04 3.25166999e-04
      2.00692657e-03 -8.10837746e-03 -1.13701224e-02 4.86246357e-03
      1.77096762e-03 -1.92401074e-02 -1.42344984e-03 -3.04403366e-03
      -8.46832641e-04 -2.13154918e-03 -2.08020061e-02 -1.74492542e-02
      -5.41362865e-03 -1.74617395e-02 -1.76504552e-02 -2.52910424e-03
      3.23476410e-03 8.52165336e-04 2.89404625e-03 -4.56383871e-03
      -3.91884008e-03 -4.41475771e-03 -8.58870894e-03 -9.63961892e-03
      4.56057023e-03 4.74008592e-03 2.97927792e-04 2.20211688e-03
      1.88450620e-03 -9.83680438e-05 3.53569677e-03 -1.30053319e-03
      -3.60651202e-02 -1.01176556e-02 5.85950585e-03 7.81206647e-03
      4.09895973e-03 -3.03983707e-05 1.07941646e-02 1.97052453e-02
      -7.87753891e-03 -2.67263744e-02 -9.59920231e-03 3.17160389e-04
      3.46850976e-03 1.49346236e-03 7.83200935e-03 1.66539382e-02
      1.60488933e-02 -1.66085025e-04 -6.51159184e-03 -3.20525444e-03
      -7.30818044e-03 -3.65408277e-03 3.35205114e-03 -6.14484120e-03
      -1.17935501e-02 -6.95646647e-03 -5.66523755e-03 -2.62819920e-02
      -1.53002376e-02 -1.71840917e-02 -8.00965726e-03 1.27314422e-02
      1.73513195e-03 2.88916461e-04 -7.59271067e-03 -1.77163724e-02
      -1.50515512e-02 -1.26686161e-02 -7.92830344e-03 -8.60186177e-04
      8.08254257e-03 6.60229335e-03 9.98135656e-03 3.87008139e-03
      -1.42158510e-03 -1.26156406e-02 5.18305635e-04 1.00360683e-03
      3.37629439e-03 2.04896089e-03 -1.02039054e-02 -6.56076102e-03
      1.04766141e-03 -2.39597517e-03 -1.57952681e-02 -3.34699196e-03
      -2.78199953e-03 -3.74556822e-03 1.14786765e-03 -5.81964443e-04
      -6.01696735e-03 -1.05560049e-02 -1.93630327e-02 -1.48657225e-02
      -2.73390161e-03 3.37021938e-03 -3.43207992e-03 2.21991166e-03
      4.70947940e-03 -7.18194293e-04 4.18421999e-03 -1.08870277e-02
      -3.19994017e-02 -1.06250839e-02 -3.92772708e-05 4.20449534e-03
      3.38128954e-03 8.97585705e-04 5.43364976e-03 9.08047240e-03
      -5.90016320e-03 -3.10534369e-02 -1.56568866e-02 -3.26682511e-03
      -4.27529594e-04 -6.62003469e-04 1.12114707e-02 1.80898514e-02
      1.72197986e-02 -6.02855114e-03 -1.49837257e-02 2.50452757e-03
      8.60248413e-03 2.87567428e-03 -2.71470682e-03 8.86710174e-03
      1.32153640e-02 1.58972908e-02 2.33018701e-03 -3.19420360e-02
      -1.16797565e-02 -1.14827128e-02 -2.71813804e-03 8.49416107e-03
      2.65475060e-03 4.41630231e-03 -3.61108989e-03 -1.31761767e-02
      -1.92661751e-02 -1.75659992e-02 -1.83440149e-02 -1.44982161e-02
      -5.47379442e-03 4.43261443e-03 1.32393083e-02 7.73329334e-03
      -1.98185653e-03 -1.39299240e-02 -9.33536887e-03 -5.76019753e-03
      -5.16713923e-03 -7.08319992e-03 1.14812907e-02 2.65633781e-02
      2.37081964e-02 7.09082512e-03 -2.25618370e-02 -3.04717594e-03
      -2.87213712e-03 -2.08414928e-03 3.34414141e-03 3.09275207e-03
      -1.21585152e-03 -1.10348128e-03 -9.99225024e-03 -2.22964305e-02
      -1.46855013e-02 -4.13088780e-03 -8.26113578e-03 -6.23660628e-03
      2.59367691e-04 -3.33262404e-04 8.27717502e-03 -1.22318733e-02
      -1.64155886e-02 -8.99343006e-03 -5.64888585e-03 3.79226170e-03
      7.16361962e-03 1.05271004e-02 1.34815918e-02 1.40177691e-02
      -3.09160142e-03 -1.99822728e-02 -4.76411870e-03 -7.02996098e-04
      -3.69927147e-03 -1.14690689e-02 4.92481841e-03 8.28268193e-03
      6.16626441e-03 -3.60705401e-03 -1.64997410e-02 -4.02752589e-03
      1.39498366e-02 4.34886338e-03 -8.73687305e-03 2.29152688e-03
      8.58242251e-03 1.69105604e-02 -5.63801033e-03 -2.64460454e-03
      -7.59617658e-03 1.21157542e-02 1.18472008e-02 1.76049210e-03
      5.08390274e-03 4.97899624e-03 5.60675561e-03 2.54637050e-03
      -2.45544408e-02 -1.97741371e-02 -1.59498882e-02 -1.23446286e-02
      -1.49517776e-02 2.16541754e-04 6.51808549e-03 6.08617347e-03
      -1.92678635e-04 -2.86217462e-02 -1.50886010e-02 -1.01240957e-02
      -1.99931134e-02 -1.01060839e-02 1.69227959e-03 3.01970430e-02
      2.39455439e-02 -1.08986842e-02 -1.54071674e-02 -1.29456706e-02
      1.02207847e-02 9.14184784e-05 -5.54476492e-03 6.08754205e-03
      2.07859594e-02 1.40700573e-02 -6.00354280e-03 -1.76472217e-02
      -1.81710552e-02 -5.64798107e-03 -3.59673193e-03 -5.66988904e-03
      7.79691967e-04 4.27284790e-03 8.04707129e-03 -7.90426694e-03
      -2.89081875e-02 -1.77969616e-02 -1.19910957e-02 -4.64873883e-04
      -6.84634608e-04 1.55138643e-02 2.16368530e-02 1.54182250e-02
      -8.46471265e-03 -2.39737220e-02 -1.03515177e-03 1.18837934e-02
      2.25758413e-03 1.74854987e-03 1.04068387e-02 1.35951564e-02
      3.53502505e-03 -8.35289899e-03 7.81969400e-04 -5.20343252e-04
      5.45768300e-03 9.44505539e-03 -4.79336176e-03 1.08206214e-03
      1.00149098e-03 -4.76490968e-04 2.83118547e-03 6.34649710e-04
      -1.21098720e-02 -1.09280925e-02 1.80172420e-03 3.78025835e-03
      3.98623617e-03 -2.76176422e-03 1.91744440e-03 3.31839197e-03
      1.15478244e-02 1.16207881e-03 -6.10422855e-03 -3.25999642e-03
      -2.65056035e-03 -4.96156467e-03 -4.78959084e-03 -1.38970965e-03
      4.05991450e-03 -1.32241868e-04 3.03889945e-04 7.66633172e-03
      -8.58020561e-04 -3.63252894e-03 1.86080521e-03 -2.39850045e-03
      -6.09085755e-03 2.18749023e-03 -1.38117978e-02 -1.22418357e-02
      -1.49098113e-02 -6.44346885e-03 -1.84907857e-03 7.77094858e-04
      -6.00283453e-03 -1.18131489e-02 -1.17688198e-02 4.51648142e-03
      4.10578307e-03 -2.23309686e-03 -1.68807001e-03 4.29670792e-03
      -1.60803236e-02 -2.55594496e-02 -1.32528469e-02 -1.13219963e-02
      4.71434509e-03 6.88471505e-03 6.90774433e-03 -5.22909861e-04
      -4.18044394e-03 6.76095951e-04 1.98697043e-03 -4.87982342e-03
      1.28964242e-03 2.05416302e-03 8.84071179e-03 1.86721946e-03
      -3.26585956e-04 -1.01542529e-02 3.90003738e-03 -3.90593102e-03
      -8.11154116e-03 2.39740475e-03 -1.48513345e-02 1.76007545e-03
      -5.07078785e-03 2.16064247e-04 3.56172142e-03 -1.98056642e-03
      -7.54128769e-03 2.75477744e-03 -1.05773155e-02 4.53346083e-03
      -1.24088011e-03 -2.70189019e-03 2.61720247e-03 5.92712080e-03
      1.88909029e-03 2.43464674e-04 2.56768032e-03 6.63060881e-03
      1.72626916e-02 5.09994151e-03 -5.85325807e-03 -5.90549828e-03
      -3.73594230e-03 -9.57091153e-03 -1.07996855e-02 -3.74905416e-03
      6.37532910e-03 1.39978975e-02 9.42749204e-04 2.72370107e-03
      -2.03006552e-03 -4.06526902e-04 -8.10047705e-03 -1.06389970e-02
      -4.31638164e-03 1.47213507e-03 -7.17712380e-03 -4.80382610e-03
      -3.13133025e-03 1.18527052e-04 8.84947274e-03 -3.11633223e-04
      -5.28531056e-03 -3.66166956e-03 -5.74623095e-03 4.69742296e-03
      6.32705586e-03 -4.55055945e-03 -8.51810724e-03 3.59165220e-04
      -2.31522359e-02 -2.89862007e-02 -1.31222680e-02 -4.80752625e-03
      6.41098188e-04 1.92451722e-03 -2.73619400e-04 -3.87314474e-03
      -7.93191884e-03 -1.35015352e-02 -2.12432593e-02 -5.23324125e-03
      -1.81037793e-03 -5.87287825e-03 2.63486174e-03 -2.40761996e-03
      -7.43340584e-04 1.88301748e-03 -5.52513557e-05 -2.43566162e-03
      2.71071540e-03 -4.08719201e-03 -7.06478721e-03 -7.98164838e-05
      -7.97736924e-03 -1.06176632e-02 -1.43689060e-04 -7.10902782e-03
      -1.18316384e-02 -4.21055680e-04 -1.15378359e-02 -1.57776009e-02
      3.32955574e-03 3.51488299e-04 -2.54755141e-03 3.93391540e-03
      -5.92925865e-03 -1.68402381e-02 -8.75793211e-03 -2.04631072e-02
      2.05345098e-02 9.83074307e-03 5.38659142e-03 1.02597009e-03
      9.27827728e-04 -2.62121926e-03 -3.89941479e-03 8.33500933e-04
      8.12635385e-03 9.82186384e-03 1.41881150e-03 -4.89501865e-04
      -4.49305400e-03 4.27796913e-04 -1.25390664e-02 -1.64686069e-02
      -4.51187603e-03 2.82459834e-04 -3.16099939e-03 1.43567973e-03
      -4.07537399e-03 -2.92302016e-03 8.25152732e-03 -6.11133990e-04
      -1.86550757e-03 -1.48345879e-03 -2.13428331e-03 1.11210672e-02
      1.46667678e-02 3.00758705e-03 -2.80590239e-03 1.59048324e-03
      -1.09330639e-02 -1.73364077e-02 -3.34028155e-03 -5.45134675e-03
      1.21840497e-03 2.98077660e-03 -4.45926737e-04 -2.56120786e-03
      -8.97069182e-03 -1.83688849e-02 -2.39881165e-02 -7.49445707e-03
      -2.54486641e-03 -2.44109929e-02 5.49533544e-03 -2.41692504e-03
      -3.55764758e-04 -8.73492798e-04 -1.88274439e-02 -1.71717778e-02
      -4.95866349e-04 -1.71320885e-02 -9.93602443e-03 4.93112300e-03
      -3.66088143e-03 -5.76444529e-03 1.47794315e-03 -3.28359846e-03
      -6.66138530e-03 -1.14434492e-03 -1.27223236e-02 -1.78771336e-02
      8.86362570e-04 -2.98314029e-03 -4.48331516e-03 1.13539747e-03
      -8.79539736e-03 -2.16942541e-02 -7.58122979e-03 -1.14390999e-02
      -2.25999076e-02 2.39321892e-03 -1.55832001e-03 -2.10594642e-03
      4.40426776e-03 -6.67282753e-03 -1.13015221e-02 7.63262564e-04
      -2.42655147e-02 1.11381039e-02 2.11782893e-03 7.19245072e-05
      -2.44216272e-03 1.22866174e-03 -3.71420966e-03 -4.56631510e-03
      2.14911345e-03 6.18029293e-03 -7.30780931e-03 -2.05349480e-03
      -6.95605204e-03 -3.79466871e-03 5.20481961e-03 -3.90978530e-03
      -7.55450223e-03 -2.66660331e-03 -1.83506857e-03 -5.94730349e-03
      8.63922061e-04 2.49126490e-04 7.15820410e-04 7.71243498e-03
      2.03866791e-03 5.88957034e-03 1.32933317e-03 5.18849259e-03
      -1.05884550e-02 6.08758163e-03 -3.26565816e-03 1.18993735e-03
      -1.04193075e-03 -1.16743417e-02 -1.68943182e-02 5.17693534e-03
      -3.68405716e-03 -7.63739692e-03 6.00874249e-04 -2.52077193e-03
      -8.62659654e-04 -5.29030804e-03 -2.22745575e-02 -1.56579185e-02
      -1.67369994e-03 -9.29129962e-03 -9.55795776e-03 -1.48293376e-03
      -2.36027758e-03 -3.38831596e-04 7.69684091e-04 -8.88130348e-03
      -4.98580001e-03 2.69449985e-04 -7.49103399e-03 -8.83229356e-03
      2.29009218e-03 3.26572568e-04 -6.32075826e-04 6.72540674e-03
      -2.70633260e-03 -1.05896285e-02 1.06714258e-03 -1.38394553e-02
      -1.83187909e-02 -5.82593679e-03 -4.39136475e-03 -4.61660977e-03
      1.68023515e-03 -7.46849272e-03 -1.37190288e-02 1.71306811e-03
      -2.20592245e-02 -1.17814587e-02 2.67053628e-03 -7.45765632e-03
      -1.69917196e-03 5.44086972e-04 -2.17283424e-03 -6.33017439e-03
      -8.43464688e-04 -2.24295147e-02 1.27742672e-03 -3.67039640e-04
      -1.92056526e-03 1.73400666e-04 2.56963680e-03 -4.16968344e-03
      -3.69610428e-03 -1.57633447e-03 5.14140679e-03 -1.63296871e-02
      -4.10691835e-03 -4.71780542e-03 -1.80042966e-03 6.93887100e-03
      1.37530791e-03 6.05164841e-03 -7.99442991e-04 -4.15643677e-03
      -4.39114869e-03 -2.58561806e-03 -1.03189761e-03 -9.62910010e-04
      3.78183252e-03 4.22924198e-03 8.26529786e-03 7.60607840e-03
      1.19810086e-02 -1.29892295e-02 -7.73656066e-04 -1.91199267e-03
      5.10183396e-04 -1.55293022e-03 -1.92186926e-02 -9.57343075e-03
      4.79706738e-04 -5.88411512e-03 -7.90085923e-03 -1.00813564e-02
      -7.20022852e-03 -3.98835773e-03 -4.63189697e-03 -6.26745820e-03
      -5.97558590e-03 -1.29669555e-03 -1.10666351e-02 -1.74244978e-02
      -7.41469394e-03 1.73636305e-03 -1.43968430e-03 2.56402791e-03
      9.41595342e-03 3.26723908e-03 1.38266711e-02 -9.94145591e-03
      -1.73914600e-02 8.63285852e-04 -4.48021200e-03 -5.35847736e-04
      3.46146151e-03 -1.58443092e-03 -3.87181225e-03 -4.04156337e-04
      -1.43543314e-02 -1.61547791e-02 -4.61693341e-03 -1.22044887e-02
      -2.45275861e-03 1.23913749e-03 -1.05871574e-03 -9.38523468e-03
      2.24900810e-04 -2.49982793e-02 -2.73815263e-02 -1.12934140e-02
      -5.73551562e-03 1.92050054e-03 7.39062065e-03 3.98811791e-03
      3.73758539e-03 2.16699345e-03 -2.23601013e-02 -1.00735547e-02
      -8.27973825e-04 -8.87565198e-04 -1.09978602e-03 3.82372178e-03
      3.39138569e-05 1.56796363e-03 -4.94489388e-04 3.51969292e-03
      -1.47643751e-02 -1.31728668e-02 -6.38423022e-03 -5.27669070e-03
      -2.89495895e-03 1.90619705e-03 6.49021752e-03 6.42667338e-03
      4.74202633e-03 -6.98221382e-03 -7.67988525e-03 -1.43070938e-03
      -1.47274451e-03 1.71165171e-04 7.18048308e-03 1.40443407e-02
      1.65117849e-02 1.55920601e-02 -2.62885094e-02 -1.05119515e-02
      -4.78190649e-03 -4.02342342e-03 3.49038723e-03 2.47793528e-03
      -4.56866203e-03 2.23778235e-03 -1.45108793e-02 -1.46831730e-02
      -1.02250567e-02 -6.18102122e-03 -5.80035197e-03 -5.83245326e-03
      2.55580666e-03 6.35310193e-04 1.53715229e-02 -1.47982594e-02
      -1.18741859e-02 -2.33016443e-03 -1.02700619e-03 6.82467688e-03
      1.06025776e-02 9.03618429e-03 1.20824585e-02 1.42440833e-02
      -1.12663663e-03 -2.46175118e-02 -9.54051409e-03 -7.23285275e-03
      -1.65155239e-03 4.14934009e-03 2.17615580e-03 -1.64103333e-03
      2.34405068e-03 -2.51008272e-02 -3.16039100e-02 -1.92236807e-02
      -7.90889282e-03 1.22879294e-03 4.70673526e-03 2.42990069e-03
      4.59538167e-03 -2.53092428e-03 -2.67953426e-02 -1.46197258e-02
      1.58901177e-02 6.85459189e-03 5.78469783e-03 7.04010203e-03
      1.97175005e-03 3.24832369e-03 -5.01467520e-03 -2.11291946e-02
      -7.82711338e-03 -9.71744303e-03 -2.20571482e-03 -2.03206553e-03
      -6.51471131e-03 5.29707235e-04 3.05537786e-03 3.76688153e-03
      6.24215277e-03 -2.06925869e-02 -1.10693034e-02 -3.79770319e-03
      -7.59569695e-03 -8.09109025e-03 1.01279458e-02 1.93835739e-02
      1.93721335e-02 3.40743526e-03 -1.06792208e-02 -8.88407882e-03
      7.02612475e-03 -1.52812526e-03 -5.70416544e-03 8.57828837e-03
      1.57695357e-02 1.20965922e-02 1.44932850e-03 -2.41336618e-02
      -1.30338222e-02 -1.74850016e-03 -2.57365336e-03 -8.43300484e-03
      -7.71537714e-04 2.52554007e-03 7.68117234e-03 -2.04771105e-02
      -1.99503768e-02 5.94723853e-04 5.53116621e-03 -3.56072513e-03
      6.82858983e-03 9.82459448e-03 1.81500800e-02 1.14362575e-02
      -1.88689083e-02 -2.11792272e-02 6.26098178e-03 1.62727106e-02
      6.67296071e-03 6.76194020e-03 1.41669288e-02 1.74201485e-02
      9.22781881e-03 -8.72512627e-03 -2.82815415e-02 -5.99149987e-03
      -5.63987158e-03 -1.08748721e-03 1.37870875e-03 -2.43574730e-03
      2.25189445e-03 -4.03937651e-03 -2.78829467e-02 -2.04390790e-02
      1.69916749e-02 8.20876937e-03 3.90593824e-03 -3.47894104e-03
      -2.38489266e-03 2.92743067e-03 -9.72225331e-03 -2.65395697e-02
      -2.47986130e-02 3.02069797e-03 3.78744048e-03 1.10207396e-02
      2.58703111e-03 5.15873218e-03 7.24067586e-03 -3.59649165e-03
      -2.21511796e-02 8.57894961e-03 5.85280918e-03 9.58381686e-03
      1.29615737e-03 -5.83041413e-03 1.21726748e-03 2.07853247e-03
      -1.27330585e-03 9.59981885e-03 -3.59799038e-03 2.88476492e-03
      -1.39167730e-03 -3.20429401e-03 -1.83452305e-03 3.34804156e-03
      -1.82891055e-03 -5.88281360e-03 -4.77777887e-03 1.72955065e-03
      5.47788618e-03 -1.82649004e-03 -5.96869504e-04 3.20707820e-03
      -7.98690133e-03 -1.21816052e-02 -6.83165574e-03 -4.45225369e-03
      8.05417076e-03 1.11399516e-02 1.09653436e-02 -1.33084459e-03
      -3.38649563e-03 -2.08357535e-03 3.19834007e-03 -3.51901376e-03
      2.34339386e-03 5.02504734e-03 1.25609525e-02 7.84703065e-04
      -1.88518339e-03 -5.65077132e-03 -1.33889914e-03 5.07386774e-03
      -4.07344475e-03 1.05563039e-02 -1.84358228e-02 -7.56423548e-03
      -1.37665337e-02 -6.96143461e-03 4.82195290e-03 6.46141358e-04
      -2.68255710e-03 4.79364116e-03 -1.04438923e-02 3.31831467e-03
      8.05063080e-03 3.50890285e-03 1.64283020e-03 -8.42006318e-03
      -8.80314223e-03 6.66408846e-03 5.31850988e-03 -2.07630816e-04
      -5.87545102e-03 -4.18971758e-03 -2.69658444e-03 -3.10598902e-04
      -5.27499011e-03 -1.12055279e-02 -1.22504390e-03 4.09767497e-03
      -6.84295362e-03 -2.87745837e-02 -8.56806897e-03 -1.37967907e-03
      -1.09820394e-03 1.59086892e-03 1.51746999e-03 -3.30608920e-03
      3.91174201e-03 -1.22858882e-02 7.46694254e-03 6.07401552e-03
      4.32756776e-03 2.87608732e-03 6.05654577e-03 1.91673054e-03
      -1.92129181e-03 -2.72598350e-04 1.21369294e-03 1.23970406e-02
      1.73766520e-02 3.20295710e-03 -2.21848581e-03 -7.82818359e-04
      -1.24387993e-02 -1.84964202e-02 -4.77391621e-03 8.78523802e-04
      5.23828855e-03 5.56915440e-03 2.73666740e-03 2.14470288e-04
      1.16204319e-03 -5.49184065e-03 -1.17549337e-02 -7.55030080e-04
      1.17050440e-04 -3.75847076e-03 6.57825498e-03 -9.00266692e-04
      1.59190770e-03 3.02643096e-03 2.28495291e-03 7.37522147e-04
      6.92095421e-03 5.33857523e-03 -6.21415069e-03 4.91407188e-03
      -8.00343323e-03 -4.48802905e-03 7.58596743e-03 3.58131691e-03
      1.28496299e-03 1.28966421e-02 -7.12396391e-03 -2.35028174e-02
      2.01861723e-03 -2.47367308e-03 -5.53428056e-03 7.85677508e-03
      -2.35711830e-03 -1.48939677e-02 -6.17214153e-03 -1.20519623e-02
      -6.66889315e-03 3.03756492e-03 2.10266397e-03 4.53404058e-03
      2.50184000e-03 -3.13581713e-03 7.40876480e-04 3.68695846e-03
      -6.74059382e-04 -2.61026230e-02 1.28786522e-03 2.07430869e-03
      6.46314700e-04 4.46019787e-03 1.64445897e-03 -1.29451184e-03
      5.97762223e-03 -1.19914198e-02 -1.88339632e-02 8.97372887e-03
      2.68817088e-03 1.96744176e-03 4.24016546e-03 -3.85281607e-03
      -3.36377649e-03 3.19492025e-03 -1.50861759e-02 1.24767274e-02
      1.04170507e-02 2.54444056e-03 -7.86793476e-04 -1.39869284e-03
      -5.03476383e-03 -6.84044976e-03 -6.46793982e-04 3.53699946e-03
      -4.70155683e-05 8.95162486e-03 6.29061076e-04 3.64772626e-04
      -6.72937720e-04 -9.36161634e-03 -1.81493256e-02 1.57980679e-03
      -3.70731484e-03 -1.25248423e-02 6.05723122e-03 -1.54312758e-03
      3.00474279e-03 5.09156147e-03 -8.91579408e-03 -9.55504458e-03
      4.30271123e-03 -7.08609959e-03 -1.54012321e-02 5.15970821e-03
      -5.12914825e-03 -6.48091407e-03 6.90735225e-03 5.75250131e-04
      -4.67656273e-03 3.79322469e-03 -1.56098492e-02 -1.46999480e-02
      -2.38357752e-04 -6.55684248e-03 -5.15785906e-03 8.18822626e-03
      -3.12696421e-03 -1.37681952e-02 -7.07456784e-04 -7.43529934e-04
      -1.91029105e-02 7.38660456e-04 -1.33590808e-03 -3.42388824e-03
      8.09201319e-03 -2.47987523e-03 -1.10817486e-02 1.38044974e-03
      -1.69721432e-02 -1.76864862e-02 4.34551248e-03 2.43265880e-03
      -2.95575039e-04 3.90678737e-03 9.36880824e-04 -1.18221843e-03
      7.01178890e-03 -7.44640734e-03 -1.09644746e-02 1.36193838e-02
      4.30693151e-03 -1.13931776e-03 4.22838284e-03 -5.43077057e-03
      -5.35451667e-03 2.30644806e-03 -1.32666174e-02 -1.11320922e-02
      1.08762132e-02 3.90924420e-03 3.90134286e-03 7.83734675e-03
      9.11996525e-04 5.53386286e-04 5.75183053e-03 -1.40153179e-02
      1.73803780e-03 7.30689522e-03 1.15126371e-03 2.27167713e-03
      3.27536208e-03 -4.23183898e-03 -7.31397187e-03 5.05981129e-03
      3.38270748e-03 -1.02188010e-02 3.55875678e-03 -7.73643143e-04
      1.86828140e-03 2.05834606e-03 -1.50742577e-02 -1.03634745e-02
      1.02136610e-02 -1.09517071e-02 -2.36636633e-03 2.82140449e-03
      -1.79947738e-03 1.62874581e-03 3.59971286e-03 -1.52247783e-03
      -8.69104057e-04 3.59577616e-03 -9.88052227e-04 -1.49940588e-02
      4.15636133e-03 -1.28701993e-03 -1.26233778e-03 7.50370929e-03
      9.06763598e-04 -1.12030124e-02 3.52066057e-03 -1.09263072e-02
      -7.81318638e-03 -5.32800239e-03 -1.25335611e-03 -6.26484910e-03
      4.91911266e-03 -8.73547920e-04 -2.63724499e-03 7.28903664e-03
      -1.38883451e-02 -1.73254143e-02 3.58079583e-03 -7.53434049e-03
      9.57131619e-04 2.88450299e-03 -7.89208279e-05 -5.68666961e-03
      -3.74324823e-04 -2.47972514e-02 -4.27008513e-03 1.08052436e-02
      9.59713536e-04 -3.73530609e-04 4.17800387e-03 3.09048803e-04
      -1.47736049e-03 6.90786680e-03 -4.19151690e-03 -1.66458525e-02
      -1.79168314e-03 -1.59956829e-03 5.11580519e-03 4.09467053e-03
      4.25449398e-04 3.19118425e-03 1.01364627e-02 -8.41581263e-03
      -2.38496717e-02 6.32517331e-04 -1.74422737e-03 5.10120159e-03
      3.51378904e-03 8.11784179e-04 5.29779028e-03 5.57317492e-03
      -2.70950459e-02 -2.93803401e-03 4.72005317e-03 7.30493804e-04
      1.92547916e-03 2.88973423e-03 -5.59446495e-03 -2.34836573e-03
      3.81007046e-03 1.58117118e-03 -7.83186313e-03 -1.26054569e-03
      -2.54838960e-03 3.63486237e-03 8.74641258e-03 3.03703453e-03
      -2.81023618e-04 1.12298410e-02 -5.12149232e-03 -4.31213714e-03
      -2.04344722e-03 3.96814151e-03 3.86658730e-03 8.84341449e-03
      9.94825177e-03 7.92409014e-03 1.42590227e-02 3.07534123e-03
      -1.55699747e-02 6.56817516e-04 -3.30651272e-03 1.61033240e-04
      4.08132933e-03 3.01914901e-04 1.49593461e-06 4.37345775e-03
      -1.12626497e-02 -1.86426379e-02 1.97695894e-03 -7.34422263e-03
      6.30247407e-03 9.52624623e-03 2.15005875e-03 -2.72394973e-03
      2.72925547e-03 -2.17372365e-02 -2.74349935e-02 -1.05594695e-02
      -5.99062815e-03 1.18055334e-02 1.83894914e-02 8.32204986e-03
      8.87433253e-03 4.36774828e-03 -2.56462451e-02 -1.28611727e-02
      1.61483046e-03 2.27820198e-03 5.18353470e-03 3.38746514e-03
      1.65390444e-03 8.05922877e-03 9.74164810e-03 -7.48999370e-03
      -2.73484103e-02 -3.47850542e-03 -4.08692099e-03 7.17852404e-03
      7.27189146e-03 2.18049949e-03 9.74463485e-03 1.18767601e-02
      -3.70645411e-02 -3.09838410e-02 -4.06101812e-03 -2.99612875e-03
      1.13968560e-02 8.89093708e-03 6.35716831e-04 -1.97107904e-03
      4.32365015e-03 -2.09362656e-02 -9.19167325e-03 -4.95252432e-03
      -1.53741182e-03 1.33741443e-04 5.32734813e-03 5.24140941e-03
      6.54701898e-06 5.58833499e-03 1.62926223e-03 -1.20419394e-02
      -3.46016069e-03 6.02929667e-03 2.09476426e-03 3.36000812e-03
      6.54376065e-03 8.44718982e-03 1.23699009e-02 -9.47420951e-03
      1.16569945e-03 8.59504659e-03 8.70358199e-03 1.11221187e-02
      1.20984195e-02 3.62380291e-03 6.83672633e-03 6.58443617e-03
      3.85244330e-03 -2.63735354e-02 -3.84629192e-03 -6.32052170e-03
      2.95493449e-03 7.57338107e-03 3.38616548e-03 -2.99266493e-03
      -3.85966967e-03 -3.58208269e-02 -2.96014994e-02 -1.58008579e-02
      -2.57421751e-03 9.71514266e-03 1.11188600e-02 5.74593619e-03
      9.27783642e-03 -2.91277934e-03 -2.64713857e-02 -1.37494784e-02
      2.14956254e-02 6.33493066e-03 1.08495029e-02 5.75795490e-03
      5.90383401e-03 9.97284520e-03 -2.71494995e-04 -2.05560159e-02
      -2.86398921e-02 -5.36078354e-03 -5.02224825e-03 5.67352865e-03
      7.60478806e-03 2.34097475e-03 3.37612606e-03 6.51629083e-03
      -2.75649969e-02 -3.72557789e-02 -1.34087615e-02 -9.30895563e-03
      1.48711754e-02 7.75464531e-03 -2.75692763e-03 -1.89580990e-03
      4.71400417e-04 -2.34559160e-02 -1.98507216e-02 -2.55367113e-03
      -3.15153692e-03 7.89225195e-03 1.13519803e-02 8.05722177e-03
      1.00494120e-02 2.97765387e-03 -2.17881352e-02 -3.72948940e-03
      1.78597309e-03 5.38865896e-03 1.39700971e-03 -4.63563571e-04
      -1.88334991e-04 1.99426315e-03 3.77125409e-03 -5.83543628e-03
      -8.13584216e-03 1.69372223e-02 1.12724556e-02 1.16040148e-02
      7.22387340e-03 6.67071575e-03 1.02197919e-02 7.01188762e-03
      -2.35638395e-03 -7.25331716e-03 8.86827521e-03 1.08981216e-02
      8.15022364e-03 2.78351735e-03 9.59646422e-03 1.24966456e-02
      5.00841253e-03 2.30273837e-03 -3.21042985e-02 -1.04973400e-02
      -7.61913368e-03 6.30046183e-04 6.12246338e-03 -1.01546478e-03
      2.73649092e-03 -5.95617667e-03 -2.66715027e-02 -1.56100197e-02
      2.50704959e-02 9.59567353e-03 7.11648678e-03 5.75529831e-03
      -9.69670946e-04 1.14488453e-02 -2.19449098e-03 -2.05720160e-02
      -1.94085874e-02 5.75014530e-03 8.85551795e-03 1.46503933e-02
      1.11016287e-02 6.33260887e-03 1.17385583e-02 -3.58478166e-03
      -2.04640944e-02 -2.68541146e-02 -1.03672743e-02 -7.24576088e-03
      4.43051569e-03 2.49578996e-04 -2.35281745e-03 -1.02917617e-03
      1.71813043e-03 -1.92324035e-02 -2.63343155e-02 -2.66249804e-03
      -1.06738769e-02 -4.84879711e-04 7.58212263e-05 6.63823588e-03
      1.04711913e-02 -2.82769115e-03 -2.54628826e-02 -1.16208410e-02
      -1.21970801e-03 -3.35321500e-04 5.96249197e-03 1.81273569e-03
      7.15362560e-03 5.73456427e-03 -1.04550796e-03 -9.69264191e-03
      5.49478922e-03 5.22448123e-03 3.57899349e-03 3.88230337e-03
      -3.80476518e-03 -1.36188953e-03 3.40417074e-03 2.05004518e-03
      1.78140413e-03 -5.83594991e-03 5.95946237e-03 9.31152143e-04
      2.17352365e-03 -1.07330857e-02 -6.00354187e-03 3.83771397e-03
      7.27731129e-03 3.98521253e-04 -1.73880681e-02 -3.42074642e-03
      -8.13328847e-03 -3.84607050e-03 3.57069401e-03 3.90291540e-03
      2.31709494e-03 1.05239339e-02 -3.50667839e-03 4.09390498e-03
      1.11411512e-02 6.76351739e-03 2.75075599e-03 -9.55637731e-03
      -1.67202465e-02 7.40974536e-03 5.57498587e-03 2.12370884e-03
      2.53670826e-03 -6.58201240e-03 6.74616126e-03 -3.17523518e-05
      -3.82502360e-04 -1.26220537e-02 -2.17688270e-03 9.61166900e-03
      -5.97352954e-03 -1.72626078e-02 -6.86832890e-03 6.33819553e-04
      -1.25536229e-03 5.08336257e-03 4.00489866e-04 -2.32047215e-03
      4.25797282e-03 -7.98047706e-03 4.56839334e-03 3.36723262e-03
      6.20870991e-03 2.12849979e-03 -8.22005980e-03 -6.73535001e-03
      2.62053823e-03 4.78399266e-03 6.63345912e-03 -1.02796883e-03
      1.19084329e-03 1.00898575e-02 2.32220604e-03 -3.18804081e-03
      -4.69429651e-03 -4.06591082e-03 3.25602992e-03 1.07545434e-02
      -1.33171827e-02 -3.78635619e-03 3.72768403e-03 7.82999443e-04
      8.05458985e-03 7.07103114e-04 -2.96666892e-03 -3.34184570e-03
      5.91107132e-03 -2.16555363e-03 4.63499455e-03 1.66314456e-03
      1.30294228e-03 2.27000332e-03 -1.38583884e-03 7.14562542e-04
      5.68813365e-03 2.05611740e-03 -1.97630357e-02 -1.60182070e-03
      -1.21691879e-02 -6.10270817e-03 3.90970567e-03 4.39406652e-03
      6.42517349e-04 9.64278169e-03 -9.26746801e-03 -8.49719904e-03
      2.01015943e-03 -4.38880781e-03 -4.69394727e-03 6.78606378e-03
      5.98610670e-04 -6.04429096e-03 -1.28553587e-03 -1.12769501e-02
      -1.04490761e-02 -1.41609530e-03 3.90840694e-03 8.29784293e-03
      5.26283076e-03 -3.20779323e-03 1.68800156e-03 4.16718889e-03
      -6.26823772e-03 -1.06615610e-02 -3.18095461e-03 8.83424655e-03
      2.12232699e-04 7.92660192e-03 -5.62791433e-03 -2.58505880e-03
      5.59358811e-03 -6.86440151e-03 -1.50562981e-02 1.35515267e-02
      5.49302204e-03 4.77428641e-03 -2.27956800e-04 -1.01258494e-02
      -4.55576461e-03 4.48581716e-03 -9.81043652e-03 -2.90680397e-03
      -7.33376597e-04 3.23114684e-03 4.54870565e-03 2.55376007e-03
      9.34179116e-05 5.17708424e-04 1.49760360e-03 8.55125953e-03
      -8.01055226e-03 -2.15551420e-03 3.19881178e-03 -4.32594307e-03
      4.19013575e-03 -3.98788834e-03 -4.05857107e-03 5.71196293e-03
      9.97974817e-03 -1.36111127e-02 8.43360275e-03 -4.76533052e-04
      -7.87090336e-04 -3.92836140e-04 -2.89882650e-03 -3.13579716e-04
      7.55058276e-03 9.55182768e-05 -6.38497714e-03 4.13875794e-03
      -2.76797637e-03 -4.47858358e-03 4.55520861e-03 2.26358743e-03
      -1.43360486e-03 4.84968955e-03 -2.88546411e-03 -1.73484534e-02
      -2.16472308e-05 -5.66399144e-03 -6.41326001e-03 4.75578522e-03
      -6.00644271e-04 -1.08737247e-02 -2.71618739e-03 -8.62477347e-03
      -5.90392761e-03 8.54672806e-04 9.02547836e-05 -1.59995956e-03
      4.84385667e-03 9.12710617e-04 -9.11954383e-04 1.32885971e-03
      -5.77699114e-03 -2.08476186e-02 6.79448340e-03 4.27835668e-03
      2.66257430e-05 2.46144901e-03 -3.76463495e-03 -5.32833952e-03
      5.17220981e-03 -1.07869375e-02 -9.46858805e-03 1.37746101e-02
      5.10561746e-03 -4.33741632e-04 -4.34337853e-04 -9.39689856e-03
      -6.57849759e-03 2.23595998e-03 -5.24460105e-03 -1.57090370e-02
      8.46514851e-03 6.72627531e-04 1.11724809e-03 2.26887641e-03
      -1.95721420e-03 -6.45370223e-03 4.90150927e-03 -1.62785966e-02
      -9.41561442e-03 5.61338384e-03 -1.45985861e-04 -3.38205229e-03
      4.70418163e-04 -3.54173314e-03 -1.64692907e-03 7.79128866e-03
      1.17552504e-02 -6.77589467e-03 7.20463181e-03 -2.24094582e-03
      -6.77527918e-04 -1.77403539e-03 -5.74259041e-03 -7.24188983e-04
      1.02235898e-02 -1.87437725e-03 -1.55204972e-02 6.81803655e-03
      4.75204969e-03 4.48624184e-03 2.84065446e-03 -8.11753198e-05
      -8.98917858e-03 -1.30317907e-03 -1.62458494e-02 3.75630520e-03
      1.71691785e-03 -1.92240067e-03 -1.48903392e-03 4.91168164e-03
      1.07857923e-03 -4.54610726e-03 2.33061844e-03 4.12158109e-03
      -1.29725998e-02 -2.49343598e-03 -9.76016570e-04 -1.33651146e-03
      2.39822874e-03 -2.43208691e-04 -3.64721636e-04 3.97252571e-03
      -5.89941489e-03 -9.49495472e-03 2.28638132e-03 -2.63701822e-03
      2.30745482e-03 3.17456247e-03 -9.17508325e-04 -2.13988847e-03
      -4.45454987e-03 -1.67159177e-02 -6.42490480e-03 1.94401015e-02
      2.57552881e-03 -2.99935322e-03 3.78830620e-04 -2.94386735e-03
      -4.58076177e-03 8.37833155e-03 -5.71660744e-03 -1.20178601e-02
      2.96898233e-03 -2.77775340e-03 4.05685604e-03 -2.25461810e-03
      -5.53972786e-03 -4.03716229e-03 9.29124421e-04 -6.91700308e-03
      -2.93003786e-02 -2.60753068e-03 -4.74576233e-03 3.61427921e-03
      -9.38572164e-04 -3.21385195e-03 4.41596936e-03 5.34187490e-03
      -2.60432083e-02 -5.22227399e-03 7.58205727e-03 1.81364233e-03
      4.70591389e-04 1.40865066e-03 1.18527166e-03 -1.62402459e-03
      6.05564006e-03 3.22729175e-05 -8.87909904e-03 1.68650113e-02
      8.31853878e-03 4.72816732e-03 -1.31915917e-03 -4.56974562e-03
      -1.40584577e-02 4.35523177e-03 -1.55913467e-02 -1.80987492e-02
      6.81475783e-03 4.53655235e-03 -8.78768624e-04 1.55145349e-03
      -3.73614882e-03 -6.67375373e-03 3.32928635e-03 -1.17997322e-02
      3.79689154e-04 2.93138321e-03 2.36287466e-04 1.44462544e-03
      1.79720053e-03 1.15459581e-04 2.37979298e-03 3.01902206e-03
      5.76459896e-03 -2.17616055e-02 4.80157230e-03 -2.58993660e-03
      5.55893406e-03 7.38972845e-03 4.76540154e-04 -5.43582835e-04
      -4.91268607e-03 -2.56220847e-02 -1.51529778e-02 -1.99065034e-04
      -2.86926026e-03 5.27059240e-03 7.16628321e-03 2.74428842e-03
      2.07258738e-03 9.53126117e-04 -1.35623477e-02 -1.86260361e-02
      4.09597158e-03 1.39144179e-03 6.94385776e-03 2.80136708e-04
      -2.50077713e-03 4.74212226e-03 1.06053548e-02 -9.35625378e-03
      -1.72485728e-02 -6.60285028e-03 -6.20884914e-03 6.41542114e-03
      9.88114974e-04 -8.85585323e-04 1.08430879e-02 1.71243474e-02
      -2.80061532e-02 -3.47041525e-02 -7.15053873e-03 2.45406455e-03
      1.41231911e-02 6.97854534e-03 -1.23456959e-03 -2.08274345e-03
      7.65870698e-03 -2.47856248e-02 -8.92905705e-03 9.05000325e-03
      6.19451376e-03 3.32996342e-03 1.34866871e-03 -1.43448461e-03
      -7.13446504e-03 9.18002799e-04 -6.53792080e-03 -2.22238265e-02
      1.05535453e-02 8.76577385e-03 -1.87390076e-03 2.02521752e-03
      -7.03800179e-04 5.44605835e-04 1.38182789e-02 -8.89218412e-03
      -2.67114732e-02 -7.89066660e-04 1.04053626e-02 4.49117646e-03
      3.97169904e-04 5.11615712e-04 3.96597013e-03 1.11447815e-02
      -5.86723490e-03 -8.10595136e-03 2.32891366e-03 -1.47871766e-03
      3.19806836e-03 7.37093063e-03 1.83657231e-03 -3.05993977e-04
      -2.01559020e-03 -1.74917597e-02 -2.26580519e-02 -6.14676438e-03
      -5.94225526e-03 9.31354519e-03 1.36011252e-02 5.95528539e-03
      4.43995697e-03 3.53556732e-03 -1.75150912e-02 9.84208076e-04
      7.67756160e-03 2.91646365e-03 6.71955571e-03 1.15084033e-02
      8.64427164e-03 1.00600524e-02 1.15742476e-03 -1.16000036e-02
      -3.26821804e-02 -6.65907795e-03 -1.56884617e-03 8.89652595e-03
      8.66334233e-03 3.55424872e-03 4.74614557e-03 1.21819377e-02
      -2.96213459e-02 -3.34390476e-02 -9.48360655e-03 1.82043971e-03
      1.74477063e-02 7.20477290e-03 1.30488875e-03 -7.34957401e-04
      6.48558000e-03 -2.49929242e-02 -2.58219559e-02 -3.91217694e-03
      -7.63570424e-03 5.78628667e-03 1.25012652e-03 1.18092326e-02
      9.74518340e-03 1.16947917e-02 -1.91084035e-02 -2.22341120e-02
      -1.17318972e-03 3.70209850e-03 2.80901929e-03 4.25535766e-03
      3.30017041e-03 4.83732624e-03 1.04279472e-02 -1.04829716e-02
      -3.55416052e-02 -6.85919169e-03 9.34936851e-03 7.03474879e-03
      5.12621645e-03 2.51349877e-03 3.44485417e-03 1.21585298e-02
      -1.00702830e-02 -2.25431435e-02 -7.47058447e-03 -2.05602823e-03
      -1.21778029e-03 1.15438998e-02 1.19385496e-02 2.72326084e-04
      6.03437889e-03 -7.98126124e-03 -7.59357028e-03 3.08697741e-03
      -3.03717330e-03 3.20674665e-03 4.13875887e-03 8.82222434e-04
      2.20325054e-03 9.94770089e-04 -5.62341185e-03 -4.90591722e-03
      1.69516914e-02 1.03769535e-02 6.70403382e-03 3.74516239e-03
      7.61267031e-03 1.12965871e-02 -3.19920457e-03 -1.50846094e-02
      -3.67217325e-03 4.93242638e-03 4.73086769e-03 8.91924463e-03
      4.96163033e-03 8.81822314e-03 8.51397589e-03 2.54921761e-04
      -6.25147251e-03 -3.06936279e-02 -1.35320006e-02 -3.20628472e-03
      8.04287475e-03 1.33757573e-03 -1.14688906e-03 -2.84628803e-03
      3.83540965e-03 -2.01862101e-02 -1.13502638e-02 6.94116997e-03
      -7.66562345e-03 -1.35724942e-04 -2.21934402e-03 9.21386853e-03
      5.30291302e-03 1.09436503e-02 -8.64934642e-03 -1.71923067e-03
      6.80215796e-03 3.73001816e-03 4.49992158e-03 2.89556949e-04
      9.93974041e-03 1.27900187e-02 5.51025569e-03 -6.73607131e-03
      -2.95234378e-02 -9.70099308e-03 1.53953454e-03 2.28849566e-03
      -1.87219901e-03 1.31039449e-03 -2.51745083e-03 2.03891355e-03
      -1.45771876e-02 -2.09266879e-02 -3.44807119e-03 7.37526454e-04
      -1.11699561e-02 -9.18590743e-03 6.01755455e-03 -3.88328888e-04
      8.24582472e-04 -1.18154269e-02 1.39764941e-03 6.02940191e-03
      7.95498583e-03 -3.01436847e-03 -1.45566522e-03 4.46042651e-03
      4.28713625e-03 4.09343466e-03 -1.30047125e-03 2.23518815e-03
      4.20591189e-03 3.88459070e-03 7.86615943e-04 -6.59362786e-03
      -6.14570919e-03 5.74173778e-03 5.62516600e-03 5.54293348e-03
      -6.96848705e-03 -1.79100514e-03 1.18137570e-03 1.52506586e-03
      -5.48146479e-03 -4.28836793e-03 5.00531448e-03 5.83845004e-03
      -5.47644123e-03 -9.15304292e-03 2.48062366e-04 2.80419947e-03
      1.56503101e-03 4.34624497e-03 2.06149486e-03 -8.43463291e-04
      1.03437004e-03 -7.69269047e-03 6.35672081e-03 2.90207705e-03
      3.42369266e-03 -1.46720815e-03 -1.29160304e-02 -9.90570057e-03
      6.28465414e-03 1.27547607e-02 1.40031781e-02 6.11629942e-03
      4.88960184e-04 7.66837969e-03 -2.77856016e-03 -1.02330209e-03
      -2.76926905e-04 7.61919050e-03 1.72836240e-02 2.03427952e-02
      -1.12833912e-02 -2.18712958e-03 3.50231025e-03 -1.00558344e-03
      8.08676612e-03 6.55235955e-04 -2.23363610e-03 1.30069349e-03
      1.29835587e-02 3.53452447e-03 5.43702580e-03 1.87963503e-03
      -8.10999889e-04 -1.00078341e-02 -1.09699275e-03 1.36644393e-03
      2.91966880e-03 4.29894164e-04 6.06085407e-03 5.48847544e-04
      6.56131189e-03 -1.17220134e-02 -1.67301726e-02 -1.93255523e-03
      1.24521228e-03 -9.24655818e-04 1.65798385e-02 -1.37395589e-02
      -3.75625817e-03 6.02363376e-03 3.40640545e-03 -4.78380389e-04
      -1.28207949e-03 4.78860020e-04 2.52877083e-03 -9.94367409e-04
      -4.95914789e-03 1.65841368e-03 1.91011385e-03 3.43983155e-03
      1.69672072e-03 -4.27758147e-04 1.76674197e-03 1.29951222e-03
      -8.60186061e-04 -1.34967715e-02 2.92521459e-03 6.36336952e-03
      -1.97203667e-03 2.90274760e-03 -2.31446247e-04 -2.57190387e-03
      3.90068348e-03 -1.06299454e-02 -1.45967975e-02 1.32286549e-02
      5.46735898e-03 3.42859584e-03 -8.36959633e-04 -4.90887370e-03
      -4.15408567e-06 5.30236866e-03 -9.28170700e-03 -6.99444115e-03
      -2.83419713e-03 5.72524173e-03 1.70131819e-03 3.01748514e-03
      5.26575884e-03 2.78182956e-03 5.28151821e-03 1.62949581e-02
      -5.00557572e-03 3.48174362e-03 4.99325199e-03 -9.10619181e-03
      3.36277159e-03 -4.04030224e-03 -1.29155640e-03 7.32362783e-03
      1.75498575e-02 -9.46250092e-03 3.89984343e-03 -3.63262603e-03
      -7.52740353e-03 -5.61395008e-03 -5.87446429e-03 -4.92091244e-03
      4.40264493e-03 7.30929943e-03 -2.14067055e-03 -1.21742522e-03
      5.84041839e-03 9.90752596e-05 -5.85930771e-04 2.35178042e-03
      -1.67527073e-03 -1.67091773e-03 5.41664939e-03 -1.08489767e-02
      -7.11653032e-04 5.63655002e-03 2.46391050e-03 -1.08518789e-03
      -9.08544473e-03 -4.08728421e-03 5.84636116e-03 -1.31247716e-03
      -1.20734219e-02 4.33200221e-05 1.71920308e-03 2.30127038e-03
      -4.81961481e-03 -9.61660780e-03 -8.58502369e-03 -1.53438095e-03
      -8.54174700e-03 -7.36969477e-03 7.57512171e-03 5.13866404e-03
      1.08158402e-03 7.74473010e-04 -1.08549220e-03 -7.11379922e-04
      4.02781833e-03 2.39231622e-06 -7.43032433e-03 1.80208776e-02
      9.14865080e-03 1.97730027e-03 -3.41570616e-04 -6.00987393e-03
      -1.24417199e-03 5.41070802e-03 -1.03143379e-02 -9.40233376e-03
      1.22675104e-02 4.67810314e-03 2.86825956e-03 2.11278000e-03
      -1.75696204e-03 -3.86773981e-03 3.30529152e-03 -1.71861015e-02
      -1.02716116e-02 6.21812465e-03 7.12963461e-04 -5.37185650e-03
      1.03203049e-04 -7.93083292e-03 -5.42428717e-03 9.94982012e-03
      1.61619280e-02 -5.26029011e-03 1.55331544e-03 -2.23200368e-06
      -3.45505751e-03 -4.04699054e-03 -5.01707010e-03 -5.37279993e-03
      7.28060259e-03 4.26986674e-03 -5.45006851e-03 1.34789143e-02
      9.60795116e-03 3.37358331e-03 -4.17455425e-03 -4.14044363e-03
      -1.01492619e-02 -2.36671208e-03 -1.38450675e-02 -1.04035465e-02
      5.56736311e-04 2.66236905e-03 3.00707505e-03 -5.75521914e-03
      -7.69189186e-03 -3.69548774e-03 4.80832299e-03 5.97832305e-03
      -4.60387394e-03 -1.81221263e-03 9.77551099e-04 2.45548552e-04
      -8.09417758e-03 -1.39048174e-02 -5.17134462e-03 1.79707108e-03
      -5.05648879e-03 -1.83095727e-02 9.47559311e-04 5.75704267e-03
      1.06528355e-03 -1.55927264e-03 1.60169497e-03 4.52440698e-03
      1.92261406e-03 -1.83940660e-02 -1.40973390e-03 1.49251334e-02
      3.95807670e-03 -7.17827643e-04 2.41857619e-04 -2.85408954e-04
      -8.17208667e-04 6.15379540e-03 -3.42642237e-03 -8.21327604e-03
      1.23573085e-02 5.37468260e-03 4.59330250e-03 -1.08670746e-03
      -3.77987185e-03 -3.76265380e-03 5.74274128e-03 -8.98458995e-03
      -1.62430424e-02 6.64813677e-03 3.87039705e-04 1.39650679e-03
      2.15068413e-03 -5.96977829e-04 1.60252023e-03 9.21745319e-03
      -9.69466940e-03 -6.69993751e-04 1.06878877e-02 2.52328790e-03
      2.29095132e-03 1.51595951e-03 -2.53783073e-03 -1.55963283e-03
      8.71629082e-03 2.32277834e-03 1.86580408e-03 2.61910837e-02
      1.23448037e-02 1.45242433e-03 -4.77417465e-03 -3.02717066e-03
      -1.23512093e-02 6.71157660e-03 -9.01034940e-03 -1.54897561e-02
      1.10153137e-02 8.38663243e-03 -2.93812202e-03 -4.62050829e-03
      -7.22279260e-03 -1.03024049e-02 8.50272831e-04 -1.38586592e-02
      -3.55132832e-03 1.76478981e-03 1.14470127e-03 1.42797211e-03
      -1.73838250e-03 -4.94046416e-03 1.07487640e-03 4.64077666e-03
      -3.02220369e-03 -1.19817220e-02 6.97122421e-03 6.55685086e-03
      1.74690294e-03 -6.22774009e-04 2.74394546e-03 2.40409700e-03
      -3.65645508e-04 -2.00998858e-02 -1.46270609e-02 5.03061851e-03
      3.18573928e-03 4.53981524e-03 9.45731124e-04 -3.57206352e-03
      -2.85651791e-03 -5.63568727e-04 -1.94785800e-02 -3.44946445e-03
      8.59488267e-03 4.16281587e-03 4.19942942e-03 1.63440236e-05
      -1.25069369e-03 1.46547845e-03 7.32851075e-03 9.89107997e-04
      -2.30610780e-02 4.67282441e-03 2.14500818e-03 4.49200440e-03
      4.52895463e-03 3.50982184e-03 6.41646981e-03 1.83198694e-02
      -1.37294130e-02 -1.80616658e-02 1.28372048e-03 6.44517830e-03
      6.83439989e-03 -2.94464960e-04 -8.01698712e-04 1.57645356e-03
      1.00635681e-02 -7.52845267e-03 -6.99260132e-03 1.63747724e-02
      9.21488088e-03 3.39837279e-03 1.62197964e-03 1.41341204e-03
      -7.92001560e-03 2.60662683e-03 -8.04119650e-03 -1.35457721e-02
      1.30657023e-02 1.31804887e-02 -3.39887128e-03 1.10317499e-03
      -2.65328935e-03 2.06198965e-04 1.89275742e-02 -7.15347379e-03
      -2.77357027e-02 2.06485810e-03 4.92607849e-03 1.81824702e-03
      2.30959291e-03 2.41740420e-03 9.39164776e-03 2.27226410e-02
      -9.02384706e-03 -1.17127150e-02 4.48803371e-03 4.31996305e-03
      3.32208001e-03 3.39011522e-03 3.20742256e-03 2.02769507e-03
      1.73204823e-03 -9.60109942e-03 -6.28682179e-03 9.49361827e-03
      4.15575458e-03 5.80609776e-03 -4.20799566e-04 -2.96776462e-03
      2.25991025e-04 1.02214031e-02 -1.67785008e-02 -2.21783128e-02
      8.86253640e-03 -1.56493054e-03 2.61043548e-04 1.05471438e-04
      7.21465389e-04 8.17325991e-03 1.32998545e-02 -1.93634629e-02
      -1.57719515e-02 3.05834529e-03 2.36140052e-03 5.87203493e-03
      6.88698376e-03 2.91569042e-03 3.75581859e-03 1.08665563e-02
      -5.81172435e-03 -2.60180831e-02 -9.69244211e-05 8.97626858e-03
      1.13660721e-02 3.86815867e-03 2.91152135e-03 1.46495271e-03
      1.56847816e-02 -1.65453888e-02 -1.67277567e-02 -4.66432748e-03
      -9.83485254e-04 3.61483777e-04 7.19010690e-03 1.05480412e-02
      7.60605466e-03 9.01876856e-03 -8.21872056e-03 -2.50257421e-02
      1.03998138e-03 4.33401577e-03 2.08273505e-05 4.29391814e-03
      4.14546998e-03 7.38524692e-03 1.34258699e-02 -1.38311777e-02
      -2.41907034e-02 1.17394445e-03 9.82578727e-04 4.71086614e-03
      8.07441585e-03 9.29234270e-03 1.75576489e-02 3.01662236e-02
      -6.34459686e-03 -2.39572097e-02 -2.56057619e-03 2.59471778e-03
      -4.92563192e-03 5.56075189e-04 6.87763421e-03 1.08564831e-02
      1.14985909e-02 -7.15287961e-03 -1.02975285e-02 5.14194276e-03
      3.53895332e-04 2.89768400e-03 1.52401405e-03 4.58459661e-04
      3.40253371e-03 4.21076827e-03 -1.58884320e-02 -2.68806145e-02
      9.29760654e-03 -3.64935631e-03 -1.51020102e-03 3.48734157e-03
      1.42538303e-03 1.20487921e-02 2.04091873e-02 -1.61978584e-02
      -1.30416919e-02 8.74889828e-03 -1.13038137e-03 -7.43213575e-03
      -6.34220243e-03 5.16897890e-05 5.77102648e-03 1.31301228e-02
      -2.57645943e-03 -1.44869527e-02 -4.50087572e-03 3.23699671e-03
      4.79312195e-03 6.14974997e-04 2.85805203e-03 3.60570739e-05
      7.53479963e-03 -9.82363988e-03 -1.35300914e-02 -4.19006625e-04
      -2.48922588e-04 -3.15851509e-03 -2.52015400e-03 1.39789283e-02
      7.82488473e-03 1.04117133e-02 -7.47082708e-03 4.44467552e-03
      6.38771337e-03 6.19637314e-03 2.83240271e-03 3.73677560e-03
      1.18822260e-02 9.26056132e-03 7.19147595e-03 4.15926613e-03
      -3.13430838e-02 -6.14633644e-03 2.54715356e-04 3.20545118e-03
      3.29075404e-03 4.54238523e-03 5.30610653e-03 1.41340885e-02
      -1.21500250e-02 -1.43131921e-02 6.44346094e-03 7.25742476e-03
      -1.00106830e-02 -1.00564240e-02 1.52496137e-02 1.30134113e-02
      8.15020222e-03 -3.01500387e-03 2.42182892e-03 8.10478441e-03
      1.20779835e-02 -5.11306431e-03 -1.71262294e-03 9.06155724e-03
      7.16161681e-03 5.92509890e-03 4.20577649e-04 -2.27343142e-02
      4.65566432e-03 -3.62254237e-03 -1.32928696e-03 1.60464912e-03
      -4.77628579e-04 4.89880098e-03 1.20713636e-02 -9.51221492e-03
      -1.31725501e-02 6.02654507e-03 -7.48554850e-03 -1.88502595e-02
      -2.36008596e-02 -1.06809672e-03 8.29367246e-03 1.36237005e-02
      -1.73143903e-03 1.38495525e-03 4.46844334e-03 2.37981509e-03
      -9.25627444e-03 -1.50447758e-02 9.24538448e-03 5.01525402e-03
      7.65667995e-04 -8.64229864e-04 3.66488821e-03 7.79976312e-04
      -9.16164368e-04 -2.12381216e-04 -1.41363749e-02 -4.71159210e-03
      1.73988019e-03 7.83114135e-03 6.56078150e-03 1.43405597e-03
      -7.33048236e-03 3.23713548e-03 -4.38652840e-03 -1.60513762e-02
      1.51341141e-03 4.90058353e-03 1.13328891e-02 1.81820840e-02
      -6.54072501e-03 -3.24325939e-03 2.15651141e-03 7.93289801e-04
      -4.34538350e-04 -1.01139490e-03 -3.39058082e-04 3.77928605e-03
      1.25265401e-02 2.12081918e-03 3.60978954e-03 2.05241423e-03
      -6.62332447e-03 -1.16837984e-02 -5.65405888e-03 2.25005695e-03
      3.37103824e-03 1.16153131e-03 8.22246261e-03 8.90999753e-03
      1.04702013e-02 -1.04706166e-02 -1.16963098e-02 -1.18730236e-02
      -8.42336391e-04 -5.23797236e-04 2.07397118e-02 -8.83926172e-03
      -4.15559299e-03 6.33746095e-04 2.14724708e-03 -1.13201584e-03
      -7.00624986e-03 -4.31064703e-03 -3.21466825e-03 -5.73037891e-03
      2.74513336e-03 4.03562421e-03 6.75089285e-03 1.17252506e-02
      -6.13180641e-03 -6.26132241e-04 1.69697055e-03 2.01834389e-03
      4.15526284e-03 1.25823254e-02 1.62046552e-02 1.03490604e-02
      2.05898676e-02 7.78335321e-04 -7.84210395e-03 -1.93090772e-03
      -5.44316648e-03 4.49350150e-03 1.35473879e-02 1.22476127e-02
      7.38000905e-04 1.25073157e-02 7.49960495e-03 -2.31855176e-03
      -3.53376358e-03 -2.45096092e-03 2.98048311e-04 -1.35244196e-03
      -6.17655227e-03 2.78581842e-03 -2.38292414e-04 -1.87396433e-03
      5.09583531e-03 3.06164497e-03 4.20487206e-03 1.40318032e-02
      -1.00568999e-02 -3.08875553e-03 8.34292267e-04 -4.17910703e-03
      -9.54470190e-04 -6.06066175e-03 -2.48149596e-03 8.99680611e-03
      1.53899193e-02 -3.54441698e-03 4.86810785e-03 -2.28502951e-03
      -3.81913409e-03 -6.23175083e-03 -7.12975161e-03 -6.35493034e-03
      1.02949527e-03 8.75860918e-03 3.78093054e-03 -2.84697581e-03
      5.64711262e-03 1.43160881e-03 -6.34278590e-03 -3.77001730e-03
      -4.50762967e-03 -4.88917436e-03 4.43351222e-03 -6.68135565e-03
      2.51585129e-03 -2.07447587e-03 -2.65822187e-03 -6.58517471e-04
      -9.09596868e-03 -2.61293491e-03 2.68558715e-03 -7.85652269e-03
      -3.91274272e-03 7.20379583e-04 -1.01486908e-03 -4.21330985e-03
      -1.24269752e-02 -1.32622048e-02 -1.43485209e-02 -7.71532441e-03
      -6.16871426e-03 1.07847741e-02 8.18455312e-03 3.58762452e-03
      1.37707535e-02 4.41658311e-03 -9.42896295e-04 -2.43386530e-04
      -4.07015532e-03 -2.16588541e-03 1.08782509e-02 4.83987061e-03
      -4.20746021e-03 8.42905417e-03 1.08350078e-02 -3.22839455e-03
      -1.97214354e-03 1.75071516e-04 3.05460976e-03 3.71845928e-03
      2.62594642e-03 5.90498035e-04 1.67572685e-03 -2.38161604e-03
      -3.56698781e-03 -1.34237076e-03 -1.70117407e-03 3.70554684e-04
      1.30150220e-04 4.17196378e-03 9.41933889e-04 -1.29457389e-03
      -2.61882390e-03 -4.81618382e-03 -2.33421172e-03 5.00250934e-03
      1.78290699e-02 -5.55908820e-03 5.50889131e-03 -1.32078549e-03
      -1.73102855e-03 -3.54039832e-03 -7.99230859e-03 -7.11491937e-03
      2.11234880e-03 3.39933974e-03 -2.58541037e-03 6.93780743e-03
      5.58072608e-03 1.31722097e-03 -3.13059427e-03 8.80407984e-04
      -1.54159532e-03 2.94739206e-04 -6.17944263e-03 -1.25462143e-02
      5.09634963e-04 1.64684851e-03 8.03283590e-04 -2.48155184e-03
      -1.00296447e-02 -3.78188747e-03 5.01897279e-03 1.50319014e-04
      2.63462309e-03 9.60688479e-03 6.49003545e-03 -3.86523129e-03
      -1.59032680e-02 -1.30230449e-02 -5.06372284e-03 -2.91396235e-03
      -2.22821394e-03 -2.02281401e-02 2.68798764e-03 4.30619949e-03
      1.29937450e-03 -7.02233473e-03 -2.20762542e-03 5.68460254e-03
      -2.54981889e-04 -2.47364845e-02 1.02176974e-02 4.49811947e-03
      -3.24102491e-03 5.49872732e-03 2.37932499e-03 -1.21452066e-03
      3.17949639e-03 4.34673438e-03 6.10526046e-03 4.92414599e-03
      4.73310985e-03 5.99445822e-03 2.74095149e-03 -7.65153579e-03
      -5.19648660e-03 -9.16158897e-04 8.27425101e-04 -1.01767816e-02
      -1.96061470e-02 7.32070359e-04 7.79528404e-03 5.88954845e-03
      -2.45308061e-03 -7.81209383e-04 4.73052077e-03 6.03094371e-03
      -1.06912404e-02 5.99179091e-03 5.55728702e-03 3.68639128e-03
      1.38372672e-03 -2.79491325e-03 -3.12110945e-03 -1.04695349e-03
      2.75726337e-03 6.40104804e-03 1.84048782e-04 1.48192244e-02
      8.13189521e-03 -4.39816009e-04 -3.87304439e-03 1.79757085e-03
      -4.19084961e-03 1.92226551e-03 -6.52032439e-03 -7.73365702e-03
      4.93538380e-03 4.80544800e-03 1.40195573e-03 -1.25916617e-04
      -2.60789442e-04 -3.40160821e-03 -1.16064877e-03 -1.03205694e-02
      -3.20553128e-03 5.12014888e-03 1.18002540e-03 1.68675790e-03
      -6.29239576e-03 -9.84363165e-03 -2.59302789e-03 3.19413282e-03
      -6.42053783e-03 -1.20379934e-02 4.23965044e-03 2.75574019e-03
      8.02177005e-04 -6.11924753e-03 1.99158327e-03 5.16236108e-03
      4.23367601e-03 -1.74246170e-02 -1.42263100e-02 9.83063690e-03
      -4.03271290e-04 6.70749601e-03 -3.28127737e-03 -4.60853288e-03
      -7.88243487e-03 1.24757946e-03 -2.35222727e-02 1.19625288e-03
      5.64655429e-03 6.56460924e-03 7.18978606e-03 -3.76710086e-03
      -3.11225583e-03 5.17619634e-03 9.75929946e-03 6.02140836e-03
      -1.63535960e-02 3.01358569e-03 9.11392085e-03 7.52579141e-03
      -2.41941470e-03 1.51493776e-04 9.35674366e-03 5.34804678e-03
      -7.08390260e-03 -1.47452857e-02 1.11341737e-02 1.93161343e-03
      2.57095415e-03 -5.18014189e-03 8.23333103e-04 1.01959705e-03
      2.91090430e-04 -1.70630701e-02 -1.87825039e-03 6.36259373e-03
      3.63986962e-03 -1.58092508e-03 -2.39882735e-03 2.84096482e-03
      -8.40488123e-04 1.99092785e-03 -3.71455280e-05 -1.40100420e-02
      2.72119069e-03 4.57166415e-03 -2.02108780e-03 -5.29457233e-04
      -5.08085417e-04 8.27206590e-04 6.48206100e-03 -1.63650811e-02
      -1.65181383e-02 1.78948406e-03 7.58038310e-04 -5.45172807e-05
      -1.78506447e-03 1.02137087e-03 4.34822217e-03 1.25135193e-02
      -1.04926880e-02 -1.51589783e-02 5.64039778e-03 4.42776410e-03
      3.34432791e-03 6.58598845e-04 1.91964838e-03 4.27929917e-03
      3.16084898e-03 -1.76359545e-02 -4.12351312e-03 1.58885010e-02
      -1.43669918e-03 6.22435706e-03 -2.62980396e-03 -9.06649278e-04
      -3.89579148e-03 1.82289686e-02 -1.08537553e-02 -2.06420589e-02
      1.82576571e-02 6.66756358e-04 -2.23292154e-03 -6.50034868e-04
      -6.25981658e-04 1.12505034e-02 1.27924057e-02 -1.85507648e-02
      -1.08854007e-02 8.03229306e-03 4.18983074e-03 4.61675646e-03
      -1.02524506e-03 2.97973258e-03 5.73893869e-03 7.32168090e-03
      6.24579843e-04 -3.30367428e-03 1.95440892e-02 8.10284354e-03
      9.97472182e-03 -4.55105770e-03 -3.31278017e-04 6.54185424e-03
      3.61410971e-03 -1.56078497e-02 -5.98669844e-03 2.04221997e-02
      9.51799378e-03 7.01742154e-03 2.74480251e-03 1.67541578e-03
      7.83294812e-03 3.32142983e-04 -1.70621742e-02 -8.36145878e-03
      2.98097555e-04 4.72450396e-04 -2.96968472e-04 1.36773882e-03
      1.99544919e-03 2.88336212e-03 5.18479524e-03 -5.19355806e-03
      -2.80533805e-02 3.65603738e-03 -3.57301731e-04 6.63806743e-04
      1.47844863e-03 3.52088897e-03 8.89766216e-03 2.11151764e-02
      -1.02369478e-02 -1.25550982e-02 4.71356185e-03 3.12704802e-03
      -5.98941278e-03 2.79936963e-03 4.01971745e-04 5.60701778e-03
      7.11512845e-03 -6.44513639e-03 -1.40783079e-02 1.09734666e-02
      -2.01069703e-03 2.93867756e-03 -4.44322359e-03 -3.37697682e-03
      4.05579247e-03 7.78042478e-03 -2.13653687e-02 -1.22198006e-02
      1.87083110e-02 1.94303924e-03 -6.60389755e-03 -1.72332057e-03
      8.37921258e-03 1.74159948e-02 2.11215280e-02 -1.09862266e-02
      -1.68606378e-02 9.80560668e-03 -9.72291827e-03 -1.26540344e-02
      -1.61323324e-02 1.30807632e-03 6.34931494e-03 1.51439179e-02
      -2.33678310e-03 -1.08333034e-02 1.53879402e-02 4.05253004e-03
      7.73309777e-03 -3.90254497e-03 -1.51736650e-03 6.41427422e-03
      4.76729451e-03 -1.43817235e-02 -8.23481753e-03 2.29944158e-02
      1.09440861e-02 5.78633556e-03 4.67059948e-03 2.76418007e-03
      1.30666383e-02 7.42824608e-03 -1.69230755e-02 -2.83172610e-03
      7.99994171e-03 1.48452807e-03 2.60441704e-03 3.62085737e-03
      2.23624939e-03 7.45762663e-04 2.89436965e-03 -6.38240541e-04
      -1.84954014e-02 7.92942592e-04 2.00411712e-04 4.25014659e-05
      -2.14820285e-03 3.97096621e-04 3.78927356e-03 1.00534549e-02
      -3.07494146e-03 -1.07626682e-02 4.46861796e-03 7.12471316e-03
      -9.17180907e-03 -8.44012760e-03 5.24725346e-03 6.83800085e-03
      1.03198728e-02 -3.99011560e-03 -5.25903841e-03 6.04135077e-03
      7.16671953e-03 -9.36431403e-04 -2.79468764e-03 1.06519246e-02
      6.10419037e-03 2.41527450e-03 -4.45535174e-03 -2.78785080e-02
      9.78559721e-03 -7.14499224e-03 -8.24716873e-03 9.85132647e-04
      1.96150714e-03 1.09097892e-02 1.62924863e-02 -1.63666885e-02
      -7.43659632e-03 7.61639420e-03 -1.18387165e-02 -1.22587346e-02
      -1.78935155e-02 1.39018835e-03 9.10371076e-03 1.79437511e-02
      6.54369639e-03 3.47367139e-03 5.47233596e-03 -2.31940136e-03
      -1.33475885e-02 -1.35429371e-02 8.01087823e-03 2.28935410e-03
      -8.46692652e-04 7.01811258e-03 -7.02848472e-03 1.41576817e-02
      6.64831512e-03 -5.80843247e-04 2.43850145e-03 2.21570535e-03
      4.53992607e-03 2.91815936e-03 -1.09822042e-02 -1.40131777e-03
      6.67796843e-03 -6.58036210e-04 2.12134400e-04 2.32952088e-03
      2.66104215e-03 1.73595198e-03 7.52977328e-03 3.09258467e-03
      8.11426062e-03 -9.17477533e-04 -2.19351752e-03 -1.72227516e-03
      5.72846970e-04 6.87997602e-03 2.43717316e-03 2.58507486e-03
      1.25845671e-02 -6.02562772e-03 -3.30237113e-03 -1.78061158e-03
      -1.55073986e-03 -9.46744345e-03 -1.20194629e-03 1.00414245e-03
      -1.64547804e-04 -3.14433710e-03 -9.40337486e-04 -5.27456985e-04
      4.55538603e-03 9.55975847e-04 -1.83531325e-02 -2.22127344e-02
      -1.25650512e-02 -1.27609614e-02 -2.84617115e-03 -1.40122771e-02
      -8.20747670e-03 -9.04971617e-04 4.59575886e-03 3.41421895e-04
      -8.10598675e-03 -7.91989546e-03 -7.00016879e-03 -1.18623897e-02
      -5.01677068e-03 -3.28694121e-03 3.58101097e-04 1.38870487e-02
      -4.12223395e-03 -3.10041988e-03 -3.43684293e-03 -5.27149765e-03
      -1.14000717e-03 1.28986756e-03 7.54367514e-03 4.70130817e-06
      9.03073419e-03 5.63722523e-03 2.89251003e-03 1.71837548e-03
      1.23266724e-03 -1.61114702e-04 8.54134932e-03 4.28170245e-03
      -1.08247008e-02 1.09296711e-02 8.27039219e-03 -3.61296727e-04
      -5.11313649e-03 1.49734376e-03 -8.39493051e-03 4.82835714e-03
      3.09067895e-03 -1.43586786e-03 6.23355154e-03 5.35473647e-03
      1.49154644e-02 8.08690861e-03 2.49831984e-03 4.50712861e-03
      1.48087526e-02 1.22091500e-02 1.54586369e-03 -2.33119051e-03
      -8.37663538e-04 1.48997409e-02 1.15394536e-02 1.05576646e-02
      1.14761014e-02 1.56186512e-02 8.46880116e-03 -5.58867687e-05
      6.19611237e-03 7.39441998e-03 9.65320785e-03 1.04973633e-02
      1.25053041e-02 4.90058772e-03 1.32000784e-03 -3.15119908e-03
      1.88194483e-03 3.85918794e-03 -2.19133194e-03 -7.19830021e-03
      -5.69434883e-03 -6.20203326e-03 -3.63665330e-03 -1.56588312e-02
      -1.06901191e-02 -6.50402391e-03 2.30602920e-03 6.71129150e-04
      -8.87742825e-03 -8.05101264e-03 -4.99206549e-03 -8.19512736e-03
      -1.32552385e-02 -4.50630346e-03 -1.95129134e-03 -1.82529399e-03
      -8.69506225e-03 -8.96758121e-03 -8.69964901e-03 -9.60052293e-03
      -1.49705969e-02 3.12847155e-03 3.42861377e-03 -2.97314930e-03
      1.11587951e-02 4.98251012e-03 3.63906636e-03 3.27921916e-05
      -4.67334269e-03 -5.68810897e-03 5.33585297e-03 -3.10806232e-03
      -1.63767189e-02 2.77045113e-03 9.56573058e-03 -1.01143715e-03
      1.04294471e-04 2.79410183e-03 -6.78349892e-03 -7.49930833e-03
      -3.77595541e-03 -7.41220685e-03 -3.47327674e-03 -1.05212368e-02
      -6.12460496e-03 -5.10406820e-03 -6.88390341e-03 -1.55453151e-02
      1.27409734e-02 9.35238227e-03 2.28441367e-03 6.81594480e-04
      5.14999079e-03 8.41784012e-03 4.33513848e-03 7.45792827e-03
      1.17523931e-02 1.57333128e-02 7.12002534e-03 -6.97933510e-03
      7.62731023e-03 1.56842098e-02 1.28544085e-02 1.62885748e-02
      2.10841764e-02 5.59214037e-03 1.04205692e-02 5.51673630e-03
      -2.15803413e-03 4.05366346e-03 4.02963860e-03 -1.75826449e-03
      -5.52180631e-04 8.03029444e-03 1.43649266e-03 -4.93290788e-03
      -1.70946552e-03 1.44062826e-04 2.37139966e-03 -7.17341201e-04
      -4.30328399e-03 -2.28270167e-03 -7.03238882e-04 -9.03238717e-04
      -8.95037595e-03 -3.59802216e-04 -9.13931755e-04 -5.50524681e-04
      -1.07518099e-02 -1.27742346e-02 -1.06534343e-02 -9.87982191e-03
      -1.01687955e-02 -1.83925759e-02 -2.90821743e-04 1.31545495e-03
      1.47675956e-03 -5.33127552e-03 -3.56183643e-03 3.25764809e-03
      -6.05611422e-04 -1.81930736e-02 4.86951927e-03 2.06921250e-03
      -7.64643261e-03 4.12395224e-03 3.32399597e-03 8.86931724e-04
      4.52018762e-03 1.65497512e-03 -2.58156843e-03 5.89829404e-03
      4.25070897e-03 -8.20854621e-04 7.99880479e-04 -4.38535633e-03
      -1.38173124e-03 -1.90890837e-03 -3.64484987e-03 -1.43213086e-02
      -2.25943718e-02 -4.93279938e-03 9.16641299e-03 6.31629070e-03
      -4.23739804e-03 -5.08771185e-03 1.88049191e-04 -2.48342985e-03
      -1.81316081e-02 1.61209255e-02 3.93628376e-03 -2.91241729e-03
      4.03595762e-03 1.03154778e-02 5.79991983e-03 8.82716384e-03
      1.59439482e-02 8.05547182e-03 1.12295514e-02 7.14016752e-03
      1.95482885e-03 7.37692742e-03 5.16174547e-03 -1.06384535e-03
      -1.69792329e-03 1.24643976e-02 5.05970325e-03 -1.25370054e-02
      1.60070224e-04 4.52289777e-03 6.16668072e-03 3.97055829e-03
      9.54678399e-04 7.26689832e-05 9.10262857e-03 -7.82207586e-03
      -2.61298125e-03 2.40138290e-03 6.09230774e-04 2.11091293e-03
      -5.31084556e-03 -6.25230931e-03 -3.50158848e-03 -2.54003797e-03
      -7.97866285e-03 -2.41370313e-02 3.11703584e-03 -1.62322671e-04
      2.71669193e-03 -6.03017071e-03 -2.92759202e-03 4.24621627e-03
      1.88900012e-04 -2.46050470e-02 -1.39697734e-02 7.44182570e-03
      -1.88513531e-03 3.39823100e-03 -4.77886293e-03 -5.33637172e-03
      -3.90605163e-03 -1.54939690e-03 -2.17334814e-02 -2.93024583e-03
      6.74567325e-03 7.78204668e-03 8.30932334e-03 -5.36180055e-03
      -3.07084364e-03 9.04423767e-04 2.81288428e-03 -1.01107778e-02
      -1.23618264e-02 -2.76652141e-03 6.27375999e-03 1.74186111e-03
      -2.90474296e-03 -5.13376947e-03 5.57821011e-03 1.25063933e-03
      -1.05466740e-02 -1.41127864e-02 5.41507639e-03 8.57371288e-06
      3.51245952e-04 -5.73218847e-03 5.43865084e-04 2.22017826e-03
      -9.87166350e-05 -1.93610173e-02 8.71126447e-03 4.57851635e-03
      4.32272069e-03 7.73218414e-03 7.56344153e-03 1.27518177e-03
      -5.02899755e-04 1.12054180e-02 4.94686514e-03 -5.39386040e-03
      3.69939464e-03 3.37591465e-03 1.85244367e-03 4.64706728e-03
      1.86189637e-03 6.66706124e-03 1.67597234e-02 -9.46205109e-04
      -7.52740167e-03 9.96086188e-03 1.77464483e-03 1.50554359e-03
      -1.82867254e-04 3.14309425e-03 9.58630163e-03 7.58942543e-03
      -7.70716788e-03 -1.40446005e-02 3.90205276e-03 1.76649063e-03
      1.42619980e-03 -5.50162140e-03 -2.02730088e-03 1.57969026e-03
      -1.15235709e-03 -1.29604824e-02 -1.55267185e-02 9.66144446e-03
      -3.70765571e-03 4.39558132e-03 -6.41539972e-03 -9.73912794e-03
      -3.85039346e-03 1.96062168e-03 -2.40702759e-02 -2.05067787e-02
      9.98800620e-03 -1.90112536e-04 -2.22158362e-03 3.95194074e-05
      -1.61650428e-03 4.94452799e-03 3.97633761e-03 -2.11058054e-02
      -1.74849182e-02 4.04656911e-03 4.42779530e-03 1.15353195e-03
      -6.42311340e-03 -2.31178594e-03 3.23192845e-03 6.25896500e-03
      -1.18258866e-02 -1.00378541e-03 1.44585483e-02 5.23891672e-03
      3.43447831e-03 -8.11653025e-03 -2.13375082e-03 4.24857484e-03
      7.87796546e-03 -1.29586700e-02 -1.39631145e-02 1.73071790e-02
      1.24891084e-02 1.16128027e-02 9.46911983e-04 -4.27375408e-03
      8.43634829e-03 2.64668255e-03 -2.50185784e-02 1.68071725e-04
      7.00763380e-03 -1.49171421e-04 -1.19129836e-03 -1.01682323e-03
      3.67074530e-03 7.93236773e-03 1.25324763e-02 2.61717592e-03
      -2.66333320e-03 1.25014540e-02 2.30295141e-03 2.18650047e-03
      -2.50669615e-03 1.07858365e-03 1.63515061e-02 1.40777584e-02
      -7.71076418e-03 -5.55722089e-03 1.14758704e-02 1.07255876e-02
      9.36421193e-03 2.52657314e-03 -8.63820198e-04 4.44411393e-03
      5.90828201e-03 -8.21986049e-03 -1.41360359e-02 4.61721607e-03
      -3.66410986e-03 -7.44455203e-04 -8.21976271e-03 -5.94493002e-03
      9.92967049e-04 1.92224095e-03 -1.84121765e-02 -2.22672559e-02
      7.26679992e-03 -4.14885441e-03 -1.04854526e-02 -1.45686814e-03
      -1.28444016e-03 8.63115955e-03 6.98491232e-03 -2.36926097e-02
      -1.61056649e-02 3.73614929e-03 -1.04070930e-02 -8.98981001e-03
      -1.02696742e-03 -9.09080845e-04 2.80731620e-04 3.48863122e-03
      -5.84952952e-03 -1.79888289e-02 9.24121030e-03 1.06028270e-03
      4.02826676e-03 -8.02318659e-03 -3.44592100e-03 8.32891930e-03
      6.70464756e-03 -2.25909688e-02 -1.20304050e-02 1.43139595e-02
      1.23456093e-02 9.30912606e-03 2.30120472e-03 -3.78296571e-03
      7.10341334e-03 6.02796953e-03 -2.03411728e-02 -2.12606252e-03
      6.39714999e-03 2.25834316e-03 3.60225630e-03 -3.42707732e-03
      -1.08266221e-02 -9.79039166e-03 -2.49826582e-03 -8.44513625e-03
      -4.30137618e-03 2.20320304e-03 9.37961508e-04 2.84346403e-03
      -1.81038002e-03 -4.57065820e-04 1.10962857e-02 1.19823609e-02
      5.31256257e-04 1.60003209e-03 1.62854455e-02 1.29362978e-02
      1.32120233e-02 7.31294230e-03 -1.45266822e-03 3.39406054e-03
      5.36909746e-03 -7.21444050e-03 5.12423459e-03 4.47588135e-03
      5.04431780e-03 8.19529966e-03 6.04864536e-03 -2.35617836e-03
      4.90860548e-04 6.31107436e-03 1.33760634e-03 -2.01023668e-02
      5.52428467e-03 -4.84683877e-03 -6.56208536e-03 -5.02589217e-04
      9.69581772e-04 4.62120958e-03 4.80978843e-03 -1.32423146e-02
      -1.89425088e-02 -1.10393181e-03 -1.44960210e-02 -1.45468963e-02
      -1.17084971e-02 -2.16757273e-03 1.40542525e-03 4.55064606e-03
      -4.26107179e-03 -9.13977972e-04 -3.40895588e-03 -2.56167166e-03
      -6.72150170e-03 -4.60149581e-03 3.54978046e-03 -2.14312016e-03
      -3.95267690e-03 9.86381900e-04 -7.48591637e-03 1.06232259e-02
      6.07787026e-03 1.64430274e-03 -2.81051529e-04 -4.91579622e-03
      1.39846804e-03 2.93248449e-03 -1.62294805e-02 3.24953673e-03
      7.53934635e-03 3.31999222e-03 1.76634418e-03 -2.16564583e-03
      -1.25457104e-02 -6.06408669e-03 2.02216237e-04 3.06083192e-03
      4.28416254e-03 -1.22308861e-02 -8.24012514e-03 -2.16510519e-03
      -3.24714754e-04 -1.23517145e-03 -5.38106402e-03 -3.25123547e-03
      1.18505983e-02 3.40331579e-03 9.35622305e-03 7.23842345e-03
      5.08789485e-03 1.12385419e-03 -2.00364902e-03 1.68574008e-03
      5.69633069e-03 -6.23045769e-03 3.99618177e-03 2.17134412e-03
      6.57726545e-03 7.96380360e-03 -7.61501212e-03 -7.92376697e-03
      9.73933609e-04 8.06463975e-03 6.67201681e-03 3.71691259e-03
      -6.84303651e-03 4.42384789e-03 1.14445677e-02 8.30606371e-03
      1.29505787e-02 -2.45183648e-04 4.10298212e-03 9.97458305e-03
      -8.71116109e-03 -8.72014090e-03 -6.40481710e-03 2.26743193e-03
      -3.76883755e-03 1.34988804e-03 -4.10699518e-03 -6.63851574e-03
      -6.41928008e-03 -1.04210330e-02 -6.22579874e-03 -1.13320081e-02
      -1.47013285e-04 -5.28027723e-03 2.81115063e-03 -1.16756512e-03
      -7.09053921e-03 -1.15810586e-02 -1.05325878e-02 -1.98054942e-03
      -8.76464974e-03 6.20376132e-03 6.37247972e-03 2.86369701e-03
      -2.01130100e-03 -9.79608111e-03 -2.05480047e-02 -4.09906264e-03
      -7.38956500e-03 -1.48435570e-02 -1.84579915e-03 4.21842886e-03
      1.76867750e-02 1.10879885e-02 5.22207376e-03 2.77009071e-03
      3.96483764e-03 -1.09600299e-03 -8.21851380e-03 -1.56106967e-02
      -4.45942301e-03 1.30209522e-02 1.75437890e-02 1.87792592e-02
      1.01236850e-02 1.95291964e-03 -4.67951380e-04 -7.20386347e-03
      1.33327604e-03 2.57560378e-03 1.18861208e-02 9.52548441e-03
      1.34602338e-02 1.35383278e-03 -4.39197803e-03 -2.14875373e-03
      1.02824217e-03 7.36165047e-03 -3.93683231e-03 5.14457421e-03
      5.99271571e-03 9.95570514e-03 5.96871506e-03 4.35434468e-03
      5.40795736e-04 5.48463594e-03 2.15897642e-04 -3.15194321e-03
      4.33307420e-03 5.09734545e-03 1.29145617e-02 1.67436469e-02
      7.78684905e-03 5.49643766e-04 -1.44825972e-04 9.79379937e-03
      -3.83147458e-03 5.08724898e-03 3.61124636e-03 5.55326650e-03
      9.07157548e-03 -6.34965766e-03 -3.43411160e-03 -6.22861087e-03
      2.09945487e-03 -6.87380729e-04 -1.24810624e-03 -3.91761726e-03
      -7.21125398e-03 -1.07415980e-02 -1.08505078e-02 -7.48299109e-03
      -1.77510064e-02 -9.53164650e-04 1.74429268e-03 -3.06936447e-03
      -4.05568164e-03 -1.16867600e-02 -1.95157416e-02 -1.34263746e-02
      -5.13720792e-03 -7.18920073e-03 -4.36760020e-03 -9.68147535e-03
      -6.14905031e-03 -4.55951598e-03 -1.24207577e-02 -1.88699011e-02
      5.23254229e-03 2.99990969e-03 -6.39074948e-03 -1.03481356e-02
      -6.17857510e-03 1.06951240e-02 5.38046658e-03 6.56838110e-03
      7.21951481e-03 2.16171099e-03 -5.30734146e-03 -2.09694952e-02
      -5.32379188e-03 1.10014190e-03 9.64772422e-03 9.06769745e-03
      1.77845061e-02 1.04211259e-03 5.83398901e-03 -2.90973368e-03
      -1.09573239e-02 -5.08490717e-03 -3.78977228e-03 -8.92516039e-03
      -1.01878280e-02 1.77051418e-03 -2.83996807e-03 1.69760955e-04
      -2.29706382e-03 2.56200484e-03 2.85657845e-03 -8.60633235e-03
      5.93610667e-03 4.09505749e-03 1.16995657e-02 1.17141921e-02
      1.58533901e-02 6.45005191e-03 3.12935561e-04 4.34103049e-03
      2.70440429e-03 6.11386914e-03 6.31179893e-03 6.24143844e-03
      1.13614677e-02 4.17584460e-03 5.89984190e-03 3.79359047e-03
      3.30994348e-03 5.99577697e-03 -4.99252754e-04 -4.54264693e-03
      -3.05166497e-04 2.56978464e-03 -4.46145749e-03 -3.83827905e-03
      -7.61940796e-03 -7.85721466e-04 2.98606581e-04 3.95194598e-04
      2.18081172e-03 -1.49953121e-03 -5.87334996e-03 -1.41239148e-02
      -2.61260616e-03 -2.55104783e-03 -1.12638308e-03 -7.07336050e-03
      -6.88734977e-03 -8.68397206e-03 -1.56228757e-02 -2.32781190e-02
      -2.59892065e-02 -6.38230890e-03 2.78018485e-03 2.17012572e-03
      -5.84597467e-03 -6.19154563e-03 -5.42334281e-03 -9.59347747e-03
      -2.48171948e-02 1.33926608e-02 -3.23464186e-03 -1.29278293e-02
      2.57225882e-04 9.23786685e-03 7.15384632e-03 9.30037908e-03
      1.83313247e-02 7.84508325e-03 4.21991292e-03 -5.14403637e-03
      -4.24316106e-03 -1.42786081e-03 -3.92186310e-04 -7.97962397e-03
      -9.23553202e-03 4.03236225e-03 -1.95441651e-04 -2.09346358e-02
      -1.62254237e-02 -2.78657791e-03 -5.11667505e-03 -4.67388518e-03
      -6.41068630e-03 -6.00351812e-03 2.12316774e-03 -1.94143578e-02
      2.22127046e-02 7.47418217e-03 4.41351812e-03 2.95747817e-03
      3.14604538e-03 3.79928784e-03 2.68832059e-03 6.46865135e-03
      1.24240145e-02 6.88178092e-03 9.05708503e-03 9.51733626e-03
      5.08253369e-03 2.77759670e-03 1.90813513e-03 -1.20326629e-04
      2.43720436e-03 5.62146818e-03 -2.02240516e-03 -6.22338383e-03
      2.56612431e-03 -3.84804839e-03 -3.87216546e-03 -9.12695134e-04
      -1.00535399e-03 -1.11903111e-03 -5.15129929e-03 -4.01933864e-03
      2.74309586e-03 5.38905151e-03 5.58130909e-03 -1.85356219e-03
      -2.17672763e-03 -1.37365260e-03 -2.27280473e-03 -1.12834014e-02
      -1.85827576e-02 8.49905540e-04 7.25578982e-03 2.89630308e-03
      -3.85884475e-03 -5.35684964e-03 -3.18966457e-03 -6.33321190e-03
      -2.24363972e-02 -1.93577148e-02 -2.45858100e-04 1.22211687e-03
      6.91437745e-04 -5.48596540e-03 -1.24087953e-03 1.33385870e-03
      -7.31486268e-03 -2.26405580e-02 2.22769496e-03 1.96101912e-03
      4.04431112e-03 7.14397617e-03 5.36148995e-03 6.99619195e-05
      -3.87087883e-03 9.17197205e-03 -2.87966570e-03 -1.31828822e-02
      -1.07473191e-02 -3.57114550e-05 -7.68631464e-03 -8.88570305e-03
      -8.18391889e-03 7.54726934e-04 1.80055592e-02 -8.46210308e-03
      -1.50016379e-02 1.24627142e-03 -2.49893544e-03 -1.01077845e-02
      -6.60789944e-03 -4.87289019e-03 4.61183768e-03 3.36836278e-03
      -2.26310361e-02 1.31487790e-02 1.30093074e-03 7.40032643e-03
      3.28933285e-03 4.96514561e-03 4.00235085e-03 3.84531473e-03
      7.04923319e-03 1.05106151e-02 6.98239217e-03 -3.68493097e-03
      3.07590025e-03 -6.38891011e-03 -9.58948210e-03 -5.54803235e-04
      2.80402717e-03 6.89358357e-03 -5.32013131e-03 5.28554618e-03
      4.29075630e-03 2.49523763e-03 -4.49787965e-03 -6.87890034e-03
      -5.73790120e-03 1.40631234e-03 1.25464459e-03 -3.63511208e-04
      -1.56846084e-02 3.75225139e-03 2.85772211e-03 7.40736024e-04
      -3.74560920e-03 -1.73747109e-03 -4.54764115e-04 -5.61363762e-04
      -1.33375367e-02 -1.83097068e-02 9.18173522e-04 2.12900667e-03
      1.95242243e-03 -9.95098706e-03 -2.36893748e-03 5.38779469e-03
      -1.42075657e-03 -2.35834569e-02 -1.25344908e-02 9.12290066e-03
      6.06044522e-03 9.15180240e-03 1.06907776e-03 -3.53714684e-03
      1.39197661e-03 -4.59915679e-03 -2.06963215e-02 -1.23193301e-02
      -2.58903136e-03 -2.00271327e-03 -1.13195106e-02 -8.99793766e-03
      -5.94538590e-03 3.49373394e-03 1.03933569e-02 -7.19580287e-03
      -9.46834311e-03 4.01940569e-03 -2.41765659e-03 -8.39425717e-03
      -5.05442638e-03 -4.90055559e-03 1.33178513e-02 9.41047724e-03
      -1.37266871e-02 -8.48307367e-03 1.44503210e-02 1.29679097e-02
      9.97191109e-03 6.96972432e-03 3.31455981e-03 1.89273665e-03
      -3.22610419e-03 -1.63338035e-02 2.44250335e-03 -6.88819098e-04
      1.63102860e-03 -4.59936354e-03 -4.11040243e-03 4.62081691e-04
      4.00814926e-03 6.83332235e-03 5.46313403e-03 5.19714179e-03
      6.00748369e-03 -1.60751177e-03 -6.42404007e-03 -5.33617521e-03
      -1.49971782e-03 7.09704543e-03 1.07472995e-02 6.87970594e-03
      -2.92287557e-03 6.99045835e-03 2.14659399e-03 1.50005531e-03
      6.37274422e-03 9.49558336e-03 8.94610491e-03 1.34872524e-02
      3.26192880e-04 -1.52679728e-02 -1.59198651e-03 -2.68478296e-03
      1.45282620e-03 -7.00522214e-03 -3.01644346e-03 3.38297291e-03
      -8.40504363e-04 -1.85083859e-02 -1.70866083e-02 2.94322707e-03
      4.78010997e-03 6.68513402e-03 -1.87290064e-03 -9.83576663e-03
      -3.49489995e-03 -4.77600051e-03 -2.40674466e-02 -4.09724074e-04
      -2.40961160e-03 -3.54691059e-04 4.85010329e-04 -1.95751642e-03
      -1.26173934e-02 -1.01644211e-02 -4.75238869e-03 -1.13933831e-02
      -1.32633336e-02 2.66366708e-03 -4.43356717e-03 -3.31760687e-03
      -5.37572289e-03 -5.09321410e-03 5.00742765e-03 1.53219374e-03
      -1.57871712e-02 -4.14486323e-03 1.54804597e-02 1.17455078e-02
      6.65585510e-03 -4.38624341e-03 -1.48832542e-03 -5.10342792e-03
      -4.38998826e-03 -1.37606822e-02 -6.91995490e-03 6.34633657e-03
      8.12843349e-03 2.86487699e-03 -1.00953858e-02 -1.05854636e-02
      -5.10851713e-03 -4.44051484e-03 -6.17877254e-03 -2.43768562e-03
      1.71279395e-03 -2.95662391e-03 -2.04177108e-03 -1.64624056e-04
      5.88905939e-04 3.86785646e-03 6.85693463e-03 -8.00119189e-04
      -4.98923473e-03 1.66547690e-02 7.50491302e-03 -1.34437729e-03
      -3.77796590e-03 9.07351077e-03 9.42179840e-03 1.61149986e-02
      5.48067316e-03 5.16533502e-04 1.35726882e-02 1.09321261e-02
      5.90279888e-05 -1.06732706e-02 1.65276753e-03 1.37632515e-03
      9.75806452e-03 1.53233670e-02 -5.93522424e-03 3.53277521e-03
      1.32146222e-03 1.22914498e-03 -1.85520330e-03 -5.78496419e-03
      -3.53168719e-03 -1.40459172e-03 -1.54965650e-02 -7.06450082e-03
      -6.72355806e-03 -1.05209369e-03 -8.68188741e-04 -1.14646005e-02
      -1.68061238e-02 -1.21415593e-02 -7.72137567e-03 -7.86265079e-03
      -7.47750700e-03 -1.42462049e-02 -6.57221582e-03 -3.14791338e-04
      -5.95520856e-03 7.55497138e-04 -8.27568024e-03 -6.94104237e-03
      1.23012578e-04 -7.63551053e-03 8.92295595e-03 7.14759948e-03
      1.74186006e-03 -7.40651181e-03 -9.70107561e-04 -2.52856960e-04
      -2.87254900e-03 -1.07031567e-02 -1.76934502e-03 5.05111238e-04
      7.44817033e-03 1.86612795e-03 -1.46166245e-02 -1.58879329e-02
      -6.51178649e-03 -5.04998909e-03 -3.93035030e-03 -8.57439637e-03
      -8.05848651e-03 8.78666714e-03 4.90407320e-03 -3.73763149e-04
      2.27077282e-03 -5.91954263e-03 -1.00561406e-03 1.62039374e-04
      3.58337420e-04 1.09440628e-02 5.54726040e-03 1.20978257e-04
      -5.66337118e-03 4.67677368e-03 3.73703288e-03 1.47597967e-02
      2.30949279e-03 1.14013068e-02 1.66758299e-02 1.88168939e-02
      -5.21693891e-03 -2.48020366e-02 -2.39297422e-03 7.00678024e-03
      8.40676762e-03 1.82167292e-02 2.24483176e-03 1.09383157e-02
      1.61390137e-02 4.79904702e-03 -7.73845892e-03 1.46636216e-03
      9.56534222e-03 8.83635785e-03 1.95261920e-04 -2.62959604e-03
      -3.13733285e-03 -7.28737377e-03 1.65310083e-03 -2.50066514e-03
      9.73556284e-03 6.60761725e-03 4.13125800e-03 2.58856360e-03
      4.93947882e-03 2.88135651e-03 -5.37724886e-03 -8.48340057e-03
      -8.76553915e-03 1.11168548e-02 8.32065474e-03 8.49875249e-03
      1.16487313e-02 1.26710879e-02 5.10644680e-03 6.99227443e-04
      5.45429764e-03 2.98479199e-03 6.32406119e-03 4.02494986e-03
      6.17540069e-03 1.47873024e-03 -1.05194040e-02 -1.24564972e-02
      8.45915463e-04 4.49681794e-03 -2.43213656e-03 5.25764748e-03
      1.39071401e-02 1.67266093e-02 8.02413467e-03 -2.27324921e-03
      -8.26096907e-03 7.02837855e-03 -4.84347576e-04 -4.92872111e-03
      1.05807930e-02 1.27992788e-02 2.57229060e-02 1.81787629e-02
      7.86277000e-03 1.25589373e-03 -7.83128315e-04 8.70366395e-03
      -2.08488363e-03 1.26373135e-02 7.26375356e-03 1.16544859e-02
      9.92371608e-03 -1.08747492e-02 -6.41001994e-03 7.44590629e-03
      9.12180729e-03 -7.17179431e-03 1.79139304e-03 6.23630965e-03
      -1.19097752e-03 -1.90580217e-03 -6.72363210e-03 -1.64108090e-02
      -1.49976765e-03 -1.56367460e-04 -1.54428920e-02 -5.00510819e-03
      3.27370758e-03 1.11685377e-02 7.67022138e-03 -5.23200212e-03
      -8.70629027e-03 -7.16926996e-04 6.37611432e-04 -1.30940275e-02
      1.84287375e-03 2.23880028e-03 6.90317014e-03 3.10118543e-03
      6.23864913e-03 2.45311577e-03 -2.38866429e-03 -5.60099958e-03
      -7.66731286e-03 1.23986637e-03 -1.16576943e-04 3.77504766e-04
      4.27245582e-03 9.11383424e-03 -1.46605319e-03 -1.08089196e-02
      1.00413345e-05 5.25693875e-04 4.46198788e-03 3.07964114e-03
      8.31321441e-03 1.43786927e-03 8.11535027e-03 6.72272290e-05
      -4.98715974e-03 -5.33860351e-04 3.58607946e-03 -2.61801481e-03
      -7.42210075e-03 3.12487339e-03 -2.91166315e-03 -6.09834569e-05
      -7.20574474e-03 -2.84104259e-03 6.98619289e-04 -1.17513360e-02
      4.76014847e-03 6.96213217e-03 1.40692685e-02 1.24323899e-02
      -2.79856729e-04 -1.52617518e-03 -4.63169796e-04 -6.35267561e-03
      1.28562051e-05 1.21599026e-02 1.12273321e-02 1.72490824e-03
      9.80909914e-03 -4.23441688e-03 5.25214942e-03 8.36891402e-03
      -2.97675084e-04 1.65941869e-03 -7.76132038e-06 -1.67288596e-03
      -6.84173312e-03 -2.31781020e-03 -1.42707564e-02 -9.31718666e-03
      -4.32732189e-03 -2.60328455e-03 -1.81047842e-02 -4.88667609e-03
      1.52670091e-03 6.23732619e-03 4.04348224e-03 1.45751250e-03
      -8.10023211e-03 -1.55331334e-03 -7.95875676e-03 -1.19980061e-02
      -2.22887378e-03 3.11810261e-04 8.36190581e-03 7.42690032e-03
      -4.73839324e-03 -1.56892661e-03 8.44837911e-03 -2.64572469e-03
      1.87033752e-03 6.54845935e-05 3.34011798e-04 -3.32005834e-03
      -2.13219450e-04 1.19037731e-02 -7.20829295e-04 -4.54169186e-03
      3.67652887e-04 2.27410882e-03 3.18277074e-04 2.18706834e-03
      7.47730769e-03 3.81649961e-03 -9.20160615e-04 -2.59338482e-03
      -3.74490838e-03 -1.72919617e-03 1.59248675e-03 -4.79869405e-03
      -1.18525093e-02 7.21021148e-04 -3.82854661e-04 -1.46187786e-02
      -6.52909931e-03 -2.33167899e-03 -4.42902371e-03 -4.65043914e-03
      -6.60972623e-03 -8.23582057e-03 -3.37320124e-03 -1.89471859e-02
      1.64980739e-02 1.01810703e-02 5.15884953e-03 4.85419441e-04
      3.07363993e-03 3.11497389e-03 1.64661603e-03 -4.47120634e-04
      7.04890164e-03 -2.33003451e-03 3.70222074e-03 1.00600943e-02
      -3.52073996e-03 -5.55339642e-03 -4.01039841e-03 -4.76594688e-03
      -1.26568060e-02 -9.50632710e-03 -1.56981777e-02 -1.57686882e-02
      -1.13152229e-04 -6.46525016e-03 -6.80952938e-03 -2.78218952e-03
      -3.28938477e-03 -1.30219562e-02 -2.63810083e-02 5.16989268e-03
      -8.19610024e-04 9.12023883e-04 -3.92254721e-03 -5.17609622e-03
      4.16841904e-05 -1.57839808e-04 -1.49185187e-04 8.87802429e-03
      -6.09268551e-04 -2.45280028e-03 9.73285362e-03 -9.36809462e-03
      -4.41819336e-03 -9.58007702e-04 2.05517412e-04 1.54565112e-03
      1.00088725e-03 -1.70211866e-02 -9.36339051e-03 4.47524060e-03
      2.42456142e-03 1.96162844e-03 3.34392092e-03 2.77577876e-03
      -1.07995770e-03 -1.23136286e-02 3.87052237e-03 3.07916664e-03
      2.99353083e-03 2.30352604e-03 3.63325421e-03 -5.13207284e-04
      -5.23747364e-03 9.73810093e-04 -2.08014739e-03 -1.17540285e-02
      -6.33515278e-03 -1.51533098e-03 -9.09715332e-03 -7.53150322e-03
      -7.62262288e-03 -5.88413607e-03 4.41836659e-03 -9.35668591e-03
      -1.13926530e-02 -8.10204830e-04 -2.81340536e-03 -5.45260869e-03
      -6.49180589e-03 -3.45653458e-03 2.22273334e-03 -1.26432293e-04
      -1.65657401e-02 8.82488384e-04 2.69631040e-03 8.35483428e-03
      1.25351176e-03 -2.87326839e-04 3.08375596e-03 1.83094619e-03
      1.36019383e-03 -2.24883365e-03 -9.11037903e-03 -8.87757260e-03
      -5.13814297e-03 -9.59242973e-03 -7.60294171e-03 -4.22033994e-03
      -2.86544999e-03 -1.59060620e-02 -2.31735501e-02 -6.71640551e-03
      -9.26289067e-04 -3.43599031e-03 -1.02199558e-02 -8.65618885e-03
      -4.88153193e-03 -3.58767482e-03 -5.47836395e-03 -1.10458881e-02
      -6.01395871e-03 -1.88467873e-03 7.33646145e-03 -9.02444765e-04
      4.19447664e-03 2.42969533e-03 3.50109441e-03 4.73440252e-03
      4.92322585e-03 -7.66394800e-03 -1.01679545e-02 2.10865005e-03
      2.60545965e-03 4.59964434e-03 6.66208705e-03 7.93189835e-03
      -1.06920415e-04 -6.15541241e-04 -1.09656211e-02 -3.65808490e-03
      -5.49642195e-04 -1.68703753e-03 2.20777554e-04 3.45439254e-03
      -2.24380288e-03 -4.72496176e-04 -9.59778670e-03 -4.43485333e-03
      1.20966882e-03 -1.78944308e-03 -7.31601752e-03 -6.77259732e-03
      -2.23025563e-03 -3.06761387e-04 2.44627148e-03 -7.93160405e-03
      -1.03691714e-02 2.37462670e-03 -5.50080603e-03 -7.34867482e-03
      -5.00595896e-03 -2.79837381e-03 5.36080543e-03 -8.53215053e-04
      -2.05209944e-02 -9.49939433e-03 2.78683705e-03 1.91581517e-03
      -2.01031260e-04 4.10502963e-03 4.89287358e-03 2.48519005e-03
      -4.00524208e-04 -1.91792101e-02 -7.45659508e-03 -3.76971415e-03
      1.69939443e-03 -6.97103003e-03 -2.08759261e-03 3.46181961e-03
      3.16834613e-03 -3.98038840e-03 -1.31509528e-02 -7.29305111e-03
      -9.80413402e-04 -7.29442248e-03 -1.12988260e-02 -5.19482186e-03
      2.65068782e-04 -7.29857013e-04 2.22023390e-03 -1.03381006e-02
      -8.94809142e-03 5.74698159e-03 2.67763808e-03 1.48949283e-03
      6.33029360e-03 6.35902258e-03 7.21999770e-03 9.67465527e-03
      -1.25025515e-03 -8.43658671e-03 -1.62001280e-03 1.94982253e-03
      2.24549812e-03 3.98670416e-03 5.38659794e-03 4.31969343e-03
      4.13387967e-03 -1.07542062e-02 -3.91246146e-03 -3.84006486e-03
      -2.53466819e-03 -2.71116267e-03 1.89123442e-03 5.47143444e-03
      -6.21535815e-04 -3.68264527e-03 -7.70248845e-03 4.89393191e-04
      4.20337543e-03 5.23859216e-03 7.24982237e-04 9.89221269e-04
      1.40025059e-03 -1.12358516e-03 -1.50423928e-03 -4.91268933e-03
      -8.04926269e-03 -2.59878521e-04 -4.68002632e-03 -2.00514076e-03
      -1.34284538e-03 4.02884645e-04 3.71258333e-03 2.41729504e-05
      -1.45720551e-02 -1.48364175e-02 5.84539678e-03 3.99426091e-03
      -1.62842171e-03 -1.08017481e-03 4.29904135e-03 1.95291452e-03
      -2.96906498e-03 -1.94140598e-02 -1.78637891e-03 3.15495604e-03
      3.14672454e-03 -1.97335775e-03 -8.12985841e-03 -4.82092891e-03
      2.84735928e-04 -4.89305286e-03 -2.77290726e-03 -1.18065756e-02
      -9.75824194e-04 -5.86770568e-03 -4.53227572e-03 1.92615102e-04
      1.36253901e-03 -4.58276278e-04 2.46475637e-03 -1.04252286e-02
      -1.09505495e-02 6.10340107e-03 7.48934876e-03 -4.59856959e-03
      -5.42921433e-03 4.80934838e-03 3.96179920e-03 7.61581073e-03
      -6.98774529e-04 -7.91969523e-03 8.30428861e-03 1.21333990e-02
      -5.84835885e-03 -1.41342282e-02 -4.24309820e-03 -2.43305997e-03
      5.84768644e-03 7.52148125e-03 -2.77946412e-04 -4.39554267e-03
      -2.45760032e-03 -1.27329212e-03 4.60744277e-03 3.61634861e-03
      -3.34037672e-04 -4.44148481e-03 -8.76268465e-03 -7.41503946e-03
      2.41343142e-03 4.48544230e-03 -1.65734661e-03 -6.08098274e-03
      -2.11290293e-03 -2.12419033e-03 3.17481754e-04 -6.10780297e-03
      -1.47632090e-02 8.03921930e-03 7.39636924e-03 2.41796998e-03
      -6.78430498e-03 -3.27494158e-03 1.32259063e-03 7.17281690e-03
      -7.06475170e-04 -5.44273900e-03 2.64046714e-03 3.27415043e-03
      -5.15506952e-04 -2.97381030e-03 1.22493890e-03 6.64724328e-04
      -1.87012588e-03 -1.11844596e-02 -6.20858371e-03 1.91154447e-03
      8.82773474e-03 -3.49833234e-03 -2.14475095e-02 -6.93113171e-03
      2.18836667e-05 -6.60233153e-03 -5.38684754e-03 -2.20787083e-03
      -1.29024882e-03 6.22402644e-03 2.41155666e-03 -7.67760770e-03
      4.01905942e-04 -1.38060146e-04 2.46028561e-04 -2.10438413e-03
      -1.29995383e-02 8.74533039e-03 5.17242076e-03 -2.54503847e-03
      -9.50275268e-03 1.77913078e-03 1.93287374e-03 1.61091294e-02
      -6.47333276e-04 -5.14354371e-03 7.36586517e-03 1.51047641e-02
      -1.43632460e-02 -2.16783807e-02 -1.24518527e-02 -2.45927298e-03
      -2.02536979e-03 9.33370029e-04 -1.92862703e-03 1.35964174e-02
      1.59302633e-02 3.18954146e-04 -1.24890059e-02 -3.97916744e-03
      2.39635265e-04 -1.41125917e-03 -5.53922588e-03 -1.77700855e-02
      6.44181971e-04 1.05352351e-03 -1.59905094e-03 -6.22948725e-03
      -2.96852435e-03 3.15703545e-03 1.04393782e-02 -1.41694699e-03
      -8.13445542e-03 6.41835807e-03 9.06127878e-03 5.79295564e-04
      -1.34058725e-02 -2.75629386e-03 5.92260447e-04 4.10307897e-03
      4.08614258e-04 3.01228464e-03 1.07143661e-02 6.50252216e-03
      -7.69005623e-04 -4.58326237e-03 3.27526336e-03 -4.74164437e-04
      -5.57288388e-03 -1.22261175e-03 -3.87547398e-03 -3.25723644e-03
      5.77395968e-03 5.81646943e-03 -5.33140264e-03 3.79243447e-03
      6.93579577e-03 7.18016038e-03 4.38149134e-03 -1.06589624e-03
      -4.67729662e-03 4.70734481e-03 8.09170678e-03 -9.76751838e-03
      6.42835163e-03 1.06146848e-02 1.85149610e-02 1.67179387e-02
      1.12057785e-02 6.10922882e-03 4.56191925e-03 6.38132077e-03
      -6.46084489e-04 7.80816749e-03 4.55725938e-03 6.76606270e-03
      6.62315171e-03 -6.26574457e-03 -2.06147018e-03 1.43289566e-02
      1.28668584e-02 -8.24300665e-03 -1.90773862e-03 8.99482891e-03
      -1.04826340e-03 4.22576116e-03 1.04243224e-02 -1.05546052e-02
      9.60629201e-04 4.52495273e-03 -1.05352486e-02 -5.52934548e-03
      7.18890177e-03 1.94993075e-02 1.63592491e-02 8.52135196e-03
      -5.97028714e-03 -7.88283010e-04 1.36301049e-03 -1.12882275e-02
      3.00562289e-03 7.90855289e-03 1.63627602e-02 1.90494359e-02
      -5.11035105e-05 -7.41406484e-03 -2.51751440e-03 9.70999536e-04
      -1.64908227e-02 -9.76392184e-04 3.65698896e-03 1.61551940e-03
      2.77233194e-03 -2.84463027e-03 -7.43732229e-03 2.83963908e-03
      4.53021703e-03 -2.14056801e-02 -9.48482379e-03 3.73992650e-03
      8.69648624e-03 2.41120369e-03 -2.14786269e-03 -5.94016211e-03
      2.05760519e-03 9.70406923e-03 -5.12822648e-04 3.66455223e-03
      3.70419049e-03 1.05333356e-02 9.52838268e-03 -1.49075536e-03
      -3.61153786e-03 -9.31801973e-04 7.32704124e-04 -1.07651884e-02
      9.05979192e-04 4.07074532e-03 7.96465762e-03 8.00593942e-03
